-0.1025213,
-0.2988505,
0.1459160,
-0.4811461,
-0.0709312,
-0.0547626,
-0.2801687,
-0.5590699,
-0.3480826,
-0.2209519,
-0.2951202,
-0.3540801,
0.3626316,
-0.1536177,
0.0001755,
-0.2757867,
0.4640289,
-0.4787147,
0.2281378,
-0.3574308,
0.4710883,
0.3145693,
-0.3519424,
-0.3325499,
0.1923704,
0.3408440,
0.1993461,
-0.0541852,
-0.1022955,
0.3363367,
-0.2974783,
0.0101419,
0.5632356,
0.2800518,
0.3167365,
-0.1763091,
-0.2743369,
0.3543411,
-0.0419987,
-0.1352748,
-0.4324440,
0.0408587,
0.0576917,
0.4861652,
0.3677670,
0.4138049,
-0.3881376,
0.3481532,
0.4768887,
0.4431160,
0.3748934,
0.2723512,
0.1119071,
-0.2944010,
0.4131316,
-0.1409897,
0.5161866,
0.0428399,
0.3548334,
-0.1605891,
-0.2141335,
-0.4849030,
0.2101039,
-0.2044156,
0.1473144,
-0.1026593,
0.0147024,
-0.5037573,
-0.3753527,
0.4417849,
-0.2438871,
-0.2838644,
-0.0145267,
0.3669655,
-0.3529122,
-0.0875257,
0.3001324,
-0.1284182,
-0.4471187,
0.0404781,
-0.4046430,
0.3039741,
0.0459829,
0.2788121,
-0.5734866,
0.0648636,
-0.2597639,
-0.4740994,
0.4548437,
-0.5694758,
-0.2518506,
-0.2159213,
-0.3816112,
0.5361199,
-0.0652108,
0.4547327,
-0.1475924,
0.5366632,
0.3317241,
-0.0723095,
0.2307181,
-0.3049831,
0.2135869,
-0.2431698,
-0.3959012,
0.4485072,
-0.0350245,
0.2778080,
-0.2854693,
-0.1202631,
-0.0621516,
-0.1389991,
-0.0120690,
0.4787703,
-0.5960286,
0.0276538,
-0.2005401,
-0.2491197,
-0.0334853,
-0.1971666,
-0.3533731,
0.2341624,
0.0703262,
-0.2425970,
0.2332714,
0.3475881,
-0.5211101,
0.4420789,
0.2362935,
0.4005058,
-0.0568877,
0.1430969,
-0.1568392,
-0.3515677,
0.3918276,
-0.3605883,
-0.4852845,
-0.0137028,
0.4267714,
-0.2912737,
0.5151157,
-0.0086741,
-0.0498974,
-0.0746801,
-0.2003235,
-0.0391239,
0.2780817,
0.1855505,
-0.0306786,
-0.2322911,
-0.4602249,
0.2766043,
0.4035064,
0.0019366,
-0.4004287,
-0.1183554,
-0.1054158,
-0.2957446,
0.0319614,
-0.2865322,
-0.3668590,
0.4353691,
0.3671236,
-0.2941457,
-0.3210199,
0.2928837,
-0.1002389,
-0.3673577,
-0.3761822,
-0.0491275,
-0.2908525,
-0.4302007,
0.2865293,
0.2211179,
-0.0622422,
-0.2805496,
-0.4597735,
-0.4389600,
0.4675724,
0.1761068,
-0.3953160,
0.5758861,
-0.1025223,
-0.5012306,
0.0523617,
0.0835309,
0.0821505,
0.3783897,
0.2912030,
-0.4968028,
-0.3166937,
0.3358140,
0.4072827,
0.2998114,
0.5713951,
0.4504947,
0.1242106,
-0.1069118,
0.5659143,
0.3158536,
0.1749674,
-0.3002439,
0.3217995,
0.1155480,
0.2839998,
-0.3383631,
0.3380415,
0.3905011,
-0.2523462,
0.2530663,
0.0723736,
0.0773240,
0.1473354,
-0.5539732,
0.1305454,
-0.2965008,
0.1300111,
-0.3152936,
-0.4542754,
-0.0550758,
-0.3074673,
-0.3230420,
-0.4067904,
-0.5642975,
-0.4665915,
-0.3911732,
0.4508059,
0.1456586,
-0.0327663,
0.4537204,
0.0309461,
-0.1318509,
-0.3244608,
-0.1464887,
0.3854705,
0.4508409,
-0.0510579,
0.0623065,
0.3356103,
0.2864158,
-0.0826517,
-0.0954203,
-0.1253584,
0.5533941,
-0.0434815,
0.4762212,
-0.3653069,
-0.4113073,
-0.5422174,
-0.3431020,
-0.1247851,
-0.2498445,
-0.1097345,
-0.0240607,
-0.2307863,
0.0214371,
0.2356244,
-0.2790803,
0.1725936,
-0.3955115,
-0.0840586,
0.2942458,
0.4237825,
-0.4136846,
-0.4297656,
-0.1512546,
-0.0252812,
0.4967805,
0.6086070,
-0.3870493,
-0.0343605,
-0.3345622,
0.0466568,
0.3342301,
-0.5558857,
0.6219823,
0.1020527,
-0.5016570,
-0.7662004,
0.3167909,
0.2304966,
-0.0160760,
0.4070489,
0.2975713,
-0.3042035,
-0.5992836,
0.1276096,
-0.0582533,
-0.4823814,
0.2518328,
0.6546855,
0.0982390,
0.2789259,
-0.1229050,
0.2973512,
0.1189988,
0.0195967,
-0.5620654,
-0.2049899,
0.1779231,
-0.3374716,
0.6681321,
-0.0962503,
0.2094161,
0.0030768,
0.1681860,
0.3365824,
-0.0420655,
0.2542604,
0.5518058,
-0.4001720,
-0.2781110,
-0.2448183,
-0.5122277,
-0.2260692,
-0.5279981,
-0.1162552,
0.5052574,
-0.2832943,
0.1002245,
0.1860032,
0.5874207,
-0.6328388,
0.1185726,
-0.4312408,
0.7603937,
-0.5678379,
-0.1271869,
-0.4307318,
0.6356729,
0.6072372,
-0.1294235,
-0.1764696,
-0.2248061,
0.0554679,
-0.1920821,
0.5990208,
-0.6466181,
0.1311293,
0.4133453,
-0.6061199,
0.2807846,
-0.5133276,
-0.2033683,
0.1233863,
0.1710230,
0.4852960,
0.2745214,
0.4085381,
0.6794833,
-0.1125252,
-0.0734865,
0.2420755,
0.0265445,
-0.2094751,
0.5355965,
-0.1603308,
0.1875241,
-0.2702991,
0.1186856,
-0.1574726,
0.1595335,
0.4587734,
0.2973927,
-0.0252604,
-0.4579194,
0.5864069,
0.1472235,
-0.7264078,
0.0265840,
-0.1911981,
-0.4449854,
-0.1293697,
0.0360200,
0.0331490,
-0.4122767,
-0.6209260,
-0.4875794,
0.4209882,
0.1017612,
-0.4195987,
0.3192422,
0.8747089,
-0.4742562,
0.6379816,
-0.0009252,
0.3054483,
-0.3069920,
-0.1687520,
-0.4050182,
0.2042625,
-0.0462819,
0.0087355,
0.0287991,
-0.5413230,
-0.1412521,
0.1767466,
-0.2901407,
-0.2214842,
0.2264070,
0.1381647,
0.6098653,
0.3571932,
0.2933135,
-0.4218910,
-0.2349478,
-0.2988802,
0.4045332,
0.3193642,
0.5536095,
-0.0052448,
-0.6375598,
-0.4413960,
-0.0210705,
-0.1297583,
-0.3673194,
0.0965118,
-0.4672006,
-0.1950973,
-0.6050726,
-0.1054722,
0.2900144,
0.2146779,
-0.1671540,
-0.2677967,
0.1251474,
0.4199482,
0.0663793,
0.0661649,
-0.6256842,
-0.3005960,
-0.3151502,
0.2378492,
0.8154171,
-0.2251678,
-0.4587583,
-0.0992793,
-0.1269595,
0.4645392,
-0.2500260,
-0.2901395,
-0.3695861,
0.0820747,
0.3080901,
0.0763508,
0.0384657,
0.1676765,
0.0658103,
-0.2744811,
0.4867513,
0.2020044,
0.5172831,
0.2125034,
-0.3668844,
-0.7165296,
0.3237579,
0.0445473,
0.5943115,
-0.3182366,
-0.4052632,
-0.3184169,
-0.0054103,
-0.1112539,
0.5691522,
-0.0584782,
-0.0397106,
-0.5105187,
-0.0122482,
0.4309826,
0.5516477,
0.3153436,
0.1147887,
-0.4706936,
-0.3146942,
-0.1220416,
0.3477386,
-0.2099821,
-0.3292585,
-0.1511630,
0.5318973,
0.4727062,
0.3930691,
0.0275679,
-0.5683294,
0.5682929,
0.0652407,
-0.7658311,
-0.3263327,
-0.0565442,
-0.1653808,
-0.0882165,
0.2594785,
0.1191089,
0.4774629,
0.2648948,
-0.5618989,
-0.0227926,
0.4545195,
0.7778395,
-0.1732323,
0.5194574,
0.5474050,
-0.5825560,
0.5950506,
-0.4308493,
-0.3315374,
0.2246321,
0.2613832,
-0.1275159,
0.5799982,
-0.2147998,
-0.1179329,
0.2459821,
0.1709722,
0.4583657,
-0.5000855,
-0.0374976,
-0.2029245,
0.6525861,
-0.4320891,
-0.6518159,
-0.7083934,
0.3643380,
0.7154178,
0.4185508,
0.3252348,
-0.2318705,
-0.1585227,
-0.4195289,
-0.5169464,
-0.4242265,
-0.1487193,
0.5379179,
-0.2699361,
-0.6136515,
0.7054121,
0.4603755,
0.4447717,
0.0478195,
-0.3211714,
-0.1433231,
-0.3242747,
0.2023744,
-0.4767537,
-0.3960311,
0.5723476,
0.1239916,
0.4775312,
0.2592281,
-0.5229542,
-0.3837542,
-0.1484644,
-0.7333766,
0.4268779,
0.0466554,
0.5290340,
-0.1128085,
0.2526579,
-0.7308761,
-0.7287109,
0.0551517,
0.0358365,
-0.2022819,
0.1780027,
0.0679895,
-0.0846293,
-0.0065423,
0.1292571,
-0.3262684,
0.3574449,
-0.2403635,
-0.0866443,
-0.3192175,
0.0922771,
0.1043944,
0.2791306,
-0.9433509,
-0.7876328,
0.2052065,
-0.0914237,
-0.9503208,
0.7289327,
0.8058656,
-0.3177704,
0.6185616,
0.4757692,
0.4273838,
0.0788350,
0.3141854,
-0.2068415,
0.0082060,
-0.2712967,
-0.1531035,
0.3167486,
0.4115710,
-0.3359401,
-0.0429481,
0.3515121,
-0.7480430,
-0.1896252,
0.3243277,
-0.0128254,
0.5715309,
-0.6033930,
0.6123550,
0.2813543,
-0.0688148,
0.5567185,
0.4346334,
0.5998939,
-0.7059584,
-0.1877074,
0.7844608,
-0.4421560,
0.0008584,
0.3738211,
0.2554469,
0.3106891,
-0.3275441,
-0.7260750,
-0.1658408,
0.6525737,
-0.1767560,
-0.7101046,
0.0101439,
0.1731030,
-0.3719300,
0.6230773,
0.3716811,
-0.4909777,
-0.2484795,
0.1749798,
0.2104335,
-0.7127930,
0.2188216,
-0.1036070,
-0.0712469,
0.3237718,
-0.1534470,
0.0760302,
0.9610728,
-0.0267863,
-0.1162157,
0.0144127,
0.2405567,
0.3894663,
0.5875396,
-0.4407618,
-0.0449391,
0.3474812,
0.0463096,
-0.4021740,
0.7118994,
0.2234650,
-0.3523764,
0.0354621,
0.1254468,
0.3299562,
0.0365094,
-0.1210919,
0.2014327,
-0.0215674,
-0.6355397,
0.4786014,
0.3737240,
0.4478779,
-0.1789258,
-0.5439912,
-0.0357937,
0.1525599,
-0.6840024,
-0.0711007,
-0.6559280,
0.1622853,
0.0473460,
0.3374022,
0.1754766,
-0.6405880,
-0.7971741,
-0.8744445,
-0.7542376,
0.0659700,
-0.0911755,
0.7160361,
-0.4798956,
-0.3487196,
-0.2400526,
0.1918132,
-0.7534698,
0.6750213,
-0.4767045,
-0.6710194,
-0.0159202,
0.1899830,
0.2308731,
-0.5364899,
-0.5707537,
-0.9943805,
0.1480852,
0.6600048,
0.3282520,
-0.1220785,
-0.2006626,
0.2055753,
0.3850284,
-0.4438289,
0.0227252,
-0.3614285,
-0.3988555,
0.0507935,
-0.2643524,
-0.5224701,
0.6539907,
0.7490100,
0.9767719,
-0.5765139,
0.4240195,
-0.2783662,
0.1938012,
-0.1661292,
-0.6785984,
-0.5382431,
-0.5870336,
0.4258950,
-0.4094807,
0.2029418,
0.0647914,
-0.7494679,
-0.1310847,
-0.3190708,
0.0700929,
-0.3056589,
0.2476314,
0.0440666,
-0.3661782,
-0.1141319,
0.3814364,
0.0165973,
0.1272118,
-0.1650748,
0.1903868,
0.5655772,
-0.3835263,
0.3711570,
-0.3045956,
-0.8743375,
0.5924535,
-0.1061418,
-0.3727040,
0.2955496,
0.0105503,
0.1103372,
0.4866571,
0.2773013,
-0.1120261,
0.5443027,
0.1002932,
-0.7283040,
-0.1206691,
-0.1076789,
-0.2899233,
0.0027170,
0.0447956,
-0.1107685,
-0.4951619,
-0.0725307,
-0.5707752,
-0.8266976,
-0.6391499,
0.5051453,
-0.3766940,
0.4224324,
0.0565780,
-0.3441595,
0.0559409,
-0.1502618,
-0.4737208,
0.0991576,
0.0368144,
0.1054166,
-0.8554403,
-0.2039995,
-0.2347825,
0.0774308,
0.2732882,
0.2678878,
0.0466373,
-0.5212657,
0.3029497,
0.3619590,
-0.1253313,
-0.3796299,
0.0443522,
0.4408255,
-0.2899364,
0.2958281,
-0.1683909,
-0.1074758,
-0.4519687,
-0.2752869,
-0.2073327,
-0.3641697,
-0.2956954,
0.2169798,
-0.0299911,
0.4476989,
-0.2820517,
0.0979780,
-0.1714066,
0.5801432,
-0.4290141,
-0.1597711,
-0.2795710,
-0.4130479,
-0.5642318,
0.2789258,
0.4112471,
0.0098251,
-0.1772776,
0.2767946,
0.0061124,
-0.1748600,
-0.3994908,
0.4004330,
-0.3841863,
-0.3092501,
0.3011607,
-0.0825570,
-0.2870501,
0.3914342,
0.1884622,
0.0780374,
0.3442870,
-0.3113024,
0.0018350,
-0.3139433,
-0.5598656,
0.5154714,
0.3166114,
-0.0170930,
0.3093781,
0.6598432,
0.6752327,
-0.6977811,
-0.2452293,
-0.4600237,
0.6168867,
0.6282814,
0.1947292,
0.6451213,
0.1920403,
-0.5152164,
-0.0458537,
0.2563415,
0.4187515,
0.0468042,
0.3744483,
0.1102661,
0.1650443,
-0.0730953,
0.1422648,
-0.0829553,
-0.3039775,
-0.0663938,
0.2060302,
0.3481390,
0.2891992,
0.4069176,
0.4771082,
-0.0889302,
-0.3457349,
0.1313515,
-0.6870223,
-0.3366625,
0.0174716,
-0.3938098,
-0.2146466,
0.0466277,
-0.5136517,
0.3310372,
0.1407630,
0.2991199,
-0.2799194,
0.2847421,
0.0214618,
0.2465610,
-0.5673243,
-0.1918601,
0.2745169,
0.1613725,
-0.0543205,
-0.5344626,
-0.3131321,
0.4846885,
-0.0362273,
-0.6390674,
0.3268972,
-0.7548137,
0.2457076,
-0.0514003,
-0.3183722,
-0.6836036,
0.4920311,
-0.1061107,
-0.3095539,
0.2023580,
0.2715176,
0.2139954,
-0.4820221,
0.2665296,
-0.1764369,
0.1650860,
0.0705188,
0.0499668,
-0.2313674,
0.6378362,
0.3063724,
-0.2974107,
-0.2359299,
-0.0639122,
-0.4796343,
0.4434956,
-0.2866121,
0.0508643,
0.2156189,
0.2987520,
-0.4443092,
-0.0906830,
0.0997314,
-0.3423183,
0.4335051,
-0.5877673,
-0.1740991,
0.3716185,
-0.0886782,
0.0948151,
-0.0841977,
-0.4542471,
-0.1915639,
0.0324385,
0.4468796,
0.3409988,
-0.3080703,
-0.3188583,
-0.0368237,
-0.1170745,
-0.5131500,
-0.4881543,
-0.0315484,
0.1843023,
-0.1376991,
0.4344937,
0.0454543,
0.0034002,
-0.1089395,
-0.2225374,
-0.0922608,
0.2360281,
-0.0253074,
-0.5370023,
0.5311277,
0.0216416,
-0.3896079,
-0.3064829,
0.1140612,
0.1180894,
0.0196366,
0.3655735,
0.5659816,
-0.4955780,
0.0952697,
0.0588171,
0.1829431,
-0.1304365,
0.3604203,
-0.4363892,
0.7106285,
-0.3966240,
-0.1350534,
-0.0626960,
0.2847590,
-0.0934565,
-0.3826791,
-0.6094715,
-0.5569067,
0.4676180,
0.0551448,
-0.1555350,
-0.0986559,
0.5648152,
-0.2820630,
0.1302238,
0.1518415,
-0.2232221,
0.1353019,
0.7308690,
-0.3593183,
-0.2877000,
0.3214469,
-0.0006456,
-0.1764705,
-0.1531865,
-0.2274625,
-0.2007292,
0.4227539,
-0.3368016,
-0.2369343,
0.2310262,
0.0371022,
-0.0117119,
-0.1663245,
-0.3549294,
-0.2348166,
0.1340271,
-0.4664899,
-0.4336568,
-0.2135844,
-0.0012926,
-0.1175953,
0.3450188,
-0.1085056,
0.0948103,
-0.4920845,
0.3261023,
-0.2909112,
0.2627051,
0.6377148,
-0.4868365,
-0.1569600,
0.4048242,
0.6105113,
0.0697041,
-0.1718878,
-0.1742645,
0.5438880,
-0.3748207,
0.2128152,
-0.2424211,
0.2310571,
-0.4527195,
0.3064732,
-0.1929415,
-0.3097879,
0.6107658,
0.4745222,
-0.1508650,
-0.5141749,
-0.1982247,
0.2464899,
-0.1645286,
-0.5170006,
-0.3338868,
-0.3592702,
-0.3691259,
-0.2353984,
-0.1766052,
0.3161980,
-0.2535246,
-0.0875894,
-0.3068235,
-0.3957563,
-0.1424839,
0.2598951,
-0.2454145,
0.0752115,
-0.0227921,
-0.3988140,
-0.2209519,
0.2613248,
-0.3766791,
-0.2410759,
0.2280389,
-0.1768085,
-0.0260180,
0.0964707,
-0.2912211,
0.3416430,
0.1471251,
-0.1038009,
0.1234690,
0.3889701,
-0.0128424,
0.4323207,
-0.4506674,
0.2184012,
-0.5133476,
-0.0076980,
0.0888053,
-0.1893450,
0.2826643,
0.2794031,
-0.2629435,
-0.4767853,
0.0685197,
0.0086881,
0.2441717,
-0.5133232,
0.4797379,
-0.3634880,
0.4188233,
-0.3791528,
-0.1246388,
0.1706242,
0.0074860,
0.4729309,
-0.3274158,
0.2299833,
0.5342106,
0.0130859,
-0.4133363,
0.0076321,
0.0990471,
0.2010212,
-0.3303914,
0.3043601,
-0.3303135,
-0.3031963,
-0.4660182,
0.5470915,
0.1004119,
0.4110311,
0.0710769,
0.2798609,
0.4816485,
-0.3131213,
-0.1379576,
0.2290066,
-0.2361119,
-0.2279034,
0.2801312,
-0.5330374,
-0.1999562,
-0.3744487,
-0.0373763,
-0.0308299,
-0.5816658,
0.1512376,
-0.1566624,
0.3336060,
-0.1680345,
-0.2679956,
-0.1528752,
0.3040958,
0.4328622,
-0.1474824,
-0.2666329,
-0.2062234,
0.3609752,
0.2070092,
-0.2544198,
-0.3049312,
-0.3321095,
0.4345923,
-0.6564396,
-0.3896531,
0.4671999,
-0.0868183,
0.2432054,
-0.3045304,
0.0375960,
0.1104703,
-0.1188466,
0.2997356,
0.0894349,
0.3051147,
-0.1633977,
0.1378841,
-0.0382363,
-0.0023486,
0.0085706,
0.1875713,
0.2473469,
0.2423939,
-0.0726594,
0.1848183,
-0.2486129,
0.4230186,
0.3566513,
0.4508587,
-0.1163564,
0.4514462,
-0.3914810,
0.1609498,
0.1066208,
-0.5704430,
0.2603960,
0.2022662,
-0.1703809,
0.1019067,
0.2717212,
0.3855031,
-0.5565122,
-0.6386680,
0.3363775,
0.0910887,
0.3899566,
0.3384400,
-0.1650166,
-0.3213564,
-0.1079056,
0.1229820,
0.3309552,
-0.4255091,
-0.2137576,
-0.4931601,
0.5007770,
-0.1044947,
0.5763506,
0.2437349,
-0.3676659,
-0.0861970,
0.1646447,
-0.2144043,
0.4293802,
-0.2566470,
-0.1141330,
0.1576779,
0.4492964,
0.1824916,
-0.1391748,
0.1933749,
0.0558433,
-0.2777707,
0.2317165,
-0.5486713,
0.4822660,
-0.0445419,
0.4129350,
-0.2627094,
0.1676873,
-0.2541642,
0.4680035,
-0.1297009,
-0.0080133,
-0.2056443,
0.0209613,
-0.0363677,
-0.0312421,
-0.2517609,
-0.5503586,
0.0819195,
0.2718151,
0.2494803,
0.3376698,
-0.2036965,
0.3773405,
-0.3201543,
-0.2798997,
0.3133156,
0.3731226,
-0.2446540,
0.0724689,
0.0570770,
0.1856652,
-0.3478377,
-0.2430457,
-0.0274593,
0.0986691,
-0.3048075,
0.3261537,
-0.2705724,
0.0542549,
0.1155075,
-0.1175707,
-0.5645294,
0.3215476,
0.4683167,
-0.0879525,
-0.1315992,
-0.2323908,
-0.0564197,
-0.4981426,
0.2378217,
-0.3919198,
0.3347534,
-0.2590383,
0.4105886,
-0.3322066,
-0.0780790,
0.1168857,
0.4141925,
0.1523726,
-0.2288520,
-0.4183707,
-0.3677572,
-0.2203120,
-0.1668501,
0.3348969,
0.3445315,
0.0148568,
0.1057104,
-0.4601009,
-0.4799786,
-0.1985347,
0.0417343,
-0.4131392,
-0.2869764,
0.2013506,
0.1412655,
-0.0189277,
0.5154308,
0.3916858,
-0.0868835,
0.3042868,
-0.6641535,
-0.2157506,
0.1666168,
0.3245380,
-0.1126878,
-0.3807593,
0.2125584,
-0.2197848,
-0.4970838,
0.3233901,
-0.3166913,
-0.1719804,
0.4818715,
0.2683325,
-0.4057500,
0.6836359,
-0.4352027,
0.2802229,
0.3041757,
-0.3553575,
-0.4483918,
0.0593086,
-0.3884528,
-0.5103514,
-0.2742228,
0.1384174,
0.3588738,
-0.4709173,
0.3746870,
-0.2568035,
0.3567763,
0.1901687,
-0.1922096,
0.3410012,
0.3410378,
0.0793228,
-0.2847000,
-0.2199332,
0.3213633,
-0.4474017,
-0.3669716,
-0.2033683,
0.0412994,
-0.4426376,
0.0711087,
0.2482452,
0.4734326,
0.3101530,
0.1518907,
0.6475722,
-0.3939751,
0.0921482,
0.1003387,
-0.2419334,
-0.1610216,
0.5981556,
-0.1573158,
0.3918743,
0.4661952,
0.6998205,
-0.0471601,
0.3162144,
0.3708851,
0.6786661,
0.1058547,
0.1045047,
0.2123993,
0.3420106,
0.4583135,
-0.1404871,
0.4258330,
-0.5372166,
0.3275600,
-0.0854111,
-0.2262068,
0.0160324,
-0.4990286,
-0.2835462,
-0.2554832,
0.3351192,
-0.2783201,
-0.1322605,
-0.0825619,
0.1750973,
0.1852113,
0.0856441,
-0.1520708,
0.3994374,
0.0301258,
0.0368588,
0.5884764,
0.4149698,
-0.1865099,
0.0965190,
0.1015763,
0.4103656,
-0.4661037,
-0.1843202,
0.1922126,
-0.3883460,
-0.2823509,
0.1556337,
-0.4523427,
0.2856441,
0.4412723,
-0.5196397,
-0.3363298,
0.4368873,
-0.2084261,
-0.0865216,
0.3598288,
0.1218736,
-0.4364365,
-0.1562293,
-0.3711085,
0.2569640,
0.5168535,
0.3107298,
0.3539601,
-0.3317909,
-0.3203194,
0.2336366,
-0.4780766,
-0.1735489,
-0.2819809,
0.4024255,
0.0263733,
0.4038129,
-0.1109314,
-0.4563340,
0.3589935,
0.1581152,
-0.0265753,
0.5444306,
0.0716612,
-0.1903160,
-0.3039071,
0.1556006,
-0.0697131,
0.3472439,
-0.1427972,
-0.4483528,
-0.1913075,
-0.2109577,
-0.0929214,
-0.0391376,
-0.3152381,
-0.2191464,
-0.2563546,
-0.3835997,
0.0758445,
-0.3511974,
0.0718293,
-0.0022582,
0.3012169,
-0.5471265,
-0.0451413,
0.0497398,
0.1901014,
-0.3232964,
-0.0982440,
-0.2797382,
0.3222122,
0.4060051,
-0.1172093,
-0.2332072,
-0.1808789,
0.3667160,
0.4080274,
0.2414089,
-0.1085355,
0.0367857,
0.3180604,
0.2945535,
0.0450719,
-0.4419756,
-0.5238398,
0.2384681,
-0.1026160,
-0.3798784,
0.4760403,
-0.4862807,
-0.1674195,
0.0663927,
0.3067786,
-0.2478932,
0.3294267,
-0.2120653,
0.3328086,
-0.1431240,
-0.2999471,
0.6388663,
0.4260824,
-0.3029050,
0.4512455,
-0.2400094,
-0.3343471,
-0.1150920,
-0.4392845,
-0.2554512,
0.2809670,
0.0671830,
0.0419471,
0.3138455,
-0.0484613,
-0.1420460,
0.4720684,
-0.1899108,
-0.3257936,
0.2251392,
0.2444802,
-0.1613752,
0.0069701,
-0.4704714,
0.4313718,
-0.4654831,
-0.1116889,
0.0955000,
-0.0609085,
-0.4254705,
-0.3820039,
0.2041967,
-0.3443732,
0.2126246,
0.2824730,
0.7170564,
-0.2038889,
0.5800590,
-0.3074036,
-0.2417563,
-0.4208075,
-0.3230997,
0.4785108,
0.1725851,
0.4822595,
-0.3678845,
-0.1328183,
0.3826731,
0.4118189,
-0.3880934,
-0.1669265,
-0.1616632,
-0.2382518,
0.2509394,
0.1335046,
-0.1714177,
0.3530584,
-0.7491759,
-0.4834491,
-0.5413134,
-0.3808759,
-0.1783118,
0.1007401,
-0.2412732,
-0.6411050,
0.1505078,
-0.3054964,
-0.0943619,
0.0094245,
0.0134099,
0.1785198,
0.4552103,
-0.0149618,
-0.0732845,
0.1938434,
-0.3910742,
0.5259203,
-0.1456498,
-0.6258370,
-0.3502648,
0.3120486,
-0.3233445,
0.0441321,
-0.3870757,
-0.3251365,
0.3763046,
0.2330896,
-0.3157233,
0.3979095,
0.5601891,
-0.2294015,
0.5746174,
-0.5087515,
-0.5681343,
-0.4529919,
-0.1902712,
0.1938250,
0.1450589,
0.2569619,
-0.3913083,
0.2969297,
-0.1179826,
0.5303457,
0.1616874,
0.4476718,
0.0151007,
0.3287036,
0.0572794,
0.0058970,
0.4290452,
0.3620940,
-0.1167272,
-0.4291733,
0.3578507,
0.0685665,
-0.3353777,
0.2918959,
-0.1772856,
-0.4172463,
-0.0350046,
-0.1174862,
-0.2181882,
0.0526883,
0.0924356,
0.2147614,
0.5038311,
-0.3103332,
-0.0238935,
-0.0743978,
0.2963675,
-0.0812670,
-0.2772168,
-0.4249131,
0.0564594,
0.2862133,
-0.2442201,
0.2190140,
0.1776272,
0.0799937,
0.1651031,
-0.1567904,
-0.3560516,
-0.0346491,
-0.0422682,
0.6262183,
-0.0422989,
0.2140389,
0.4258952,
0.7874746,
-0.3105739,
0.0979379,
-0.0918483,
0.1299853,
-0.0388672,
-0.5647673,
-0.3516300,
-0.3553999,
-0.2934067,
0.1314108,
-0.1150996,
0.4402538,
-0.3500655,
0.3095691,
0.7406580,
0.0441977,
0.0352778,
0.4035508,
-0.3667252,
-0.3780373,
0.1579858,
0.0643801,
0.1458479,
-0.2338855,
-0.2075740,
0.7167607,
-0.0125754,
0.4671833,
0.1055477,
-0.2476639,
0.5087656,
0.2617511,
0.0945514,
-0.0870183,
-0.0307514,
0.5684192,
-0.2825290,
-0.0745277,
0.5879253,
-0.1548736,
-0.3259627,
-0.4300520,
0.0293263,
-0.3159685,
-0.5995145,
0.0950264,
0.5182210,
0.4344728,
-0.2751832,
-0.5176685,
0.4627765,
0.7243969,
0.5096933,
-0.2541081,
-0.3710744,
-0.3374740,
-0.4246046,
0.4502836,
-0.2161919,
0.6232520,
-0.4195689,
0.5559944,
0.1067059,
0.0043182,
0.0570631,
0.1758931,
0.3519728,
0.4382648,
0.0270786,
0.3499264,
0.0243656,
0.2614902,
0.6712719,
0.1692562,
-0.2874422,
-0.3620497,
-0.3140710,
0.4765902,
0.6640556,
-0.3048753,
-0.3846414,
0.1340524,
-0.3087464,
0.4263508,
0.5152735,
0.1454439,
0.2873100,
-0.5172934,
-0.2976498,
-0.5010048,
0.4055951,
-0.1766435,
-0.2187310,
-0.1106199,
-0.6185345,
-0.1457980,
-0.2960363,
0.2060191,
-0.1667166,
0.4092092,
-0.0065892,
-0.2124601,
-0.1068523,
-0.1738318,
-0.4084343,
-0.2006104,
-0.1539604,
-0.1013001,
-0.0576230,
-0.2535553,
-0.0169540,
-0.0172509,
-0.5212173,
0.3283658,
-0.3499123,
0.4740168,
-0.1773028,
-0.3207412,
0.5481266,
-0.0647513,
-0.2862452,
0.2179957,
0.2669985,
-0.1721816,
-0.2447879,
-0.4373407,
0.1035171,
-0.0074933,
-0.1343384,
0.5851371,
-0.0753392,
-0.3663607,
-0.1059946,
-0.7264170,
-0.0079311,
0.2441285,
0.0003880,
0.3592220,
0.6679392,
0.4006708,
-0.1810256,
-0.1327315,
-0.3163163,
-0.0586986,
-0.1339421,
0.0604086,
-0.5360145,
0.5857916,
0.7185527,
-0.5433092,
-0.2694544,
-0.3325303,
0.4517010,
-0.4441072,
0.2039052,
-0.4587118,
-0.1068630,
-0.0745307,
-0.0029009,
0.4604469,
-0.1232334,
-0.5819248,
0.2485340,
0.4437531,
-0.3283116,
-0.2871948,
-0.1605557,
0.4305225,
-0.4425286,
-0.2648617,
0.2029113,
-0.1729274,
0.2555146,
-0.2504857,
-0.0087934,
0.3247422,
0.8144583,
-0.0851241,
0.0716990,
0.5004522,
0.0149883,
0.4480575,
-0.3042288,
-0.2601529,
0.5120464,
-0.5488928,
-0.1648693,
-0.3412007,
0.4326379,
-0.3418816,
-0.1245127,
-0.3746424,
-0.4752872,
-0.3804287,
-0.9198359,
0.0620980,
-0.2355181,
0.1162616,
-0.4056862,
0.2206877,
0.3954448,
0.4059445,
0.3228093,
-0.0288648,
-0.0856296,
-0.2706207,
-0.2438125,
-0.1303526,
-0.0764372,
0.1919542,
-0.4967850,
0.2127887,
-0.1467741,
0.1439674,
-0.3265364,
-0.0721039,
0.0910309,
0.1652843,
-0.1209390,
0.5041002,
0.4300370,
-0.0116396,
-0.5091088,
0.4607741,
0.2493396,
-0.4438245,
-0.0752295,
0.0990257,
0.2546343,
0.2354337,
0.6565471,
-0.0494998,
0.2821810,
0.3358921,
0.5350000,
0.4638568,
0.4281197,
-0.2756581,
-0.3654127,
-0.5093500,
0.6716716,
-0.3080478,
-0.5461080,
-0.4606225,
-0.2339393,
0.1559546,
0.1347243,
0.7847975,
0.4251244,
-0.2672515,
0.5023173,
-0.2278525,
0.3807676,
-0.4475230,
-0.0705790,
0.4644198,
-0.2668734,
0.5440031,
-0.4163993,
0.0955692,
0.2402512,
0.7681440,
-0.1440532,
0.2611842,
0.1838862,
-0.0938137,
-0.2752411,
-0.3718503,
-0.1064570,
-0.1002979,
0.0713208,
-0.3358228,
0.0722337,
-0.2431534,
-0.2057488,
-0.6999244,
0.3392100,
-0.5365815,
0.2559477,
-0.0403837,
0.0405516,
0.4040252,
-0.4603328,
-0.2322663,
0.4819753,
-0.0572129,
-0.3593327,
-0.5505379,
0.1414994,
-0.4644644,
0.2751858,
-0.3245021,
-0.2461842,
-0.4244326,
-0.1686648,
0.2722056,
-0.3932828,
0.2196379,
0.4992442,
-0.0401821,
-0.3858812,
-0.2307582,
0.1485844,
0.0898696,
0.5150902,
-0.2606043,
0.2103993,
0.0637123,
-0.1645869,
0.0986406,
-0.5917267,
0.1813842,
-0.2065571,
-0.3290892,
0.3342524,
-0.3403995,
0.3018641,
0.6230287,
-0.2261872,
-0.2441035,
-0.3088497,
-0.2717042,
0.3564372,
0.1154316,
-0.4406799,
-0.6465103,
-0.4249880,
-0.1142369,
0.5856569,
-0.3504772,
0.2608177,
0.4403362,
0.1544235,
0.1964450,
-0.2531509,
-0.1459569,
0.1616420,
0.3520272,
0.5105902,
0.3295944,
-0.0834769,
-0.6044724,
-0.2187406,
0.3143582,
-0.4371992,
-0.1489675,
-0.4081844,
-0.8199139,
-0.5136646,
0.1605085,
-0.2687795,
-0.1185929,
0.1661477,
0.4434579,
0.2521622,
0.2309266,
0.4227358,
-0.3130379,
-0.2408350,
0.3013909,
-0.4580794,
-0.2359269,
0.1289096,
0.1203773,
0.3457204,
-0.2268316,
-0.0631895,
-0.2428255,
0.4577642,
-0.6970800,
-0.4807199,
-0.1479367,
-0.1424832,
0.0742501,
-0.2433634,
-0.0664265,
0.1869547,
-0.1724756,
-0.1992925,
0.6254557,
0.1615713,
0.2707276,
-0.0551354,
0.2463382,
0.0269970,
-0.3363321,
-0.3257274,
-0.0467728,
-0.2855224,
-0.2609370,
-0.5306268,
-0.0823426,
-0.1314957,
0.3674013,
-0.2616489,
0.5429393,
0.0967518,
0.1000053,
-0.0690594,
0.3652817,
-0.0261791,
-0.1869370,
-0.2064309,
0.1471482,
0.3272586,
-0.0876600,
0.1610948,
-0.1066951,
-0.0809590,
-0.1159516,
-0.3409297,
0.3609160,
0.1287586,
-0.2270134,
-0.5377930,
-0.1325727,
0.0716539,
-0.0852463,
0.2342855,
-0.2654347,
0.3330804,
0.5418590,
0.4728805,
0.3094214,
0.3791553,
-0.4566346,
0.4863577,
-0.4235513,
0.0176630,
-0.4429082,
-0.1924480,
-0.7489751,
-0.1676594,
-0.1331712,
0.0498703,
-0.3672156,
0.7013168,
-0.2690088,
0.1217330,
0.2394707,
0.2771157,
0.0545975,
-0.1096348,
0.1298780,
-0.6968058,
-0.0835366,
0.4092278,
-0.0269355,
0.3517372,
-0.2079494,
0.5412982,
-0.1619095,
-0.0208536,
0.4328467,
-0.4310086,
-0.1046122,
-0.4618971,
-0.3420320,
-0.4070693,
-0.0608883,
0.2451781,
-0.1023682,
-0.1794994,
-0.2536145,
0.5079714,
-0.3667077,
-0.1136195,
0.7526577,
0.1372216,
0.5965747,
-0.1073401,
-0.2973000,
-0.0044203,
-0.4840494,
0.2514008,
0.2562859,
-0.1027843,
-0.2470890,
-0.6223568,
-0.1263902,
0.4907608,
-0.1412089,
0.2953242,
-0.6626518,
0.2475965,
-0.6223745,
0.4060566,
0.5481581,
0.2736122,
-0.3823324,
0.0579361,
-0.1958764,
-0.0713877,
-0.4064456,
-0.1316193,
0.4327627,
-0.4832394,
-0.1640748,
0.0970265,
0.6045202,
0.4393085,
-0.5201257,
-0.5777276,
-0.3591302,
-0.3495247,
0.5061459,
0.2900877,
0.8790220,
-0.5079378,
-0.1986100,
-0.4757201,
0.3893140,
-0.6431319,
0.2954215,
0.5638879,
-0.5576726,
0.4392404,
0.2038140,
-0.4496862,
0.0817592,
-0.4060722,
-0.0692701,
0.2929364,
0.4676686,
0.4095209,
-0.2111597,
0.0473094,
-0.4460335,
0.6499322,
0.4754671,
0.3939492,
0.0231335,
0.4444315,
-0.4074452,
0.3878756,
-0.4229875,
0.2933229,
0.4384442,
0.3795388,
0.4455270,
0.1858800,
0.3813918,
0.2857117,
0.6368682,
-0.0894319,
0.2032954,
-0.7276820,
0.0706676,
-0.2286518,
-0.1546018,
-0.5905982,
-0.0869957,
0.4264489,
0.4883901,
-0.3043397,
0.1085846,
0.3532832,
0.2960913,
0.2170395,
0.3987010,
0.1754470,
0.1054524,
-0.3500707,
0.1074331,
0.3405964,
-0.3989086,
0.2146647,
0.0835580,
0.4668226,
-0.0563577,
-0.2017052,
0.1515504,
-0.4712461,
-0.6944014,
0.6924163,
-0.0905744,
0.3430219,
0.3571766,
-0.4527886,
-0.6940802,
0.5738917,
-0.3744018,
0.1134132,
-0.0235964,
0.4077039,
0.2656494,
-0.0875591,
0.1300258,
-0.0405595,
0.1434788,
0.2086350,
-0.5667497,
0.1165042,
0.6505052,
-0.0304798,
-0.3920132,
0.4135632,
-0.1482236,
0.2935888,
0.3351279,
0.0236725,
-0.3550691,
0.2293031,
0.6902052,
-0.0798210,
-0.1652773,
-0.3610106,
0.4317877,
-0.3904713,
-0.2871098,
0.5367044,
-0.4528996,
0.0551459,
-0.3646694,
0.4455427,
0.0949301,
0.0435533,
-0.4669532,
-0.3777521,
0.3467266,
-0.3041243,
0.0921176,
0.0054697,
0.3348089,
0.2512986,
0.1897718,
-0.4020326,
0.7297598,
0.0639445,
-0.7248017,
0.3191859,
-0.5567954,
-0.3120602,
-0.0479635,
0.4603532,
0.0188676,
0.4750173,
-0.2095202,
-0.5097395,
-0.3515295,
0.1140819,
-0.2156965,
0.2167780,
-0.3023796,
0.2368671,
-0.6085941,
0.4194931,
-0.3149985,
-0.2262794,
-0.5308297,
0.0304166,
0.2403918,
0.6879806,
0.0595497,
-0.0489801,
0.2451618,
-0.5483351,
-0.0111464,
0.0914480,
0.1802194,
0.1818369,
-0.1628349,
0.3392361,
0.5632469,
0.2772987,
0.2170954,
-0.1596881,
0.3859555,
0.3316764,
0.2348951,
0.2517193,
0.0225979,
-0.1341089,
0.7289643,
0.0842028,
0.5641459,
-0.4009414,
-0.3593769,
-0.2211611,
-0.1527901,
-0.2108946,
-0.3294992,
-0.3678442,
-0.2634316,
0.2978146,
0.0766872,
-0.4527264,
0.2647689,
-0.0860805,
0.2597164,
-0.0940609,
-0.3998311,
-0.2030241,
-0.4311464,
-0.2972264,
0.5243268,
0.4391457,
-0.0132917,
0.0936705,
0.0896181,
-0.3413764,
-0.2314323,
-0.4821647,
-0.2907027,
-0.4245551,
0.0607808,
-0.1800495,
-0.1179379,
0.4165261,
-0.0702839,
0.2199608,
-0.3553035,
0.0784736,
-0.3489597,
-0.0206509,
-0.2378544,
0.3524791,
-0.1660613,
-0.4966873,
-0.1352143,
-0.3707216,
0.2265624,
-0.1829567,
-0.1619510,
0.2550100,
-0.0239070,
-0.1736999,
0.0871383,
0.4343917,
0.3210320,
-0.0641123,
-0.4146102,
-0.3652332,
-0.2215693,
0.0644451,
0.1119579,
-0.0976725,
0.1111821,
0.4316717,
-0.2825787,
-0.4271526,
0.5387176,
-0.1217882,
0.2158367,
-0.4764087,
0.1637501,
-0.3572919,
-0.5413320,
-0.3800728,
-0.2011632,
0.0217876,
0.1278958,
0.1475233,
0.3769325,
0.3096739,
-0.1330424,
0.0571653,
-0.3898751,
0.4667467,
-0.4352380,
0.3445249,
-0.3894506,
0.0118904,
-0.2964314,
0.2840014,
0.3119579,
0.2237122,
0.3947222,
-0.1333088,
-0.0465132,
0.4570813,
0.3187661,
-0.1033247,
-0.5027707,
-0.1734017,
0.2969964,
-0.5729193,
-0.0191058,
0.2851607,
-0.3670225,
0.1832853,
-0.2728516,
0.1612949,
0.1215407,
-0.3926548,
-0.3444626,
0.3811392,
0.4817410,
-0.0922671,
0.4916043,
-0.2624554,
-0.1538938,
-0.6988718,
0.1111096,
0.2149756,
0.2569920,
-0.1336134,
-0.1704658,
-0.0139483,
0.2798426,
-0.3646359,
0.2817270,
-0.0410271,
0.1019344,
0.6326787,
0.3607491,
0.1917460,
0.4306953,
-0.3955938,
-0.2760920,
-0.2776410,
0.6620926,
0.3479970,
0.3702017,
-0.2138468,
-0.2513235,
-0.3413632,
-0.6608648,
0.3973516,
0.2333738,
0.5699614,
0.4373980,
-0.5143137,
0.3562278,
-0.0345193,
0.0995153,
0.2310448,
0.5652183,
-0.4869042,
-0.2901127,
0.3816836,
-0.1728670,
0.2786067,
-0.3489761,
-0.7072794,
0.2907375,
-0.4099878,
-0.0823364,
0.3070475,
0.1753459,
0.2416340,
0.4485071,
-0.1413136,
0.1950816,
0.3598908,
0.2350651,
0.1492977,
-0.2259345,
0.2926640,
0.0913638,
0.1444559,
0.0478783,
-0.1332613,
0.3432726,
0.0814961,
-0.1910496,
0.1750806,
-0.2470777,
-0.4561990,
0.2176412,
-0.0716340,
0.5407954,
-0.4612963,
-0.6530981,
-0.4586060,
-0.2893002,
0.2955412,
-0.3305208,
0.3835243,
0.0783117,
0.1786126,
0.1250148,
-0.2158088,
-0.2833328,
-0.1628427,
-0.1992575,
0.4873789,
-0.3631961,
-0.2218718,
0.1310946,
0.1978322,
-0.5291727,
-0.0728482,
-0.0228813,
0.5936468,
0.2476208,
0.0657101,
-0.1653856,
0.2024071,
0.1791516,
-0.2543793,
-0.2738071,
-0.0668934,
0.1763222,
-0.1411766,
-0.0264788,
0.3072819,
-0.4171133,
0.2156604,
0.0129870,
0.3043622,
0.1556196,
-0.1899525,
-0.3669613,
0.3239091,
-0.0802125,
-0.0140430,
0.0716162,
0.2829280,
0.4055976,
-0.2249345,
-0.0061664,
-0.4532159,
0.1346167,
0.4672593,
-0.6375581,
-0.0991213,
-0.2597506,
0.1496031,
-0.0153973,
0.4118091,
-0.3460552,
0.3037164,
-0.4071825,
0.2777165,
-0.2921538,
0.1977677,
-0.0375205,
-0.1746571,
-0.5368285,
-0.4722317,
-0.1926046,
0.0268686,
-0.3525150,
-0.1059841,
0.1950375,
0.1369440,
0.3660901,
-0.3596982,
-0.0756516,
0.5127785,
0.1099428,
0.4307836,
0.4785182,
-0.2768310,
0.1239017,
0.4172487,
0.4300360,
0.2671346,
0.2336789,
-0.2613414,
0.2623824,
0.0708569,
-0.4209386,
0.4238033,
-0.1457292,
-0.0478058,
0.1434032,
0.2818799,
0.2462357,
0.2755841,
0.3898732,
-0.8552523,
0.2888942,
-0.3869514,
0.1707741,
-0.2667485,
0.7645347,
0.0872526,
-0.1320762,
0.1210999,
-0.1316650,
0.3575463,
-0.0552565,
-0.0867219,
0.4083907,
-0.4063723,
-0.7101743,
0.1769415,
-0.7785742,
-0.0563216,
0.4568261,
0.3568554,
-0.5814163,
-0.3928129,
0.3428521,
-0.2346279,
-0.1063155,
0.0252365,
-0.4734533,
-0.1659002,
-0.0562454,
0.2010642,
-0.1615454,
-0.5416850,
-0.2600243,
0.6616657,
-0.2722664,
-0.2227074,
-0.2044641,
-0.1637977,
0.0659995,
0.1081470,
-0.2856987,
0.5656469,
0.2477153,
-0.5681201,
0.0859962,
0.3912890,
0.5041540,
-0.5256553,
-0.4622061,
0.0378283,
0.5939373,
-0.1513508,
0.4751100,
0.1619191,
0.0796444,
-0.2901643,
-0.6191047,
0.2155864,
-0.2143159,
-0.1184407,
0.1796774,
0.5806569,
-0.0430871,
-0.0712435,
0.1394922,
0.1431295,
0.5520811,
0.4745383,
-0.1490544,
-0.0908013,
-0.0630078,
-0.3844642,
-0.4107394,
-0.4652163,
-0.1490506,
-0.3561140,
0.2516824,
0.4819738,
-0.6454054,
0.3346873,
-0.1938670,
0.4553444,
-0.4881975,
-0.5532085,
-0.1450717,
0.2787170,
-0.1982702,
-0.1349980,
-0.3159431,
0.2503004,
0.3072008,
0.5718797,
0.1166062,
-0.1900960,
0.0474302,
-0.0875939,
-0.4765088,
-0.0897701,
-0.4642235,
-0.3070973,
-0.1028470,
0.0352153,
-0.2275886,
0.1659136,
-0.1889992,
0.1190067,
-0.0471498,
-0.3078704,
0.2470317,
0.1098326,
-0.3647075,
0.6940620,
-0.2093356,
-0.3544736,
-0.2914282,
0.2496717,
0.5285597,
-0.3632893,
-0.1746988,
-0.0758003,
-0.3866048,
0.0952519,
-0.2126425,
0.1427541,
0.3055442,
0.1896662,
0.3944137,
0.9370788,
0.7618552,
0.2895061,
0.7657337,
-0.1172777,
-0.2716350,
-0.0862753,
-0.0421025,
0.6671615,
0.4957673,
-0.2337124,
-0.3017177,
-0.2515209,
0.1687485,
-0.2434318,
-0.0624334,
0.4228784,
-0.1493143,
0.0228876,
0.2343176,
-0.4850755,
-0.3393667,
-0.4458357,
0.2732263,
-0.3091401,
-0.3761529,
0.1042722,
0.3927388,
-0.1930784,
-0.0482643,
0.2866272,
-0.2291695,
-0.2559500,
0.3276093,
-0.4248882,
0.4714264,
-0.4688090,
0.1475148,
-0.2626554,
0.6984104,
0.0688028,
0.1090659,
-0.4859118,
0.6349236,
0.0610419,
-0.0143584,
0.0142961,
-0.5686059,
0.0111750,
-0.7246872,
0.3977657,
0.6227600,
-0.4735933,
-0.4284923,
0.0944489,
-0.3469916,
-0.0666982,
-0.1593692,
-0.6725813,
0.3825525,
0.1907998,
0.3027408,
-0.2915699,
-0.3018269,
-0.4188132,
-0.2394560,
0.1655155,
-0.0388785,
0.1112559,
-0.3368755,
-0.0003151,
-0.0039111,
0.4283241,
-0.0718188,
-0.4283015,
0.4543515,
0.2356461,
0.2664741,
0.6173091,
-0.1808394,
0.2744818,
0.3219240,
-0.1982085,
0.5207522,
0.3144881,
0.3496512,
-0.3827788,
0.0552309,
0.3655225,
-0.3102911,
-0.4646690,
-0.0520543,
0.4983526,
0.1066105,
0.0286717,
-0.0440126,
0.2511833,
-0.3820804,
0.2239773,
0.1011546,
-0.1710121,
-0.5080605,
0.5063676,
-0.2790998,
-0.0343359,
-0.2085494,
0.3503354,
-0.3648288,
0.4161999,
0.2490217,
-0.0543640,
0.3298958,
0.0354367,
0.3880534,
0.1982964,
-0.3899025,
-0.1621472,
0.5227239,
0.3957328,
-0.0219416,
-0.3942788,
-0.3276143,
0.5849710,
0.4466965,
0.0675030,
-0.3314769,
0.1532156,
-0.0138510,
0.2321030,
0.3046966,
-0.4734724,
0.3023399,
0.5368909,
0.4512571,
0.3369782,
-0.0139953,
-0.3375519,
0.2760490,
-0.1135765,
-0.2812260,
0.3170268,
-0.3751179,
-0.5649950,
0.1652186,
-0.4575316,
0.4703408,
0.4588840,
0.0665666,
0.2773359,
0.1476480,
-0.6155470,
0.1284101,
0.6178948,
0.2616301,
-0.0227617,
0.3246591,
0.0574152,
0.2007125,
-0.5216445,
0.4115923,
0.0910753,
-0.4109050,
0.4575070,
-0.0541595,
-0.9129927,
0.2810954,
0.5892913,
-0.5421608,
0.1630752,
0.0088088,
-0.1503463,
-0.1844105,
0.1971598,
0.1055653,
0.4708859,
0.3199250,
-0.2845324,
0.3666858,
0.0806896,
0.2637369,
-0.0796792,
-0.1606343,
-0.1629358,
-0.1213438,
-0.1003411,
0.3355220,
-0.2415426,
0.3020430,
0.1433135,
-0.3231528,
0.3422370,
-0.5069858,
-0.3730537,
0.1219045,
0.0348127,
-0.3001790,
-0.1764056,
-0.1691633,
-0.0683513,
-0.5053936,
-0.1722144,
-0.5648338,
-0.0717909,
0.2664867,
-0.3510012,
-0.2432973,
0.2143716,
0.4658267,
0.7544765,
-0.2950401,
-0.0306834,
0.0267571,
-0.0362199,
0.3429248,
-0.3330031,
0.3517202,
0.0421487,
-0.2340059,
0.0661591,
-0.1651980,
0.0727270,
-0.4176226,
-0.1217245,
0.4011942,
0.4712306,
-0.1648293,
-0.2803849,
-0.3907042,
0.3895808,
0.1287463,
-0.6392509,
0.0187139,
0.1092374,
-0.0169874,
0.2690969,
-0.4662424,
0.3003622,
-0.0677426,
0.0331536,
-0.0092595,
-0.1550516,
0.0615913,
-0.2448045,
-0.6761759,
-0.4081234,
-0.2389899,
0.4754515,
0.3642369,
0.0544867,
0.0677075,
-0.4092542,
0.4285045,
0.5471230,
0.1179476,
-0.0853990,
-0.0015391,
0.0357596,
0.1115491,
-0.0211991,
-0.0142546,
-0.0085934,
0.1035297,
-0.3708291,
0.3185272,
0.4549341,
0.3447572,
-0.4510349,
0.0245878,
-0.2711961,
0.3875123,
0.0092166,
0.4304968,
0.4443949,
0.1548919,
0.5096459,
-0.5297572,
0.5346007,
0.3301538,
0.4324148,
0.0328246,
-0.0459390,
0.4768644,
0.0986231,
-0.4943735,
0.3526851,
-0.5570060,
0.1374758,
-0.2003516,
0.4607546,
-0.4610103,
0.2371192,
-0.2235662,
0.2190887,
-0.4224021,
-0.2267124,
0.1506014,
-0.4070464,
-0.3214663,
-0.3136565,
-0.1430088,
-0.5639251,
0.2310334,
-0.2556642,
0.4690608,
-0.0013729,
-0.2391382,
-0.5884880,
-0.3496100,
-0.3850820,
0.3952653,
0.2339398,
0.1740265,
0.3386868,
-0.3444785,
0.2515657,
-0.4609628,
-0.0166702,
-0.1883676,
0.2404650,
-0.0717042,
0.0270919,
-0.0646386,
0.1701752,
-0.3020127,
0.1331895,
0.7119837,
0.4912628,
-0.1533177,
-0.2156938,
-0.4468630,
0.4209856,
-0.3097826,
-0.6560632,
-0.4550081,
-0.2940614,
0.0323203,
0.2122454,
-0.3523829,
0.0132988,
0.1592259,
-0.4945025,
0.0912938,
-0.2000175,
0.4056622,
0.4466861,
-0.7371422,
-0.4863488,
0.0737539,
0.2848375,
0.1641194,
0.4452585,
-0.0471635,
-0.3884812,
0.2766717,
0.2727751,
0.2286165,
0.1636513,
0.0577944,
-0.5388928,
0.4236834,
0.2864761,
0.5420331,
-0.6254020,
0.5295233,
-0.2658825,
-0.3316133,
-0.1417127,
0.2466760,
0.2711950,
-0.3548326,
-0.2117972,
0.0887820,
0.1460813,
0.0684173,
-0.0266611,
0.1481520,
0.2948278,
-0.0344525,
-0.1294828,
-0.1410436,
-0.1051380,
-0.3662279,
0.1701619,
-0.1901863,
0.4830408,
0.0263481,
0.1429962,
0.0612396,
0.6373327,
-0.4847310,
0.0499821,
0.6165797,
-0.3829060,
0.0806588,
0.2916782,
-0.2725905,
0.4749977,
-0.4162498,
0.3390823,
0.0764397,
-0.4446494,
-0.3215249,
-0.3748229,
-0.2957577,
0.4989423,
0.2602512,
0.3657127,
0.1032826,
-0.3669432,
-0.4546684,
0.3632967,
-0.0279908,
-0.3339727,
0.0826386,
0.3802883,
-0.3899564,
0.3187702,
0.3744470,
0.3427982,
0.6195210,
0.3029693,
-0.4259788,
0.3292651,
0.4030787,
0.1325889,
-0.0166156,
-0.5391576,
0.1792605,
0.4872350,
-0.5248868,
-0.1848169,
-0.4740596,
-0.4668556,
-0.1959660,
-0.5130163,
-0.6409100,
-0.3227378,
0.4595845,
-0.0188772,
0.0710632,
0.4664510,
-0.3332840,
0.4586598,
-0.2292275,
-0.5994312,
0.2535398,
-0.1025276,
0.4797207,
0.0608743,
-0.4003327,
0.3880300,
-0.2868481,
-0.3103895,
0.3446163,
-0.3571668,
0.4998118,
0.0560064,
-0.1067694,
0.0520386,
-0.4663004,
-0.0640553,
0.3441934,
-0.2620017,
0.0942892,
-0.2387035,
-0.1231293,
0.0176339,
-0.0932255,
-0.1800757,
-0.2405112,
0.5081008,
-0.4389681,
0.0105887,
0.2476158,
-0.0029039,
0.1001195,
-0.1584671,
0.1727931,
0.0227557,
-0.5400105,
0.1928619,
-0.1665241,
-0.0724506,
0.5396910,
-0.3206616,
0.0590039,
0.2008383,
0.1858265,
-0.3770264,
-0.1433301,
0.3041977,
-0.1959624,
-0.5919321,
0.3719976,
-0.1766254,
-0.0684310,
-0.4337454,
0.2846482,
0.3507162,
-0.1194436,
0.4716569,
0.3193057,
0.1183063,
0.0551922,
-0.0983778,
0.3959125,
-0.1203805,
0.7099873,
-0.0776036,
0.2628194,
-0.4170954,
-0.1090591,
-0.4085778,
0.0924151,
-0.0885440,
-0.1870053,
-0.2865266,
-0.1693611,
0.3598806,
-0.0494998,
-0.1714101,
0.1028229,
0.5071223,
-0.0266298,
-0.1035623,
-0.2995993,
0.2990697,
0.0490964,
0.5724482,
0.0478205,
0.4744676,
0.1491932,
-0.2437275,
0.0006251,
-0.3190094,
0.1852658,
-0.1402019,
-0.2877567,
0.2354619,
-0.5456230,
-0.5366384,
0.2472497,
0.0534829,
-0.3526151,
-0.1092519,
0.3402824,
0.1594339,
0.1580860,
0.5127449,
-0.1535022,
-0.4865084,
0.0409333,
0.4903114,
0.3718800,
0.3669295,
-0.1161558,
-0.5238508,
0.0619074,
0.0295112,
0.1917141,
-0.3214447,
0.4937607,
0.2995263,
-0.1678608,
-0.4605182,
0.4237528,
0.3490963,
0.0716647,
-0.1040321,
-0.0596116,
0.0451323,
0.0268308,
-0.2041558,
-0.4603798,
0.2635088,
0.0922018,
0.2416776,
-0.2847562,
0.4509212,
0.1697214,
0.0568604,
0.3650620,
0.3734705,
-0.0491490,
0.3809345,
0.3956397,
0.3517290,
0.5751536,
-0.0781550,
0.0975777,
0.4152003,
0.0316250,
-0.1070197,
0.1393724,
0.3096007,
0.0179522,
0.1821452,
-0.1551407,
-0.2714511,
0.5558004,
0.3891662,
0.1580314,
-0.2712589,
-0.6119509,
0.3578129,
0.2311435,
-0.1034408,
-0.1365296,
-0.4858123,
-0.2360334,
-0.4577297,
0.1576633,
-0.3260477,
-0.4931153,
-0.6072256,
-0.3869399,
0.2040462,
0.4557037,
-0.4358662,
0.4744798,
0.2552781,
0.5110506,
-0.0253968,
-0.4881707,
0.2371979,
0.3441016,
0.2164423,
-0.3321232,
-0.1350342,
0.4297306,
0.6076028,
-0.2084133,
-0.0626867,
-0.1604994,
0.0899697,
-0.1625571,
-0.0328712,
0.4019022,
0.3416443,
-0.0911658,
-0.6451311,
0.5650034,
0.3160913,
-0.0672890,
0.4667236,
-0.5136593,
-0.0900211,
0.2105804,
-0.5299220,
-0.0799376,
0.2681378,
0.1739931,
-0.1521154,
0.5518017,
0.3298022,
0.3469825,
0.5352455,
-0.1733431,
0.5710391,
-0.0921214,
-0.2282217,
0.3568985,
0.4607684,
0.3110309,
-0.2305223,
-0.3605033,
-0.5874396,
0.0111748,
-0.5276271,
0.4165507,
0.3195886,
-0.4876093,
0.2522933,
0.2738135,
-0.2727251,
0.1323802,
0.3224748,
0.0308939,
-0.3257394,
0.4573752,
-0.3666630,
-0.5524508,
0.0707272,
-0.0203333,
-0.3647234,
-0.2322475,
0.0398319,
0.6016597,
0.2607050,
-0.2772743,
-0.0188036,
0.2728789,
-0.0514577,
-0.1664622,
0.1446494,
0.1061104,
-0.1135778,
0.0179435,
-0.1573647,
0.0027106,
-0.1883510,
-0.1668113,
0.1919923,
-0.4201132,
0.3286309,
-0.4958103,
0.3721828,
0.1716758,
0.0967635,
-0.3059411,
0.1111313,
0.4049087,
-0.4226721,
-0.2108969,
-0.2887087,
-0.1891453,
0.2868956,
0.1059359,
-0.3972129,
-0.3668710,
0.4500857,
0.2265288,
-0.3650021,
-0.2089096,
0.5170286,
0.0248326,
-0.5591851,
0.0318914,
-0.3726818,
-0.3065699,
-0.3382522,
-0.0672682,
-0.0789756,
0.2842764,
0.0401836,
-0.2991220,
0.4714436,
-0.1234706,
0.6624144,
0.0934689,
0.0326906,
-0.0527625,
-0.2861029,
0.1994346,
0.3730922,
-0.0106062,
-0.6101787,
-0.1766939,
-0.5270357,
-0.0760046,
0.0259731,
-0.3076090,
0.3392958,
0.1356972,
0.1504065,
0.3673273,
-0.3375052,
0.0648370,
-0.1361431,
-0.0911936,
0.1874484,
0.0828388,
0.6013040,
-0.2570965,
-0.1552081,
-0.0959245,
-0.3136168,
-0.1040412,
-0.1661148,
-0.1950190,
0.4391973,
0.3015512,
0.4095302,
-0.2438909,
0.2229160,
0.1399409,
0.1794364,
0.2444622,
-0.3681642,
0.4401541,
0.5722568,
0.1130838,
0.4756525,
0.5225237,
-0.3156043,
-0.2160375,
0.0741337,
-0.0015067,
0.3042520,
-0.1345334,
0.2226316,
0.1879457,
0.2898431,
0.2302897,
0.4246642,
-0.1450578,
-0.1527567,
-0.3953906,
0.2211811,
0.0644573,
-0.2168776,
0.1531343,
-0.1070421,
-0.2445305,
0.2875999,
-0.4183514,
-0.6461483,
0.0989166,
0.1934090,
-0.3409633,
0.0119925,
0.1887602,
0.1638882,
-0.0886371,
-0.0980650,
-0.3671344,
0.3036839,
-0.4160436,
0.0273827,
0.1248534,
-0.0050847,
-0.2029939,
-0.1298853,
-0.4728103,
-0.3294507,
-0.2470996,
0.0233112,
0.2213981,
-0.0382459,
-0.2023945,
-0.1054839,
0.0262520,
0.3277181,
0.3328262,
0.3745162,
0.2566828,
0.2892522,
0.4092490,
-0.0543528,
-0.0678676,
0.5268746,
0.1450957,
-0.1448228,
0.2896111,
-0.2835022,
0.3016442,
0.3311781,
-0.5479168,
-0.5470600,
-0.1235476,
0.4410094,
-0.3432951,
0.2631324,
-0.3738147,
0.2898101,
-0.4977534,
0.3101188,
-0.6560747,
0.6016403,
0.5203330,
0.0678058,
-0.5506529,
-0.5282393,
-0.4617405,
-0.6201492,
-0.3602326,
-0.4583657,
0.5785371,
0.5547761,
0.0885989,
-0.0193102,
0.0639348,
-0.0353778,
0.5957341,
0.1414753,
0.0107529,
0.0048168,
-0.2297319,
0.4126669,
-0.0875712,
0.7830683,
-0.0155890,
-0.3260000,
0.6210386,
0.0956812,
0.0124667,
0.4249593,
-0.6054602,
-0.4889037,
0.1377344,
0.5078561,
0.2214340,
0.5458290,
-0.4887137,
-0.7129752,
0.3490297,
-0.4713401,
0.2021758,
0.1539331,
-0.1494654,
-0.7305566,
-0.2907923,
-0.5761973,
-0.2257647,
-0.4239581,
0.1762050,
0.6692350,
0.2929129,
-0.0967784,
0.0269587,
-0.1625004,
-0.3415236,
-0.6075642,
-0.3808038,
0.4919623,
0.3250354,
0.6003441,
0.2096096,
-0.2788805,
-0.3388490,
-0.5126920,
0.3281114,
0.3698676,
-0.7247673,
-0.7448888,
0.3886902,
0.2021866,
-0.0942190,
-0.3621527,
-0.1238781,
0.2381574,
-0.2521026,
0.7098977,
0.2333260,
0.3975695,
0.5056029,
0.3575664,
0.3923793,
0.2208607,
-0.3137441,
-0.4741083,
0.0984407,
0.2085921,
-0.3850704,
0.1001972,
-0.1502703,
-0.4995149,
0.4890506,
-0.4818527,
-0.0349587,
0.4413480,
-0.2707969,
-0.4776076,
0.2191829,
0.0253543,
-0.5565394,
-0.1938794,
-0.0264303,
0.2954807,
0.8578324,
0.5165776,
-0.1379857,
-0.0861611,
0.5658126,
0.1836146,
0.8087077,
0.2980375,
-0.0186977,
0.2634522,
-0.4990624,
-0.2942862,
0.5276011,
0.6614396,
0.1608826,
-0.2742864,
-0.0610843,
-0.6065075,
-0.4399947,
0.1902062,
-0.8940940,
-0.6765961,
-0.6583820,
0.2459365,
-0.2787979,
-0.4267372,
-0.4821111,
0.0165203,
0.1402066,
0.0282841,
0.0480911,
0.1957095,
-0.2913846,
0.3382084,
0.1072534,
-0.3484414,
0.1582574,
-0.0897148,
0.3366763,
0.5752192,
0.1261002,
0.6467742,
-0.0655778,
-0.7603388,
-0.0576871,
-0.4062423,
-0.1556064,
-0.1345667,
-0.3371890,
0.2959280,
0.1266165,
-0.1610562,
0.2660286,
-0.5107621,
0.4393087,
0.3062451,
-0.4342220,
0.6581364,
-0.0426762,
0.4308166,
0.0870306,
0.1978626,
-0.6085168,
0.3064288,
0.1436104,
0.7499972,
0.2633024,
-0.2823069,
-0.0661331,
-0.4248150,
-0.5260763,
0.4847779,
0.4505174,
-0.4084418,
0.5419034,
0.1270010,
-0.0136233,
0.1977411,
-0.2792181,
-0.5077150,
0.3729705,
-0.0123939,
-0.1578070,
-0.0301089,
-0.1306973,
-0.4621683,
-0.0610908,
0.0114550,
-0.3628166,
-0.5452332,
-0.6118448,
0.0695795,
0.2633924,
-0.7254727,
-0.1738866,
-0.2068318,
-0.4571517,
0.5212138,
0.0679089,
-0.1355910,
0.8174711,
0.2662609,
0.2605274,
0.3348465,
0.2713817,
-0.3069898,
0.2220276,
-0.0472095,
0.3535871,
-0.0862735,
0.0090021,
0.1834483,
0.1465829,
0.6929257,
-0.4913748,
-0.2722104,
-0.0882472,
0.0601159,
0.4072883,
0.3678669,
0.1730114,
-0.9388053,
-0.2740438,
-0.0769715,
-0.2642840,
0.3669005,
0.1561565,
-0.0617586,
0.2471154,
-0.3662383,
0.3242187,
0.1639166,
0.1941292,
-0.4288486,
-0.3958671,
0.0220145,
0.1136948,
0.4401963,
0.3376336,
-0.4340334,
0.5508529,
0.1312698,
0.3830688,
0.3187557,
-0.1982258,
0.1483078,
0.6565273,
0.2127186,
0.0941865,
0.1399724,
0.4773727,
-0.1527207,
0.1744902,
-0.3993962,
0.2648334,
0.4698009,
0.3657913,
0.1418191,
-0.1178496,
-0.0664742,
-0.5092976,
-0.1849450,
0.3927095,
0.4070872,
0.0906447,
-0.3037204,
0.1159448,
-0.3207627,
0.4478784,
-0.0564218,
-0.0302739,
0.4528498,
0.2243897,
-0.2595087,
0.1040187,
0.4467704,
-0.3900151,
-0.0199107,
-0.0475773,
0.2204415,
-0.3855168,
-0.0593238,
-0.4684944,
0.3054109,
0.0474297,
0.3439318,
0.2576239,
-0.0231926,
0.0340433,
-0.3359495,
0.4018351,
-0.0000725,
0.0058573,
0.3114367,
-0.0669696,
-0.4159240,
-0.4418065,
-0.4255943,
-0.1717651,
0.4826225,
0.0564685,
0.2776587,
0.4082811,
-0.2225130,
-0.4798857,
0.0228422,
-0.2491246,
-0.3554938,
-0.4850030,
0.2375409,
0.3593933,
-0.3525044,
-0.3339467,
0.4473717,
0.4569544,
0.2669874,
0.3116149,
0.2615936,
-0.2968170,
-0.1752256,
0.4603020,
-0.3685007,
0.3555310,
-0.0783206,
0.4165074,
-0.1958787,
0.0471846,
0.4903211,
-0.1028947,
0.4026269,
0.4657495,
0.4434569,
0.1778364,
0.3760077,
-0.2589013,
0.2228209,
-0.1063610,
0.0249233,
0.2958571,
-0.0755771,
-0.2477254,
0.1921511,
0.0955011,
-0.0790539,
0.1660181,
0.1035880,
-0.2883214,
-0.0443246,
-0.1524152,
-0.0783143,
0.3239377,
-0.1882404,
0.0640946,
0.1597067,
0.2726539,
0.0284195,
-0.5109752,
-0.1564932,
-0.0075167,
-0.0860522,
-0.2466466,
-0.0557137,
-0.1271826,
0.4231078,
-0.1242296,
0.1264488,
0.1235030,
0.2612769,
-0.3588390,
0.0007171,
-0.2858561,
-0.1132957,
-0.2920438,
0.3088222,
0.3352235,
0.3546912,
-0.0617216,
-0.4707094,
-0.2056979,
0.3232955,
0.0008843,
-0.3720224,
-0.3428889,
-0.4199479,
0.3396697,
0.4601002,
0.1082717,
0.2988027,
-0.1693530,
-0.3905779,
-0.2696728,
0.1192236,
0.0902515,
0.0818415,
0.0396526,
0.4347470,
-0.3038165,
-0.2826116,
0.2375705,
-0.1490730,
0.1491504,
0.4819439,
0.2618278,
0.3808138,
0.3057235,
0.1083365,
0.2615479,
-0.2221455,
0.1655396,
-0.4228434,
-0.4058455,
-0.3144218,
-0.2934681,
-0.2260766,
-0.2209274,
-0.4526672,
-0.2383775,
0.3874873,
0.3511831,
0.0874569,
-0.4788214,
-0.3913218,
-0.2782150,
0.1026780,
0.2186660,
0.2357228,
0.0848899,
0.4409872,
0.4566966,
-0.1724058,
-0.1885542,
0.1379085,
-0.1687962,
-0.4265278,
-0.0056255,
-0.3619448,
0.2115991,
-0.2134218,
-0.0851484,
-0.1087403,
-0.1388116,
0.0600411,
0.0694238,
0.1229349,
0.3635496,
0.3425070,
0.1471910,
-0.3917890,
0.2690182,
0.0697121,
0.2304094,
0.3292211,
0.1744808,
0.4127992,
-0.0493012,
-0.0991970,
0.1996460,
-0.4628613,
-0.1797736,
0.1425147,
-0.1517428,
0.1575955,
-0.1931075,
0.1847068,
0.2770265,
0.3265429,
0.3274221,
-0.0320432,
-0.3107989,
-0.2515017,
0.3610110,
0.0388386,
0.3100556,
-0.0472565,
-0.3279091,
0.1641406,
-0.1991962,
0.3609910,
0.3239976,
-0.3774662,
-0.1082819,
0.0251267,
0.4287441,
-0.4244281,
-0.0482136,
-0.1342954,
-0.0315496,
-0.3268607,
-0.0921045,
0.3161359,
0.3067387,
0.2817473,
0.0046711,
-0.3786435,
-0.0646532,
-0.2233490,
-0.4974503,
-0.2164584,
0.2733509,
-0.3805912,
0.0622592,
0.1162038,
0.1900631,
-0.1497077,
-0.4651396,
0.4119203,
-0.4999069,
-0.0180995,
0.2531793,
0.3197253,
0.2082799,
-0.2065539,
0.0060419,
0.0951975,
-0.2830845,
0.3178090,
0.2095124,
0.1238352,
-0.4021265,
-0.4465686,
-0.0316914,
0.3146883,
-0.5673709,
-0.4422938,
-0.5756325,
-0.0030335,
-0.1138362,
-0.4669421,
0.3324921,
-0.5383869,
-0.2244578,
-0.2677868,
0.0985336,
0.4269609,
0.3314485,
0.2045831,
0.6061986,
0.2682850,
-0.2221269,
0.0961286,
0.0619430,
0.4283856,
0.1873673,
-0.4500672,
-0.0777843,
-0.5140600,
0.3873022,
-0.4326549,
0.4095074,
0.4651235,
-0.0634269,
-0.1651229,
0.3401392,
-0.1792962,
-0.0548722,
0.1678393,
-0.3798600,
0.2907036,
0.2452537,
0.3757678,
0.5028703,
0.4645982,
-0.2911243,
0.2478152,
0.3647211,
-0.4214241,
-0.1649864,
0.2538985,
0.1820497,
0.4495086,
-0.2712913,
0.0467657,
0.0409282,
-0.5457512,
0.0663129,
-0.7017110,
-0.3387560,
-0.1753576,
-0.2953074,
0.3658459,
-0.2250289,
0.1920965,
-0.1098763,
-0.5364075,
-0.1254173,
0.3922673,
0.3414318,
-0.0324450,
0.0410270,
0.2230827,
-0.0645504,
0.0710330,
0.2074120,
-0.0480068,
-0.5064935,
0.2450483,
0.3084012,
0.3199340,
-0.3327958,
0.0424866,
0.1643412,
0.2168239,
0.5410365,
-0.3838249,
-0.0967521,
-0.0945402,
-0.3076144,
0.1262158,
0.2666190,
0.0605635,
0.2734428,
-0.3366268,
-0.2988841,
0.3466427,
-0.3249822,
0.1840814,
0.1423740,
-0.2337168,
-0.2219028,
-0.2860467,
0.4245641,
-0.0616282,
0.1470734,
0.0221605,
-0.2949061,
0.5557990,
-0.2866498,
0.2477964,
-0.0116279,
-0.0029965,
-0.1829853,
-0.4356342,
-0.5188839,
-0.4307672,
-0.2918799,
-0.0531119,
0.3283291,
0.0566081,
-0.0992521,
0.1029357,
-0.4537465,
-0.3045649,
0.3355230,
-0.1912127,
0.6878668,
-0.4846843,
0.5482971,
0.3044737,
-0.2940962,
-0.2755363,
0.5054203,
-0.2144682,
-0.0600586,
0.0832199,
0.5117657,
0.3671863,
-0.0833510,
-0.3333025,
0.2428146,
-0.5259030,
-0.0010516,
0.5853674,
-0.2134695,
0.3886180,
-0.2840610,
0.1814230,
-0.2583964,
0.3835274,
-0.3671122,
0.3862354,
0.0299512,
-0.1810115,
0.2873143,
-0.2744576,
0.1489103,
0.2261730,
-0.2618294,
0.3773955,
0.2676788,
0.0831133,
0.4425225,
-0.1055334,
0.3997118,
0.0257463,
0.5310709,
0.4130366,
-0.2117826,
0.0777521,
-0.5083544,
-0.6724679,
0.0569615,
0.2772248,
0.6121172,
0.3213055,
-0.1814418,
-0.4611224,
0.1619732,
0.2489874,
-0.3804919,
0.3298220,
0.1240610,
0.0646106,
-0.3835948,
-0.1505770,
0.3500566,
-0.6774613,
-0.1700722,
-0.5094785,
0.5527492,
0.3578509,
0.4819544,
0.2168817,
-0.0642465,
0.2518620,
0.0792353,
-0.3382365,
0.1307185,
0.3259899,
0.5260555,
0.2395051,
0.4508002,
0.0640634,
-0.1782115,
0.4380645,
-0.2452020,
0.2893582,
-0.5134919,
0.3459293,
0.1171289,
-0.2274849,
0.1329853,
-0.1264410,
0.2303570,
-0.4109922,
0.3920419,
0.1481336,
-0.0674689,
-0.1316287,
0.3726384,
-0.2059489,
-0.3815904,
0.1579519,
-0.4919525,
-0.0390772,
-0.0361089,
0.1211125,
0.2769518,
-0.1975821,
0.0627743,
0.2736579,
0.1543672,
-0.3280718,
-0.4343369,
-0.3754058,
0.5954291,
-0.0173161,
-0.5918755,
0.4726960,
-0.2725717,
0.3078129,
-0.2504734,
-0.3091046,
-0.2619433,
0.4340327,
-0.1845715,
-0.3101550,
0.1710544,
0.1496005,
-0.1488761,
-0.0397026,
-0.4576562,
-0.0397485,
-0.3518658,
-0.3118092,
-0.2653531,
-0.0345713,
0.4409031,
-0.3793289,
0.2589741,
-0.1631556,
0.3298923,
0.0399314,
-0.1640697,
0.3410853,
-0.1190372,
-0.1892928,
-0.4574813,
0.2041585,
-0.2157216,
-0.0008590,
0.0420881,
-0.0070413,
0.2436983,
0.0765122,
-0.1367461,
-0.3696963,
0.1507538,
0.5520856,
0.2619209,
-0.1524192,
-0.1205654,
0.2635508,
0.0025362,
0.0646838,
-0.6379671,
0.1321435,
-0.3770500,
0.3565755,
0.2534173,
0.1958285,
-0.1887266,
-0.0125530,
0.1081511,
0.3303692,
-0.0722343,
-0.3621417,
-0.5196864,
0.0607483,
0.5847734,
-0.4208956,
-0.3724719,
-0.2557094,
0.2127864,
0.1322916,
0.5157225,
-0.3259268,
0.1816933,
0.0682845,
-0.5026906,
0.0237587,
0.0059789,
-0.1260787,
-0.3207407,
-0.1261034,
-0.3319761,
-0.2352416,
-0.4361562,
-0.1977416,
-0.0181420,
0.5544088,
0.1237381,
0.1554326,
-0.0178364,
0.5582309,
-0.5064824,
0.4394840,
0.5673157,
-0.1370478,
-0.0401228,
0.4017899,
-0.0399267,
0.0401920,
-0.3359498,
-0.1769519,
-0.3650270,
-0.4089045,
-0.1546815,
0.5082169,
0.2401643,
-0.0990198,
-0.3878329,
-0.2767901,
0.2613916,
0.2476560,
-0.0783372,
0.3574172,
0.5711320,
0.1910076,
-0.1058231,
-0.1720791,
-0.0833719,
0.1533074,
0.4212843,
-0.3888721,
0.2344176,
0.5382215,
0.4910007,
0.0752302,
-0.5726255,
-0.0512733,
-0.3000372,
0.0923748,
0.4177027,
-0.0386273,
0.2879691,
0.5929111,
0.0003602,
-0.2809497,
0.3025039,
-0.4847402,
-0.0942173,
-0.3370057,
-0.0349938,
-0.3499821,
0.3167427,
0.6664223,
-0.3552607,
0.4672229,
0.0170060,
-0.0048094,
-0.5201174,
-0.2756137,
-0.1734888,
0.4017750,
-0.3394117,
0.4585092,
0.3982105,
-0.5610897,
-0.2146368,
0.4836487,
0.0561833,
0.2461035,
0.0645876,
-0.2140074,
-0.2237738,
0.1020876,
-0.2566220,
0.2859341,
0.2533420,
-0.3915868,
0.4109625,
-0.4536002,
-0.3406503,
-0.0510603,
-0.2005360,
0.3570785,
0.0146241,
0.1267356,
0.1345558,
-0.4290337,
-0.4475691,
0.0964821,
-0.3388924,
0.1178645,
0.0895329,
-0.1841187,
-0.1900592,
-0.2353638,
0.0186171,
0.0458584,
-0.3480171,
-0.2846957,
-0.0965450,
0.4240464,
-0.0335264,
-0.1778103,
-0.2174603,
0.0617701,
-0.4516854,
0.5248016,
0.1793674,
-0.1170447,
-0.4862207,
0.3106491,
0.1902618,
0.0284159,
0.3660950,
-0.3169819,
-0.3694437,
-0.2480459,
-0.2920667,
-0.1899942,
-0.7654134,
-0.3544091,
0.4667891,
-0.0676169,
0.1667164,
-0.4233937,
0.4053542,
-0.3511860,
0.4946925,
0.2870778,
-0.1239405,
-0.4142953,
0.0838901,
0.1446389,
0.1909455,
0.5749331,
-0.1228072,
0.2834276,
0.2351421,
0.5676463,
0.3742490,
0.6479217,
0.4507504,
0.1930753,
-0.0348299,
0.2169620,
0.4485000,
0.1428516,
-0.4413170,
-0.6493424,
-0.3758673,
-0.3006566,
-0.1682882,
-0.2537072,
-0.1036056,
-0.5707525,
-0.1162356,
-0.4100263,
-0.3012632,
-0.4093235,
-0.2855768,
0.2073798,
-0.1696940,
0.3346029,
-0.2797415,
0.1349813,
0.1813225,
0.0870235,
0.2366020,
0.1962532,
-0.0242551,
0.1699340,
0.0069473,
-0.0191041,
-0.3370445,
-0.3800133,
0.4090269,
-0.3027283,
0.2727421,
-0.3531246,
-0.4501103,
0.5257984,
-0.3154262,
0.0634089,
-0.3875931,
0.1123528,
0.2185006,
-0.0671568,
0.1661657,
-0.4597105,
0.1822245,
0.3386406,
0.0939572,
0.4596716,
-0.0496247,
0.5394899,
0.2761292,
-0.5104614,
-0.0411724,
-0.2769773,
-0.1047620,
-0.2696868,
0.2560161,
-0.2965614,
0.0501022,
-0.3150512,
-0.4180032,
-0.2000598,
-0.4636527,
0.4169691,
-0.2154251,
-0.2518035,
0.1815891,
0.2890965,
0.2350992,
0.3777513,
-0.6578168,
-0.2180030,
-0.3539830,
0.1342337,
-0.0739982,
0.0846359,
-0.0063941,
-0.3587947,
0.1987545,
0.3424875,
-0.3013503,
-0.1313583,
0.2727821,
-0.0257001,
0.0555465,
-0.1447194,
0.1335151,
-0.2185742,
0.1041321,
-0.6506322,
-0.0281815,
0.1179112,
0.0945996,
0.1755880,
-0.0929136,
0.3953774,
0.2076273,
-0.5416872,
-0.2399479,
-0.1496479,
0.5359203,
-0.1363023,
0.4196215,
-0.3832342,
-0.4063440,
-0.3405818,
0.3871027,
0.0007262,
0.0296957,
0.1583217,
-0.3748830,
-0.0385700,
0.2161166,
-0.3966083,
-0.3344921,
-0.2969964,
0.2616089,
0.4932439,
0.1547167,
-0.2491626,
0.2204142,
-0.4581036,
0.2057037,
-0.3831919,
0.0482480,
-0.4998384,
0.7051878,
-0.1068832,
-0.3712666,
-0.0810285,
0.2804877,
-0.3823547,
0.0903507,
0.0916671,
-0.2191873,
0.1523149,
0.4336654,
-0.3319278,
-0.3571215,
-0.1257324,
-0.0708401,
0.0735116,
0.5954945,
-0.3256261,
0.2833981,
0.5148443,
0.0618589,
-0.3148158,
0.1215715,
-0.1463517,
-0.1426336,
-0.0235492,
-0.1367643,
-0.3638852,
-0.0468389,
0.3699618,
-0.3975433,
-0.1613465,
-0.2537722,
0.0362401,
0.1199414,
-0.3245500,
-0.1014970,
-0.0379033,
0.3043249,
0.1833530,
-0.3928841,
0.1434794,
0.1598217,
-0.3881114,
-0.4877207,
0.0342443,
0.2874289,
0.2498572,
0.0615066,
-0.3285627,
0.3891744,
-0.2066090,
-0.0131035,
-0.2436059,
-0.2168603,
0.1628064,
0.0365920,
0.4718167,
0.3722638,
0.2236952,
0.2170995,
0.6548783,
-0.3952845,
-0.5853894,
-0.1274401,
0.3398762,
-0.5984751,
0.4692316,
-0.2888483,
0.4500697,
0.2101715,
-0.2822882,
-0.0528717,
-0.1231582,
0.1558002,
0.0526026,
0.4476390,
-0.2571554,
-0.1935625,
-0.3522239,
0.0815580,
-0.3836805,
0.1386552,
0.2722623,
-0.1165962,
0.6524885,
0.4441153,
0.2364460,
0.3109660,
0.0315311,
0.0705591,
0.2217190,
-0.1518154,
0.3070628,
0.0618995,
0.5658636,
0.1272084,
0.3695313,
0.4486745,
0.3722123,
-0.0113977,
0.0700989,
-0.3209137,
-0.3885088,
0.2394352,
0.2542193,
0.5216587,
-0.0218594,
0.5285369,
-0.0453720,
0.3327234,
0.0822753,
-0.2573788,
-0.4083808,
0.2096324,
0.1137613,
-0.3239203,
-0.4062682,
-0.2234710,
-0.4372786,
0.1462034,
0.0821842,
-0.0110116,
-0.3166471,
0.2248357,
0.0645719,
0.5520286,
-0.3482415,
-0.4204033,
0.2269748,
0.6101609,
0.5695862,
-0.3212785,
-0.3813105,
-0.0902868,
0.5344229,
0.4792361,
-0.2614063,
-0.1697926,
0.5447710,
-0.1700252,
-0.3551391,
-0.2855938,
0.1999550,
-0.2295713,
0.3238731,
-0.4707203,
0.0104803,
0.4185757,
0.0521864,
0.3893596,
-0.0498825,
-0.4912261,
-0.1648547,
-0.0195542,
0.1890754,
0.1504957,
-0.1149476,
0.4041705,
-0.6073853,
0.7496691,
0.0567703,
-0.3406974,
0.5463613,
0.3511278,
-0.0875045,
0.3495687,
0.4907589,
0.0769072,
-0.2420422,
0.4358713,
0.5070618,
-0.4340914,
-0.6092346,
0.1962790,
-0.0083345,
0.0929513,
0.4776551,
0.5962185,
-0.0190704,
-0.4029281,
0.0892313,
-0.4837837,
-0.2392762,
-0.5881592,
-0.1694159,
0.2918298,
0.2067719,
0.3317262,
0.2773196,
0.1177394,
0.4645552,
-0.3847377,
0.4430490,
0.1734561,
0.5299482,
-0.5813490,
0.0329284,
0.2046917,
-0.0289189,
-0.1328101,
-0.2861227,
-0.2589777,
0.3781303,
0.1363724,
0.3187774,
-0.5562875,
-0.4439455,
0.0122198,
-0.5247364,
-0.1995879,
0.3019389,
0.1329700,
-0.2870438,
-0.5764036,
0.0534755,
-0.4596104,
0.3886911,
0.1313655,
0.4248040,
0.1431688,
-0.2055102,
0.1421292,
0.3501053,
0.4350894,
0.0235042,
-0.0094778,
-0.3207324,
0.2973722,
-0.4801832,
-0.0213483,
0.3161249,
0.2463979,
0.5792694,
-0.5343731,
-0.2960313,
0.3884979,
-0.4575810,
0.6372107,
0.2620393,
-0.2814354,
-0.2494228,
-0.4635855,
0.2558141,
0.0433060,
-0.1781650,
0.0072842,
0.1689739,
-0.0227247,
0.3456842,
0.1077118,
0.4698069,
-0.3376838,
-0.1240265,
-0.2098557,
-0.0530279,
-0.1246036,
0.3675390,
-0.5754118,
0.0291597,
-0.1258530,
0.2811963,
0.8171493,
-0.5526945,
0.2309048,
-0.6061330,
-0.2809022,
0.2673401,
-0.4053786,
-0.3625125,
-0.7286402,
-0.4301867,
0.0559149,
-0.1555843,
0.4237100,
-0.5149304,
0.1512565,
-0.1151983,
0.0773384,
-0.3936820,
-0.1307147,
-0.4177810,
0.1924771,
-0.0264155,
-0.1845184,
-0.3176859,
0.0273367,
0.5918771,
-0.6195792,
-0.3024359,
-0.0587061,
-0.1263710,
-0.2325991,
-0.0474366,
-0.0455490,
0.5163039,
-0.2036716,
0.3097473,
0.2865738,
-0.0192601,
-0.3258249,
0.1161449,
0.2650705,
0.0551906,
0.5124958,
-0.0177410,
-0.0348990,
0.1464417,
-0.3572401,
-0.1702282,
0.0842300,
-0.2010029,
-0.1937138,
-0.1035359,
-0.2191398,
0.2114435,
0.3122907,
0.5520410,
-0.0129025,
0.1421466,
-0.2712433,
-0.4230576,
-0.7166939,
-0.0556287,
0.1235525,
-0.0908270,
-0.3106167,
0.6000632,
-0.0385686,
0.4793226,
-0.2238417,
-0.3530597,
0.1657726,
-0.3115730,
-0.3870122,
-0.0708702,
0.6253894,
-0.1978396,
-0.1746050,
0.5584356,
0.2921584,
0.3527474,
-0.2987316,
-0.4963858,
-0.3566482,
0.0566878,
0.2725012,
0.2639736,
-0.0589015,
-0.5090813,
0.1432951,
0.4247715,
-0.2201301,
0.2467396,
-0.0485312,
0.3669590,
-0.1705560,
0.2799090,
0.2886417,
0.1195191,
-0.1037308,
-0.3263636,
-0.1664288,
-0.4735758,
0.1548814,
-0.0376524,
0.0104228,
-0.0380795,
0.5651066,
-0.0262115,
-0.1622104,
0.1972430,
0.0111414,
0.2823660,
0.3981423,
-0.0704466,
-0.2570123,
-0.1624973,
-0.0349582,
0.4086158,
0.5013410,
-0.0926666,
0.0675364,
-0.2741907,
-0.5901701,
-0.6918668,
-0.3163725,
0.0634446,
0.2229319,
0.5705875,
-0.1600431,
-0.0874274,
-0.3253322,
0.1345664,
-0.0510250,
0.4247910,
-0.4271139,
0.3661320,
-0.0987142,
0.5902274,
0.0437769,
0.4224279,
0.1478273,
0.1078699,
0.0135276,
-0.0876415,
0.0610421,
0.2985550,
0.4205352,
-0.3576677,
0.2359801,
0.1921403,
-0.1977709,
-0.1135011,
0.2693025,
0.0145407,
0.1997433,
0.2985884,
-0.4512274,
0.0800392,
0.2475442,
-0.0637339,
-0.4167743,
0.4987657,
-0.3487112,
0.1025114,
0.3813291,
-0.3010010,
0.0788792,
-0.2434717,
-0.3326090,
-0.4016939,
-0.3759925,
0.2625611,
0.4587181,
0.0752784,
-0.3995611,
-0.0476764,
-0.0983073,
0.3984745,
0.0667503,
-0.3325498,
0.0058647,
0.4405167,
0.2012866,
-0.2700865,
-0.0643508,
-0.1361317,
-0.4588832,
-0.0089060,
0.4393409,
0.2490436,
0.4084752,
0.4976505,
0.2399171,
-0.4593617,
0.0737315,
0.1108883,
-0.3054700,
-0.3689959,
0.3604332,
-0.1614657,
-0.3137808,
0.4536922,
-0.4104759,
-0.3507216,
0.0180616,
-0.3240976,
0.1064174,
0.4172089,
-0.4314814,
-0.3693991,
-0.4401506,
0.0430922,
-0.4239699,
0.2297138,
0.2846837,
-0.0165830,
-0.4023362,
0.3159606,
0.4514935,
0.5260277,
0.0654881,
0.3635651,
0.4788518,
-0.2353340,
0.3519353,
0.0528337,
0.3650751,
-0.4414117,
0.1384365,
0.2185254,
-0.1212805,
0.3659956,
0.1589910,
-0.0541664,
0.4847464,
-0.3471433,
0.0900567,
0.0857821,
-0.4239771,
0.1729394,
0.2182324,
-0.3890344,
-0.2787122,
0.2725521,
0.3336577,
0.4891744,
-0.2519749,
0.3990790,
0.2728102,
-0.3255276,
0.4023581,
-0.2016042,
0.5079551,
0.3757002,
0.0545865,
0.3517533,
-0.1136030,
-0.1060394,
0.3766620,
-0.4498767,
-0.3892649,
-0.2566660,
0.3733709,
0.2591173,
0.1702141,
0.3661588,
0.3979119,
-0.2289726,
-0.0776836,
0.4572619,
0.4052305,
-0.3645929,
-0.4584182,
-0.3904181,
0.3954574,
0.3583380,
-0.4437280,
-0.4051718,
0.2395959,
0.3198462,
-0.2465408,
0.1422594,
-0.3882403,
-0.2461561,
0.0125138,
0.1226113,
-0.4020829,
0.3650109,
-0.4889833,
0.4584820,
0.3837941,
-0.3718305,
-0.3156799,
0.2467852,
0.3601028,
0.3682361,
0.0826463,
0.2464007,
-0.3773561,
0.5078256,
0.2030250,
0.4878126,
-0.3581756,
0.2198334,
-0.4043270,
0.4570312,
0.0664401,
-0.3559144,
-0.4511901,
-0.1890244,
0.4344273,
-0.2056096,
0.4435716,
0.4917792,
0.0275925,
-0.0951149,
0.1012986,
0.0839804,
-0.2388270,
0.1143900,
0.0513890,
-0.3774276,
0.2145460,
0.2182648,
0.3679909,
0.0567095,
0.0839562,
-0.0516080,
-0.2064410,
0.1466487,
-0.0546775,
0.4421485,
0.1339082,
0.0197839,
0.1871287,
0.2159012,
-0.0163087,
-0.2616034,
0.3196624,
0.0160203,
0.0204089,
0.2599411,
0.3209253,
-0.0539032,
0.2343422,
-0.1774259,
0.3447958,
-0.1670367,
0.4109827,
-0.4030123,
0.4387695,
-0.0662934,
-0.3010833,
0.1448616,
-0.3635169,
-0.4408730,
-0.3278832,
0.2110000,
0.0013334,
-0.0253495,
-0.1635509,
0.4062062,
-0.0864558,
0.4585782,
-0.0509524,
-0.4436118,
0.1416973,
0.4330049,
-0.2154172,
-0.0378858,
-0.0625922,
0.3371228,
-0.2921400,
-0.2710222,
-0.2680806,
0.4626071,
0.0512804,
-0.4348929,
-0.2156202,
-0.0561160,
-0.3573385,
-0.2894697,
0.3753424,
-0.1810134,
0.3244527,
0.5062387,
-0.1398501,
0.4868424,
0.1730748,
0.3660745,
-0.0406268,
0.4967908,
0.2591938,
0.3717215,
0.4496690,
-0.3177587,
0.4169314,
0.1002747,
-0.3952396,
-0.3068763,
-0.4514765,
0.0241302,
0.4986164,
-0.2576177,
0.2748214,
-0.2808869,
-0.3396702,
-0.2219039,
-0.2732247,
-0.1016195,
0.1971038,
-0.1155140,
0.1122796,
0.0348000,
0.1451857,
-0.1512997,
0.0065080,
-0.4109106,
-0.1075177,
-0.3384833,
0.3650004,
0.3121482,
-0.3209844,
0.0693090,
0.1617526,
-0.3434690,
0.3189021,
0.0363809,
0.2083752,
0.3824531,
0.2298255,
0.2806304,
-0.1264185,
0.2007589,
0.5190069,
-0.3229693,
0.4605355,
-0.3089183,
-0.0906148,
-0.3105101,
0.0504841,
-0.4003745,
0.1272311,
-0.3674351,
0.2146475,
-0.2325854,
0.0469995,
-0.2397143,
-0.2144790,
0.3599426,
-0.0670741,
-0.3164417,
0.2381878,
0.0546419,
0.3040359,
-0.0129348,
0.2864463,
0.1134317,
-0.5204159,
-0.0085659,
0.0190501,
0.2397794,
-0.2318202,
0.4838073,
-0.0334873,
-0.2115100,
-0.4492454,
-0.1293438,
-0.0916699,
-0.0470068,
0.1127243,
0.4845852,
0.1405754,
-0.3853041,
-0.4200439,
-0.2323953,
-0.0549557,
0.1497295,
-0.0052773,
0.2062966,
0.0537710,
0.4329840,
0.4359934,
-0.1663436,
0.1453315,
0.2100940,
0.3132680,
-0.1112183,
-0.1783027,
0.2616252,
0.3684726,
0.2975908,
0.0417074,
-0.3160184,
0.2576230,
-0.4866339,
-0.0864987,
0.3329935,
-0.0593623,
0.3698155,
-0.1250206,
-0.4504405,
0.3031411,
0.4757560,
-0.3693905,
0.3819890,
-0.2255409,
0.1712344,
0.0256602,
0.3107755,
-0.1909969,
-0.3224978,
0.2209656,
-0.3073349,
-0.0155435,
-0.0369279,
0.4688467,
-0.2572328,
0.3022001,
-0.2866845,
-0.4268119,
0.2279989,
-0.4090519,
0.1061824,
0.3784323,
0.4066571,
0.1335172,
-0.1679026,
0.2480350,
-0.3858230,
-0.3065999,
-0.4495783,
-0.3391433,
-0.4562393,
-0.4262488,
-0.1260694,
0.4334208,
-0.1465247,
0.4974364,
0.0483953,
-0.3593506,
-0.1844151,
0.1538621,
0.4644526,
0.0442751,
-0.2853719,
-0.1157107,
0.0077595,
-0.0501192,
-0.2463234,
0.2407990,
0.0490915,
0.4527558,
0.4066241,
-0.3810549,
0.3213075,
0.2140811,
0.3193439,
-0.3154167,
-0.0419363,
0.4015709,
-0.1359056,
0.0782575,
-0.4525157,
-0.0335313,
0.1115199,
-0.0749489,
-0.0918391,
-0.4991076,
-0.0965171,
0.4476321,
-0.3360574,
0.2373638,
0.1511317,
-0.3115537,
-0.1767955,
0.2926226,
0.0688659,
0.3032247,
-0.2814576,
0.2927785,
0.0618936,
0.2376499,
0.2422992,
-0.0436036,
0.3986349,
0.1403657,
-0.2825413,
0.1309872,
0.3156631,
0.2215344,
0.1252817,
-0.2453992,
-0.1658870,
0.1583118,
0.1847899,
0.4721474,
-0.4395062,
-0.3819695,
0.4833210,
0.0239089,
-0.4492973,
-0.2935962,
-0.2332344,
0.2704950,
-0.1271003,
0.0714936,
0.0784007,
0.4769548,
-0.1585715,
0.2950835,
0.3078380,
0.4218161,
0.0904014,
0.0390402,
-0.1448328,
0.0380813,
-0.3614843,
0.1041675,
-0.2838219,
-0.5141398,
-0.1790011,
0.3037237,
-0.2063805,
0.1187736,
-0.0245708,
0.4795202,
0.1359712,
0.0423753,
-0.4195549,
0.0640138,
-0.4867992,
-0.3127108,
0.2935932,
-0.2593634,
0.4419770,
-0.2900716,
0.2896147,
-0.0497086,
-0.3362457,
-0.3240003,
-0.1868526,
0.4475396,
-0.3354881,
0.3674906,
-0.0500707,
0.0159143,
-0.0835922,
0.1709116,
-0.3849840,
0.2028410,
0.2017854,
-0.0497559,
0.0184457,
0.4195382,
-0.3757893,
0.4251826,
0.4363375,
0.3180121,
-0.0143298,
-0.4436034,
-0.0407654,
0.0356872,
-0.2371176,
-0.1882878,
0.3526574,
-0.1307134,
-0.0745119,
0.2260721,
0.1631076,
0.1458742,
0.3638576,
0.4440519,
0.0951171,
0.5119193,
0.4763990,
-0.4329251,
0.0573875,
-0.1717968,
0.3304048,
0.2358621,
-0.5308572,
0.0491329,
-0.3279670,
0.0714004,
0.0465518,
-0.1755444,
-0.0561617,
-0.0006236,
-0.3860533,
0.4252573,
0.0693311,
0.0456343,
0.0636174,
0.3792293,
0.4296958,
-0.1515546,
0.5351967,
-0.1802470,
0.5471159,
0.1689864,
0.3637402,
0.3713141,
0.1269990,
-0.0455000,
0.3097753,
-0.0730515,
0.0993614,
-0.2977629,
0.3624521,
-0.1607298,
0.4578253,
0.4178567,
0.3366860,
-0.4472656,
-0.1425651,
-0.1837728,
-0.2010482,
0.2741988,
0.1808889,
0.0067872,
0.2550272,
-0.3057294,
-0.3686402,
-0.2358785,
-0.4773134,
0.3579053,
0.1149142,
-0.4932483,
-0.4313860,
0.0905583,
0.1363995,
0.4636274,
-0.0948098,
-0.2369293,
-0.0237780,
-0.3221017,
0.4253857,
-0.4721179,
0.0170547,
0.1362298,
-0.1316361,
-0.1628580,
-0.0413734,
-0.3588167,
-0.0891229,
0.3639607,
0.0060827,
0.1677618,
0.0375139,
-0.2637239,
-0.3505093,
-0.2302002,
-0.1769537,
-0.3294222,
0.0093272,
-0.1381790,
-0.4519746,
0.5021245,
0.0198162,
-0.3021337,
0.0920118,
-0.4786527,
-0.5653097,
0.3490425,
-0.1836793,
0.0843288,
-0.4185350,
-0.4337065,
0.0391760,
0.0029321,
0.2053492,
0.4562129,
0.3207308,
-0.3621715,
-0.5110575,
-0.2404254,
0.3737899,
-0.0292164,
0.5199996,
-0.0982203,
0.1524839,
-0.4222133,
0.0205088,
0.4573124,
-0.2130327,
-0.4932003,
-0.0586324,
-0.2158442,
-0.5248466,
0.2230604,
-0.1567104,
0.0365579,
0.3737822,
-0.0518391,
-0.1301593,
-0.2632488,
0.4954745,
-0.0513886,
-0.1098889,
0.0306385,
0.5320282,
-0.3443683,
-0.1216906,
0.3250501,
-0.2236021,
-0.0918458,
0.5683373,
-0.3794792,
0.4247301,
0.3542671,
-0.0794601,
0.0493695,
0.6683515,
-0.4427571,
-0.0374139,
-0.2428430,
-0.2760154,
0.2785100,
-0.0199270,
-0.3928624,
0.0976521,
0.3707062,
0.1693461,
-0.0445925,
-0.1365233,
-0.4216291,
0.1829606,
-0.2749550,
0.0568996,
-0.4165759,
0.3210201,
-0.1258936,
-0.2611439,
-0.3434499,
-0.2326291,
-0.1158363,
0.1887238,
-0.3140496,
0.1263009,
-0.0358818,
0.4131763,
-0.3779846,
0.3622556,
0.3799459,
-0.1088275,
-0.1252010,
-0.3144947,
-0.0737555,
-0.3964332,
0.1084545,
-0.0634525,
0.3097711,
0.0075629,
-0.4662823,
-0.3128956,
0.4093661,
-0.4151389,
0.4807724,
-0.3408498,
0.1719907,
0.5081236,
0.4256904,
-0.5925691,
-0.3272265,
-0.4725071,
-0.2894022,
0.0484987,
0.1414311,
-0.2828501,
-0.1375173,
-0.4847559,
-0.2047578,
-0.1232509,
0.4388250,
-0.3257677,
-0.0232932,
-0.2153278,
0.0323803,
0.3391810,
-0.0696334,
-0.3941846,
-0.1534641,
-0.4303038,
0.0726876,
-0.1553459,
-0.2374578,
-0.0302388,
-0.0378611,
-0.2487443,
0.0636064,
-0.4938491,
-0.3047430,
0.0409832,
-0.4287444,
-0.0662402,
0.0635617,
-0.2691504,
0.5687542,
-0.3628354,
-0.0351373,
-0.2667551,
-0.4121504,
0.3874548,
0.1611577,
-0.4352542,
-0.4075251,
-0.3551114,
-0.1890344,
-0.0034139,
0.4054293,
0.2128587,
-0.0195234,
-0.3462056,
0.2015343,
-0.2681003,
-0.0817352,
-0.4397340,
0.1170883,
0.4979512,
-0.2503890,
-0.1282304,
0.1965314,
0.1333699,
0.0813792,
-0.6311329,
0.1381253,
-0.2094550,
-0.4269073,
0.3860207,
-0.0435480,
0.3124163,
-0.5581455,
0.0048112,
0.3444915,
-0.0377015,
-0.0208401,
0.4825499,
0.1429149,
-0.6121930,
-0.3195423,
-0.3052493,
0.2503471,
0.4372205,
0.1200773,
0.0822444,
0.8120372,
-0.4802135,
0.1894524,
0.0638486,
0.3156963,
0.0104820,
0.3103995,
0.4024726,
-0.0962963,
-0.1747295,
0.6739854,
-0.5567608,
0.3159848,
-0.4272373,
0.4379945,
-0.1431251,
-0.3138205,
0.4698925,
0.6285581,
0.0796023,
-0.1065954,
0.0510573,
-0.0533537,
0.5695018,
0.4879847,
0.1571797,
-0.0866016,
0.0289307,
0.1315893,
0.5894609,
0.3615243,
-0.0003455,
0.3571071,
-0.1857339,
-0.6088700,
0.3843334,
-0.4137988,
-0.6295014,
-0.0169090,
-0.3259620,
-0.0255986,
0.1851146,
-0.2219125,
0.1284133,
0.3377120,
-0.1054229,
0.4219138,
0.6157633,
-0.1187509,
0.2914855,
0.2293467,
0.2833734,
0.2115373,
-0.3376156,
0.2117843,
-0.3099730,
0.3379159,
-0.5443975,
0.3803961,
0.1193358,
-0.3740309,
0.2617884,
-0.4071167,
-0.5135928,
0.4728202,
-0.2131427,
0.6444042,
-0.6403587,
-0.3813729,
0.1603495,
-0.1179311,
0.4238534,
0.0548671,
0.6345401,
0.2301190,
0.0233991,
-0.5817077,
-0.0488856,
-0.3792536,
0.0623921,
-0.3337356,
-0.2889601,
-0.3090869,
0.1221193,
-0.0442049,
0.4163770,
-0.1897174,
-0.1642372,
-0.5928804,
0.3851487,
0.0891237,
-0.4487711,
0.0282106,
0.4867014,
-0.3435658,
-0.1632788,
-0.4367778,
-0.6835417,
0.0941306,
0.1427577,
-0.5467235,
-0.3734636,
0.0348276,
-0.1861727,
-0.4145432,
0.5093347,
-0.7089232,
-0.1629390,
-0.3076763,
-0.0509215,
-0.8519067,
0.1733835,
0.0317706,
-0.1907248,
0.0205831,
0.5363678,
-0.5627580,
0.2492494,
-0.3231452,
-0.1684934,
0.2248064,
-0.2651953,
-0.1518571,
-0.4073829,
0.5563114,
0.2533884,
0.2547162,
-0.4801953,
0.2396923,
-0.1197107,
0.0719899,
0.5041545,
-0.1576643,
-0.5692035,
-0.0628135,
0.1654073,
-0.3088316,
-0.2141018,
0.0219264,
0.0993836,
0.3288506,
-0.2840971,
-0.3980059,
-0.2541746,
0.1422301,
0.0711239,
0.0649698,
0.3347158,
-0.0962126,
0.1494044,
0.4337329,
-0.5162478,
0.2046516,
-0.1155369,
-0.4726728,
0.0695631,
-0.4190893,
-0.3367392,
0.6104056,
-0.4659752,
0.1860220,
0.3030041,
0.4484129,
-0.3012136,
0.2066422,
-0.1698909,
0.4098945,
0.3792178,
0.3697397,
-0.2222483,
-0.2121779,
0.1220156,
-0.5212449,
0.1031022,
-0.1681959,
0.3115997,
-0.3174147,
0.1780590,
-0.1619914,
-0.1637122,
-0.1923711,
-0.1112718,
0.2437314,
-0.4965875,
0.2684501,
0.2660866,
-0.2565857,
0.5249179,
-0.8114628,
-0.4598507,
-0.6662376,
0.4197149,
0.0834276,
0.5227082,
0.2745095,
-0.1761755,
-0.4741179,
0.2567831,
-0.2868526,
-0.3753309,
0.4895601,
0.1667205,
0.5295833,
-0.6031488,
-0.7139793,
-0.5994153,
0.3757546,
-0.1639088,
0.2420040,
-0.3725766,
0.1363259,
-0.2846670,
0.0650771,
-0.3189590,
0.2338950,
-0.0668613,
-0.3969594,
0.1777055,
0.0025803,
-0.2870393,
-0.1867556,
-0.0300227,
0.1783958,
-0.3538815,
-0.1615493,
0.0442059,
0.0305345,
0.3139089,
-0.2865782,
0.0952197,
0.3482525,
-0.5418016,
-0.1762913,
0.2710133,
-0.3882378,
0.2446080,
-0.7211406,
0.3826219,
0.1702786,
0.2958833,
-0.4271302,
-0.3828923,
-0.6340824,
0.2774090,
-0.0481222,
0.1751350,
0.0298170,
0.1840539,
0.0205029,
0.3510210,
0.2824712,
0.7251818,
-0.2595881,
-0.1739365,
-0.2962880,
0.2508768,
-0.6449807,
0.5685537,
-0.0057257,
0.0632819,
0.2799841,
0.2593732,
0.2101805,
-0.3863697,
-0.0462071,
0.3143907,
-0.0979028,
-0.0642705,
0.1865671,
0.0702912,
-0.3202720,
0.2240459,
0.0144978,
-0.2230681,
-0.1713490,
-0.4188801,
-0.3240826,
0.3897142,
0.5430984,
-0.1507621,
-0.1126647,
0.1409740,
0.1890579,
0.3444813,
-0.1136590,
0.3876711,
0.1954403,
-0.1062950,
0.1602890,
-0.2204757,
0.1307397,
0.0081590,
0.2285849,
-0.2605129,
0.3841593,
-0.2980210,
0.5125198,
-0.1437518,
0.1207762,
-0.3190718,
0.2179394,
0.3764673,
-0.6366409,
-0.4489821,
-0.3182696,
0.1178476,
0.2999912,
-0.1300447,
-0.2425928,
0.2045228,
-0.5564422,
0.6895556,
-0.1634173,
0.1594077,
0.3133434,
0.0373428,
0.0655757,
-0.0510636,
-0.3694603,
-0.3685121,
0.0241555,
0.5390929,
-0.1166682,
-0.2853958,
-0.1642896,
-0.2938459,
0.0020579,
-0.5663380,
0.2947492,
-0.4050300,
0.0843825,
-0.1873187,
0.6613737,
0.2805937,
0.3382495,
-0.3726052,
-0.2119024,
-0.0292234,
0.5121798,
0.3791709,
-0.6870189,
0.4531035,
0.6113142,
-0.0692546,
0.2974398,
0.2259449,
-0.4468585,
0.4842726,
0.3155867,
-0.5829535,
0.5043050,
0.3777605,
0.5953782,
0.4191942,
0.5250140,
-0.4434546,
-0.1254743,
-0.0293814,
-0.6454965,
-0.4376329,
-0.3105024,
0.4302642,
0.0723043,
-0.0738152,
-0.0084775,
-0.0184174,
0.2303862,
0.4422438,
0.6801122,
-0.0831519,
-0.2440540,
0.4865303,
-0.5047493,
-0.3273934,
0.0850831,
-0.1951451,
0.2998873,
-0.0563386,
0.0877988,
0.5115524,
-0.1973700,
-0.5731702,
-0.0263873,
-0.1639807,
0.2901351,
0.0302594,
0.3276985,
-0.1860080,
0.2627992,
0.4045851,
-0.0503128,
-0.2817111,
0.0991769,
-0.3169047,
-0.1078811,
-0.2879491,
0.0763484,
-0.2740148,
0.2762105,
0.1653431,
-0.3236199,
-0.0335764,
-0.0140990,
0.4038549,
0.4983928,
0.5383063,
-0.3157431,
0.1714589,
-0.4442037,
-0.0520213,
0.0161280,
0.3198391,
0.0256985,
-0.3914703,
-0.3015572,
-0.3836431,
-0.3199994,
-0.0348035,
-0.0882394,
-0.2814283,
-0.2855860,
0.5632070,
-0.2260477,
-0.5834920,
-0.4734303,
0.2405058,
-0.2876450,
0.2733628,
-0.3073380,
-0.5163734,
-0.4334892,
-0.4207394,
0.1460844,
0.3014132,
0.3070144,
0.2382888,
0.2853136,
0.2388503,
-0.0577032,
0.4369736,
-0.0921257,
0.4942437,
0.2589429,
-0.0311711,
0.5271769,
0.4604630,
0.2911374,
-0.1180774,
0.2130730,
-0.4902937,
0.0987591,
-0.3822442,
-0.5761049,
-0.4203339,
-0.1392073,
-0.4560036,
-0.4585781,
0.3456978,
0.2200103,
-0.4915568,
0.4400770,
-0.3597530,
-0.1653199,
0.0316455,
0.3282587,
-0.1225554,
-0.4853680,
-0.1857525,
-0.3884376,
-0.1214988,
-0.2077364,
-0.3205634,
-0.3260310,
-0.7341227,
-0.2569524,
-0.1752973,
0.4026970,
0.1887646,
0.0020303,
0.2399505,
0.5426074,
-0.2457463,
0.1695119,
0.1120220,
0.0332947,
0.4410339,
-0.2882194,
-0.2078145,
0.0315121,
0.3021537,
-0.1242163,
-0.5118128,
0.8620374,
0.4142018,
0.0797737,
0.2358746,
-0.1346552,
0.5314924,
0.2592422,
-0.1818763,
-0.2701586,
0.4255631,
0.0437533,
-0.1001664,
0.1517057,
0.3353079,
0.0142805,
0.2560739,
-0.1843342,
-0.0745831,
-0.0771015,
-0.0085995,
0.2287314,
0.2218395,
-0.0836266,
0.2359854,
0.1811628,
0.0621251,
-0.5377110,
-0.1666728,
0.2213896,
0.0119245,
0.1004550,
-0.3207730,
-0.2408703,
-0.3461139,
-0.2151759,
-0.3163884,
-0.3287302,
-0.0529381,
0.0296537,
0.0340237,
-0.2762803,
-0.1326986,
0.2917660,
-0.3549620,
-0.4437331,
0.1596033,
-0.4950884,
0.2264578,
0.2420499,
-0.0536799,
-0.3905437,
-0.2898004,
-0.1921062,
-0.0201378,
-0.4257727,
-0.0784384,
-0.4045461,
-0.3659052,
-0.1791048,
0.0459327,
0.1207127,
0.5569594,
0.1554855,
0.6216243,
-0.1829156,
0.2345162,
-0.1415334,
0.0581565,
0.0200652,
-0.2140509,
0.1499827,
0.3387928,
-0.2744399,
-0.0155516,
-0.5279054,
-0.0368284,
0.5004603,
-0.4929812,
0.6441276,
0.4469733,
0.0086980,
-0.6379265,
-0.3020737,
-0.2156929,
0.4796889,
-0.7378964,
0.0636272,
0.3207788,
-0.2472033,
0.5030081,
-0.3010343,
-0.4043585,
0.1876583,
-0.0008234,
-0.1677280,
-0.2489334,
0.4111536,
-0.1157056,
0.1643423,
-0.0666549,
-0.0072118,
-0.5788741,
-0.0552924,
0.3744098,
0.3632684,
-0.5513455,
-0.8283122,
-0.1057491,
0.0030576,
-0.3748816,
-0.2819940,
-0.5956533,
-0.1349171,
0.0311288,
0.0252727,
0.3174584,
0.1914400,
0.4538081,
-0.1679881,
0.6951223,
0.8318606,
0.0290233,
0.0124889,
0.6273226,
-0.0854705,
-0.5789693,
0.4971873,
-0.2892840,
0.3555091,
-0.1526188,
-0.3799530,
-0.4350029,
0.0403330,
-0.1328919,
-0.1086591,
-0.4873609,
-0.3417731,
-0.2448619,
0.3043195,
0.3556766,
0.0119720,
0.6321521,
0.2875085,
0.0372794,
-0.1225845,
0.0959504,
0.0856053,
0.4195096,
0.0852075,
-0.4483655,
0.1439890,
-0.2676197,
0.1054393,
0.5103420,
-0.3519322,
-0.4989629,
-0.1825625,
-0.2558397,
-0.4185659,
0.5596429,
0.3558863,
-0.5079855,
-0.2277357,
-0.3203029,
0.4468086,
-0.0374159,
-0.3166149,
-0.6680146,
-0.2452210,
0.3289255,
0.3735859,
0.5414911,
0.3257437,
0.1449235,
0.3309396,
-0.2666427,
-0.3174029,
-0.3813488,
-0.3894505,
-0.1440376,
-0.1019158,
0.6910962,
0.3255262,
0.3897695,
0.4084819,
0.2305756,
0.5461043,
-0.1393813,
-0.3184561,
-0.5758764,
0.6565802,
0.2085331,
-0.4617075,
-0.2217321,
0.5463082,
-0.3467030,
-0.2573252,
-0.5195060,
-0.4881432,
-0.1505997,
0.5368773,
0.6697006,
-0.0977492,
0.4481772,
0.0765989,
-0.6784681,
0.2810755,
0.4747541,
-0.1847201,
-0.4773482,
-0.2044751,
-0.1285188,
-0.4677093,
-0.1481793,
-0.0739094,
-0.6061765,
-0.0763268,
-0.0575029,
-0.3109460,
-0.1097429,
-0.3996156,
-0.9986287,
0.6824746,
0.3957368,
-0.5197152,
0.5565672,
0.5416890,
-0.5540103,
0.5158421,
-0.6846924,
0.1350383,
0.5516232,
-0.4509799,
-0.3829246,
0.1641909,
0.6239446,
-0.5347769,
0.0564047,
0.4018296,
-0.3539049,
0.0700709,
-0.1601730,
0.5918464,
-0.0557575,
-0.0972633,
-0.0711131,
0.2180336,
0.0423611,
-0.2162373,
0.0342409,
0.3347596,
0.2482648,
0.3667610,
0.3199064,
-0.0929400,
-0.5057072,
0.0924475,
-0.2439143,
-0.2773156,
-0.1374058,
-0.2195928,
0.4600725,
-0.4319483,
-0.1884093,
-0.3797431,
0.0217293,
-0.4339855,
-0.1722777,
0.4397710,
0.2097541,
0.2710782,
-0.0659362,
0.2666759,
0.2239017,
-0.4974938,
-0.4328439,
-0.4766114,
0.1053820,
0.1017131,
0.0481112,
-0.1307623,
-0.0602939,
-0.1885354,
-0.2538029,
-0.2326011,
0.2251316,
-0.2470228,
0.3518932,
0.4819501,
-0.0151173,
-0.2600342,
-0.2205398,
-0.0443604,
-0.1905310,
0.0988592,
0.0793881,
0.3262726,
0.1668775,
0.4048422,
0.2696721,
-0.1138245,
0.1948397,
-0.3010823,
-0.3475001,
-0.0705716,
-0.2862455,
-0.2676747,
-0.0415783,
0.3291025,
0.3390800,
-0.4846332,
-0.3020709,
-0.2091520,
-0.1869517,
-0.0362456,
0.0590691,
-0.4469777,
0.2289403,
-0.0761419,
-0.4546868,
-0.2870323,
0.1639910,
-0.1722558,
0.1659448,
0.4745791,
0.4257897,
-0.2508170,
0.3135929,
0.1071703,
-0.3321467,
0.0899370,
0.4896483,
0.3654524,
0.3074293,
-0.3524747,
-0.1914589,
-0.4683422,
-0.1159696,
0.2726884,
0.3576868,
-0.2741396,
0.2932164,
-0.4313365,
0.0133332,
-0.3787779,
0.0300232,
-0.4153020,
-0.3288421,
-0.2302290,
0.0207145,
-0.2731771,
-0.0242542,
-0.3115574,
0.0572191,
-0.3529370,
-0.3206321,
-0.0094578,
-0.0889186,
0.4915571,
-0.3875462,
0.0895611,
0.0967037,
-0.3969403,
-0.0368189,
-0.0887046,
-0.2484516,
0.2824666,
-0.0671055,
0.1376875,
0.0541898,
-0.2014917,
0.3744066,
-0.1365315,
-0.1315143,
-0.1087832,
-0.0158815,
0.4160426,
-0.0180576,
0.1639143,
-0.3222861,
-0.4820169,
0.3989333,
0.1669238,
-0.2948720,
-0.0282796,
0.3322130,
-0.1209162,
0.4646113,
-0.2567749,
-0.1178295,
-0.4250547,
0.3267524,
0.4791916,
-0.3118238,
-0.1972470,
-0.1168698,
-0.0485887,
-0.4070394,
0.3273513,
-0.3973040,
0.1623249,
-0.3715352,
0.4752303,
-0.4807484,
-0.0025300,
-0.1159766,
0.0126715,
-0.0849773,
0.3725086,
-0.3112560,
0.1026288,
0.3876735,
-0.4100135,
-0.2124357,
-0.4068520,
0.0606448,
-0.3852289,
-0.0194716,
0.0428484,
-0.1401636,
0.3692891,
0.1131459,
-0.2893518,
0.3484721,
0.3109011,
0.0133353,
-0.2652969,
-0.2276541,
0.1076572,
-0.4341598,
-0.1125808,
-0.2373778,
-0.2911794,
-0.1254359,
-0.1949503,
0.2097061,
0.2651824,
0.3299340,
-0.3725299,
0.1417307,
-0.4800795,
0.2314193,
0.0354810,
-0.3838365,
-0.4778784,
0.1377029,
0.1767402,
-0.3610163,
-0.3767218,
-0.2821508,
0.0118356,
-0.5071735,
0.3457249,
0.2190848,
0.3612677,
0.1682098,
-0.2589095,
-0.3880461,
0.4466305,
0.3582673,
-0.3238334,
-0.1658936,
-0.3549910,
-0.1119704,
0.2109379,
-0.0539860,
-0.4030079,
-0.0197747,
-0.2362457,
-0.2638486,
-0.3702843,
-0.2073051,
0.4746867,
0.1661760,
-0.0959327,
-0.4955381,
-0.1934718,
-0.4051941,
-0.3459783,
-0.0575520,
-0.1765128,
0.1730018,
-0.0579258,
-0.3332149,
-0.1011963,
-0.1974117,
0.3310287,
0.1489417,
-0.0816509,
0.2875229,
0.0137676,
0.1031670,
-0.3784804,
0.1419464,
-0.4984411,
0.3455607,
-0.3948320,
-0.3967900,
-0.1666880,
-0.1134834,
-0.1586074,
-0.0413419,
0.1792399,
-0.1903578,
-0.3603756,
-0.4111179,
-0.2155032,
-0.0610825,
-0.2748077,
0.0189325,
0.4312622,
0.0771623,
-0.6805232,
0.0052302,
0.1812529,
0.2308358,
0.0319756,
-0.0560394,
-0.4204112,
-0.2883723,
-0.1779055,
0.2834364,
0.2784457,
-0.0010196,
-0.1280164,
0.0610886,
-0.3956455,
-0.1008908,
0.4639484,
-0.0554773,
0.3238031,
-0.1729308,
-0.4883551,
0.1112414,
-0.1273125,
-0.2286175,
0.0745122,
0.3801255,
-0.0556967,
0.4441531,
-0.4599510,
0.2630850,
-0.1743315,
-0.1061345,
0.3405397,
-0.3864695,
-0.5698159,
0.0637877,
-0.0549315,
-0.5724307,
0.0458726,
0.3077870,
0.6474672,
-0.3618379,
-0.0106877,
-0.2139541,
-0.3924357,
0.2620121,
0.5529125,
0.3854748,
-0.3988083,
0.2076907,
0.3714422,
-0.1603679,
-0.1276926,
0.0560640,
-0.0545430,
-0.3908457,
-0.2105473,
-0.3682138,
0.4946072,
0.1950846,
0.2709892,
-0.3847499,
0.4352626,
-0.0412474,
-0.1865923,
0.4403355,
-0.2873427,
0.7350927,
-0.2766140,
0.3037584,
0.3317875,
-0.4064481,
-0.2220885,
-0.0303673,
0.0819379,
0.0961332,
0.4673692,
-0.0327247,
-0.4709675,
-0.5328112,
-0.0801453,
-0.6052182,
-0.0316231,
0.3439242,
-0.0196114,
0.2688507,
0.3865621,
-0.0079091,
-0.4721611,
0.2990633,
-0.5238596,
0.3555252,
-0.2955597,
-0.3817348,
0.0936368,
0.3332343,
-0.4747724,
0.4446194,
0.0204818,
-0.4045018,
0.1788799,
-0.0550562,
-0.1761142,
-0.3440039,
0.0544507,
-0.3722632,
-0.0897893,
-0.0478123,
0.1517521,
-0.0588036,
0.0277115,
0.4363415,
0.1010638,
0.2911152,
0.2906578,
0.4016838,
0.0524022,
0.1066319,
0.2412609,
0.3316013,
-0.2021682,
0.1854654,
0.3447632,
0.0876383,
0.0680803,
0.0705188,
-0.6869289,
0.3514236,
-0.2167807,
0.1761154,
-0.2062742,
-0.2287638,
-0.2424895,
0.0832247,
-0.1875745,
0.1830662,
-0.2776206,
0.2212358,
-0.1956222,
-0.6014923,
-0.4348717,
0.2878549,
0.7470461,
0.2994783,
-0.1178138,
0.2120701,
-0.0168224,
-0.4068326,
-0.3551192,
-0.1732640,
-0.3465133,
0.1597832,
-0.7058215,
0.2520478,
-0.3693090,
0.4782326,
-0.1136027,
-0.3239347,
0.1574025,
0.2247331,
-0.5538761,
0.4052517,
-0.7148528,
-0.1622948,
0.0153423,
0.1108700,
-0.4886281,
0.4414085,
-0.1641676,
-0.1590359,
0.4461181,
-0.1730783,
0.3385792,
0.4864998,
-0.3734882,
-0.0721570,
0.1191564,
0.4971184,
0.1783938,
0.4915321,
-0.4002309,
-0.1103427,
0.1214550,
-0.2723641,
-0.2813841,
0.1536192,
-0.2575743,
0.2926185,
-0.4791939,
0.5223066,
0.1872983,
-0.3670531,
0.3066195,
0.0831432,
-0.2688692,
-0.3613015,
-0.3063244,
-0.1986583,
-0.4958476,
-0.0386353,
0.0819450,
-0.3472264,
0.3388029,
0.0890028,
-0.3110548,
0.4626311,
0.3677317,
0.1894568,
0.2056153,
-0.0647000,
0.0340776,
0.4228120,
0.5940462,
-0.7676526,
-0.4530650,
-0.2327517,
0.2510067,
-0.1631404,
-0.3375613,
0.4285271,
-0.2091880,
0.4846483,
-0.2755928,
-0.4502391,
-0.1778455,
0.0908387,
-0.1227755,
0.1289591,
0.2827931,
-0.0741857,
0.4873972,
-0.1634118,
0.0149459,
-0.0896067,
0.5131446,
0.1211284,
-0.1865335,
0.0549987,
-0.0091353,
-0.2482864,
0.5313674,
-0.5098386,
-0.4511907,
0.6779267,
-0.4415267,
-0.2013535,
-0.2535306,
-0.5789453,
0.0104289,
-0.1921495,
-0.8130446,
0.3215970,
-0.7367943,
-0.6008624,
-0.1329026,
0.0164784,
0.3520867,
-0.0182524,
-0.4713037,
-0.1315175,
0.9616411,
0.5699143,
0.4585278,
0.0588080,
-0.1509538,
0.6412101,
0.0229222,
0.2520023,
-0.3264133,
0.1634524,
-0.4511889,
-0.2826278,
-0.2664328,
-0.0698001,
-0.7154196,
0.3955946,
0.3571662,
-0.2202016,
0.5964561,
-0.2838395,
-0.0212967,
0.0476185,
-0.4423022,
-0.0676653,
-0.4812680,
-0.1048888,
-0.2256698,
-0.0850159,
0.4413313,
-0.6239740,
-0.1673846,
-0.1858219,
-0.3415451,
0.5011604,
-0.2760823,
0.1695822,
0.0570404,
0.6353035,
0.5996760,
0.1005958,
-0.4241561,
-0.3758036,
-0.4075017,
-0.7446468,
-0.4804632,
0.0577045,
0.2850230,
-0.4549202,
-0.0653786,
0.6599363,
-0.0604584,
-0.4753585,
0.6725942,
0.0692186,
0.2327609,
-0.3040151,
0.2156262,
0.3865292,
0.7843911,
0.1827322,
-0.3356883,
0.1195942,
-0.2359771,
-0.3764941,
0.2147193,
0.9125059,
-0.2444798,
-0.2578229,
-0.0702730,
-0.5295089,
-0.6291064,
0.8007658,
-0.5304526,
-0.2503271,
-0.5002432,
0.6914851,
0.1350553,
-0.6271389,
-0.4512442,
0.6154982,
0.8590201,
-0.2289936,
-0.9520620,
0.1472719,
-0.4408962,
0.4180363,
-0.5854588,
-1.0081855,
-0.1391733,
0.5072931,
0.3882473,
-0.4971806,
1.1590407,
-0.2452414,
-0.2448258,
-0.0109373,
-0.1226324,
0.4441516,
0.3987523,
-0.4428508,
-0.1418966,
0.3694026,
-0.5088378,
-0.0320900,
-0.3359088,
-0.4816422,
-0.4909139,
0.4379038,
-0.0180651,
0.0514700,
0.2870874,
0.1923950,
0.2968652,
0.3863939,
-0.3887118,
0.1423988,
0.5749951,
-0.2062879,
-0.4640218,
-0.0438089,
0.2428413,
0.2963886,
-0.0926613,
0.6001526,
-0.1080788,
0.3278905,
0.4299228,
-0.1260653,
0.5695298,
0.0139408,
0.5399911,
-0.0355001,
-0.2842869,
0.5110340,
0.2711562,
0.3274759,
-0.9136763,
0.1659168,
0.2280438,
-0.1031039,
0.7708149,
-0.5878442,
-0.1140706,
-0.2743230,
0.8818446,
-0.1243929,
0.4550549,
-0.4284888,
0.1062262,
0.4764592,
0.3656117,
0.0240946,
0.0384896,
0.7796251,
-0.5291076,
0.5684973,
0.6090339,
0.3541398,
0.2349672,
0.4926813,
-0.0895360,
-0.1308223,
-0.1123176,
-0.4036079,
0.0811133,
0.3515531,
0.2885809,
0.3708010,
-0.5129205,
-0.2867563,
0.3122622,
-0.5275970,
-0.4663522,
-0.7366191,
0.2852603,
0.3929796,
-0.1202061,
-0.0784444,
0.1387468,
-0.4474813,
-0.8359650,
-0.2804061,
0.2120937,
0.0873580,
0.6523353,
0.2058135,
0.1110026,
0.2794637,
0.2365205,
0.0317324,
-0.5747001,
-0.6145454,
0.4614443,
0.3045395,
-0.4759496,
-0.0770506,
0.1507115,
0.4749273,
-0.5005549,
0.8948703,
-0.3806441,
0.4578543,
0.2927303,
-0.4311374,
0.7414921,
0.2964606,
-0.7065649,
-0.4589603,
-0.6524204,
0.3968989,
0.2504168,
-0.3815697,
0.4977222,
0.4721930,
0.2775650,
0.1782190,
-0.1354415,
0.5250939,
0.2225137,
0.1539875,
0.4481412,
0.3545929,
0.7145463,
0.1685548,
0.1045230,
0.5259601,
-0.0151713,
0.1286448,
0.6656537,
-0.0611906,
-0.1749426,
-0.1491498,
-0.8861264,
-0.4272231,
-0.2614761,
-0.1599249,
-0.4481651,
0.3710398,
-0.0168127,
-0.3738263,
-0.0812979,
-0.5859707,
0.0752285,
-0.2214019,
0.4616047,
-0.3042939,
-0.5803143,
-0.1701824,
0.4384692,
-0.1830788,
-0.4791313,
0.6026030,
0.5516150,
0.6228334,
0.1805982,
0.1820821,
0.5532584,
0.3943900,
-0.3893826,
0.5317346,
-0.2319439,
0.2347789,
0.6846380,
0.4806384,
-0.2806717,
-0.0464961,
0.2703486,
-0.4417774,
0.4406982,
-0.2750783,
-0.6393038,
-0.0595319,
-0.2336986,
-0.0296026,
0.2678398,
-0.4221792,
0.3876729,
0.6891771,
-0.0894919,
-0.0327932,
-0.0887058,
0.1600054,
-0.2306371,
0.1242880,
0.0889360,
0.5303061,
-0.3856855,
-0.2218266,
-0.0470230,
-0.2985910,
-0.2738558,
-0.4157008,
-0.7321960,
-0.2335825,
0.1710335,
-0.7824566,
0.0362849,
-0.1555458,
-0.3417430,
0.0383057,
0.2133139,
-0.2279907,
0.2622132,
-0.2064627,
0.3346686,
0.2412343,
0.1466129,
0.0343641,
0.1827380,
-0.3639419,
-0.1308792,
-0.5485446,
0.4335781,
-0.2958876,
-0.1302832,
-0.0517609,
-0.2564622,
-0.0759513,
0.3619414,
-0.0110565,
-0.2611599,
-0.0443184,
-0.1438164,
-0.5152285,
-0.0500691,
-0.2877749,
-0.3606750,
0.7189094,
-0.1141659,
-0.0303202,
-0.6195933,
0.0307041,
0.4552285,
-0.3571065,
0.4088366,
0.1081878,
0.3658754,
-0.1419817,
-0.4001337,
-0.3124744,
0.1368095,
0.0718655,
0.0191891,
-0.5927916,
0.4094034,
0.4671460,
0.1497538,
-0.5255353,
0.6685669,
0.1826249,
-0.5875414,
-0.1192180,
-0.6286784,
-0.0661364,
0.1771820,
0.1484444,
-0.2056819,
0.1355417,
0.0949398,
0.5685420,
-0.1661583,
0.1938159,
-0.2251377,
0.4256620,
0.0500624,
-0.3968949,
0.0280167,
-0.1330673,
0.0099873,
0.2519445,
0.3540713,
0.7156137,
0.4579036,
-0.4673116,
-0.1865002,
0.0252538,
0.4368525,
-0.4383671,
0.1201918,
-0.0122848,
0.2941189,
0.4240065,
0.4549581,
0.3798823,
-0.0264045,
0.1029203,
-0.0980232,
-0.1160006,
-0.2961578,
0.2776705,
0.2026393,
0.0050859,
-0.2645867,
0.3147641,
-0.1212534,
0.4980879,
0.6623709,
0.4268769,
-0.2514718,
-0.3447586,
-0.0288956,
-0.2148411,
-0.3981134,
-0.1805508,
-0.5752696,
0.0480194,
-0.5265504,
-0.4602504,
0.0687727,
0.3182843,
-0.5091746,
0.2542752,
0.2832545,
-0.0428547,
-0.3451223,
0.6036475,
0.3377252,
-0.2783812,
0.2798152,
-0.1353121,
0.0892132,
-0.4682815,
0.4041509,
0.1600112,
0.1805294,
0.2455847,
0.0792805,
0.5123501,
0.1888045,
0.2461355,
-0.3916057,
0.5932170,
0.3674060,
0.0769419,
-0.1616434,
0.3012570,
-0.5747030,
-0.2045111,
0.1528792,
0.2765428,
-0.4148718,
0.1427959,
-0.2406094,
0.5647669,
0.2085040,
-0.1750235,
0.3012519,
-0.0157490,
-0.7729198,
-0.0453086,
0.3698958,
-0.1786661,
-0.0855614,
-0.0296334,
0.2835476,
-0.0561087,
0.0915969,
-0.3266966,
-0.2236075,
-0.3926533,
0.5603148,
-0.1627203,
-0.6489715,
0.1758073,
0.4694024,
0.0477935,
0.1502528,
0.4903325,
0.1547679,
0.0202561,
0.0467457,
0.3037188,
0.1675358,
0.8443721,
0.2975259,
0.0253272,
0.0346945,
-0.0834912,
-0.5948365,
-0.0283274,
-0.5515471,
0.5643017,
0.2675457,
-0.0688347,
-0.1020990,
-0.1722712,
0.3417119,
0.2690022,
-0.0933207,
-0.5121887,
0.3421965,
-0.0145331,
-0.2088667,
0.4278293,
-0.3283124,
-0.1403634,
-0.4251102,
0.0533461,
-0.1702000,
0.4149955,
-0.5850433,
0.1559601,
0.1757253,
0.1573515,
0.1904628,
-0.1642398,
0.0173340,
-0.4749875,
-0.2177654,
-0.5366880,
-0.1582429,
-0.4141020,
-0.5761976,
-0.2347574,
-0.0313276,
-0.1955960,
0.2605842,
0.1815890,
-0.4964238,
-0.3660628,
0.3214789,
-0.5648182,
0.0028848,
-0.1784873,
-0.6292687,
0.5177947,
0.1235896,
0.1517308,
0.1951694,
-0.0493938,
-0.0490764,
0.0985118,
-0.0762972,
-0.5842892,
-0.1784267,
-0.4798990,
0.4394903,
-0.1039631,
-0.2100973,
0.1755988,
0.2591678,
-0.7424239,
-0.2062633,
0.2397153,
0.1418617,
-0.1458646,
-0.3985308,
-0.4168389,
0.2381919,
0.0646890,
0.1725153,
0.4441151,
0.1350251,
0.1088807,
-0.6360031,
-0.4905384,
-0.2159813,
0.2392466,
0.1421439,
0.6118159,
-0.3854939,
0.4081450,
-0.2814018,
0.4788792,
-0.7320043,
0.3417299,
0.3164401,
-0.0831218,
-0.3603439,
0.1292577,
-0.1376919,
0.5292434,
0.1431943,
0.1214827,
0.0004435,
0.2119902,
0.1778475,
0.0972724,
-0.4089374,
0.1306957,
-0.2505920,
0.1658162,
-0.2890155,
-0.5070809,
-0.1570538,
-0.4624599,
-0.0492556,
0.0468719,
-0.0089386,
0.5545008,
-0.0153044,
-0.2188426,
0.0356300,
-0.2381718,
0.3530399,
0.3602360,
-0.4475332,
-0.1072330,
0.1979169,
-0.1822366,
0.0919675,
0.2794962,
-0.0100131,
-0.6436320,
-0.0586656,
0.4401349,
-0.6132052,
0.8058105,
0.6601427,
-0.1691728,
-0.0282152,
-0.4518779,
-0.5113522,
0.4099789,
0.1053093,
-0.2834304,
0.2904213,
0.4467786,
0.3424789,
-0.1290471,
0.2910403,
-0.3083742,
-0.2034370,
0.1099084,
-0.0552925,
0.2006819,
-0.6197267,
-0.5687859,
-0.4010477,
0.0560756,
0.0403345,
0.0863431,
-0.3032333,
-0.5608592,
0.5500832,
0.0940848,
0.5096626,
-0.2739863,
-0.0553578,
0.3343682,
0.4863133,
-0.7945292,
0.3784219,
0.4212352,
-0.1015732,
-0.2309184,
0.5619191,
-0.0070202,
-0.4958490,
0.3361770,
0.1916269,
0.2695254,
-0.6814917,
-0.3770563,
0.7234177,
-0.0755446,
0.4822557,
-0.4898869,
0.0975161,
0.5095030,
0.0949922,
-0.2403904,
0.1311387,
0.6884864,
0.1085322,
-0.1075199,
0.3269591,
0.0614163,
0.2693583,
0.0118100,
-0.1554380,
-0.0455328,
-0.3523498,
-0.1292999,
-0.6781739,
1.2079851,
0.0931732,
0.5280453,
0.3545970,
0.6407694,
-0.1121455,
0.0071862,
-0.5417215,
0.8584371,
-0.0114490,
-0.4108620,
-0.4437377,
-0.0544689,
-0.0267681,
0.5100665,
0.1307887,
0.6077826,
-0.3007831,
-0.2469814,
0.2806202,
-0.1394450,
0.6519141,
-0.3403122,
-0.3423762,
-0.0191884,
-0.0770753,
-0.6241578,
0.6067930,
0.4319572,
0.0911936,
0.4424006,
0.2771375,
-0.4088917,
0.2452835,
-0.3850124,
0.3598922,
-0.1761909,
0.3841919,
-0.4939209,
-0.0707511,
-0.1966859,
0.0566547,
-0.4085020,
-0.7865732,
0.5645426,
0.0365668,
-0.0309064,
0.3906932,
-0.1597945,
-0.2240065,
0.0324297,
-0.0637822,
-0.2003834,
0.5746840,
0.1745822,
-0.1555527,
-0.0880757,
0.4242145,
-0.4127594,
-0.3199986,
-0.2272738,
-0.5595194,
-0.1133966,
0.1237430,
0.1407352,
0.2235223,
-0.2486536,
-0.1118886,
-0.1740994,
0.0281085,
0.3895588,
0.5577976,
0.5784447,
-0.6797001,
0.2981813,
0.0980401,
-0.3794620,
-0.1688917,
0.2567386,
-0.4728976,
-0.0444729,
-0.1834179,
0.1884231,
-0.4466929,
-0.3636873,
-0.4439884,
0.2028300,
0.5228213,
-0.6861314,
-0.1566180,
-0.6291827,
-0.1293146,
-0.2768656,
-0.1892926,
-0.3886248,
-0.3318742,
0.0906750,
-0.0324153,
0.1004393,
-0.6654698,
-0.6319564,
-0.4708192,
-0.5706396,
-0.6275894,
-0.4718824,
0.2877402,
0.7222298,
0.1611225,
-0.3774280,
0.0825857,
0.3100651,
0.6492172,
0.2442941,
-0.2046375,
0.3327448,
0.3619819,
-0.2120092,
0.5462610,
0.1062049,
0.1282367,
0.3312548,
0.3751485,
-0.8486271,
-0.2095370,
-0.4730060,
-0.2571518,
-0.1533484,
-0.3311466,
0.3726652,
0.1516495,
-0.0649992,
0.3415065,
0.2618930,
-0.0893726,
0.1465652,
0.1966221,
-0.4460664,
0.1153533,
-0.0824926,
-0.2876989,
-0.3257589,
0.5603555,
-0.3148405,
0.3667211,
-0.3172125,
-0.4557746,
0.4122488,
0.1351505,
0.1481423,
0.0988875,
-0.2783737,
0.3343512,
-0.2751137,
-0.4182930,
0.7182525,
-0.0392290,
-0.4098850,
-0.5522618,
0.0652797,
-0.3446589,
0.2166404,
0.4593653,
0.3884560,
-0.3937726,
-0.5127288,
0.1755331,
0.3283316,
0.0014914,
0.0271647,
-0.6117158,
0.3496760,
-0.1520079,
-0.4961901,
0.1609782,
-0.1944713,
-0.1170163,
-0.5761536,
-0.6327989,
-0.5361944,
0.7822124,
-0.2424275,
-0.4985270,
0.1766173,
0.2384747,
-0.2981783,
-0.1130700,
-0.3447076,
0.2979036,
0.1379599,
0.2545847,
0.2801959,
-0.3080979,
-0.1214972,
0.3949948,
0.0158366,
0.3801135,
-0.1302074,
-0.5456949,
-0.0431462,
0.3090211,
-0.0379280,
-0.3970298,
-0.1260006,
0.0595720,
0.3406457,
-0.0307639,
0.4424058,
0.5468976,
-0.1290236,
0.5484037,
0.6484662,
-0.4102687,
-0.1436753,
0.2767922,
0.4501328,
0.0910984,
-0.2205329,
-0.3821614,
0.3602161,
0.1944205,
0.2072625,
-0.0929855,
0.2576460,
0.2346622,
-0.2285541,
-0.1667589,
-0.2831469,
0.0690601,
0.3031766,
-0.0120944,
-0.2331725,
-0.8903752,
0.4174241,
0.0151687,
0.0916442,
0.3399761,
-0.1630072,
0.2734608,
0.0230088,
0.2459729,
0.3083269,
0.5515507,
0.5982413,
0.1949817,
-0.2126950,
0.4674154,
0.3774139,
0.3787619,
-0.4210743,
0.1541147,
-0.2339874,
0.2966032,
-0.1211065,
0.0150725,
-0.0581291,
-0.0762460,
0.1099983,
0.0207833,
0.5862675,
-0.4586786,
0.3357624,
-0.0720580,
-0.2174953,
-0.3198718,
0.3590881,
0.0490540,
-0.6175506,
-0.6386172,
-0.1212483,
0.4211030,
0.6591067,
0.2882382,
-0.1313506,
0.5860489,
0.1113714,
0.1832849,
0.2123457,
-0.1027729,
-0.4089745,
0.3821093,
0.2959273,
0.0739726,
0.3480466,
-0.3987797,
0.2653261,
-0.0660910,
0.3207557,
-0.4656001,
-0.1053270,
-0.1291139,
-0.3842075,
0.1922035,
0.2843290,
-0.1960468,
0.1622225,
0.0705219,
-0.1936319,
-0.0102124,
0.3075245,
0.2455924,
-0.0901069,
0.1785117,
-0.0058393,
0.4608100,
0.3509137,
0.2654419,
-0.0830021,
0.0562159,
-0.5327691,
0.2802168,
-0.0265154,
0.3626366,
-0.3348111,
-0.1172980,
0.4464099,
0.2874087,
0.1498954,
-0.1245630,
0.3224747,
0.4103979,
0.3767007,
0.7147263,
0.2692038,
0.2032717,
-0.0928621,
-0.2503452,
-0.1007213,
0.0696096,
0.2338910,
-0.2696583,
-0.3541971,
-0.2198974,
-0.6874827,
0.3144307,
-0.4956850,
0.4052520,
0.3933579,
0.3993292,
0.0811859,
0.1151626,
-0.3380364,
-0.4234890,
-0.0487751,
0.0161978,
-0.1374317,
-0.1227537,
-0.1630246,
-0.5747904,
0.1032116,
-0.4423737,
0.3553999,
0.1355957,
-0.4768562,
0.2156015,
-0.1973342,
-0.0116175,
0.2979283,
-0.0594167,
-0.5830676,
-0.0165498,
0.2398918,
-0.2326514,
-0.0490068,
0.4908707,
-0.5092326,
0.2625753,
0.3274581,
0.2812157,
0.1759445,
-0.1322485,
-0.0815918,
0.4654141,
0.0102682,
0.2010451,
0.1728310,
0.6648579,
-0.0929439,
0.5031411,
0.5976682,
0.4507266,
-0.4974985,
0.5543056,
-0.1060241,
-0.4661332,
-0.2728115,
0.3483290,
0.3881601,
-0.3966409,
-0.3222676,
0.0093284,
0.4203881,
0.3696023,
-0.6492452,
-0.2712475,
0.3348146,
-0.3420432,
-0.8028893,
0.1327723,
-0.4460599,
-0.1373173,
-0.4363957,
-0.0388905,
-0.1919942,
0.0952617,
-0.0611580,
0.3131447,
0.0497568,
0.3667736,
0.4406204,
0.1719943,
0.0156270,
-0.5406259,
-0.2723876,
0.4074286,
-0.0842329,
0.1976251,
0.2315523,
0.4371830,
0.5276340,
0.0843416,
0.3010300,
0.1357151,
-0.0308264,
0.3443905,
-0.4438761,
-0.2499621,
0.3700698,
-0.6040415,
0.6051961,
0.2305600,
-0.2289170,
0.1039397,
-0.0429514,
0.2628634,
-0.1504513,
0.2138794,
0.4465415,
-0.7171114,
-0.3198097,
0.4165194,
0.0837240,
0.1874832,
0.2757436,
0.1601149,
0.2748341,
-0.3539971,
-0.2779394,
-0.0407214,
0.4271110,
0.0555026,
-0.5047435,
-0.3450170,
-0.5273510,
0.2163944,
-0.6584477,
-0.2160996,
-0.4855023,
0.3555975,
-0.2694411,
-0.4439374,
0.2298984,
0.0392850,
-0.4276261,
-0.5971743,
-0.1392537,
0.2939933,
0.5714698,
0.1422774,
0.5203361,
-0.1121174,
-0.3759177,
-0.3188526,
-0.2667010,
-0.2884229,
0.2938463,
0.2606118,
-0.8166424,
-0.1137725,
-0.0249729,
0.3660368,
-0.7577493,
-0.2743365,
-0.1357404,
-0.1813430,
-0.1946490,
-0.1716599,
0.1208510,
0.2722785,
-0.1117572,
0.2420246,
0.0511742,
-0.3776218,
-0.1351062,
0.0050076,
-0.1206028,
-0.0656459,
-0.2779090,
-0.3280900,
0.2116133,
0.5499761,
-0.0066564,
0.2787220,
0.4506006,
0.0310072,
0.1672067,
0.5498746,
-0.2378435,
0.6597651,
-0.2601176,
0.4443958,
0.4949864,
-0.1095456,
-0.2906133,
-0.3442648,
0.0199749,
-0.0669920,
-0.1396492,
-0.1322302,
-0.5696440,
0.3145162,
-0.5419173,
0.0864188,
-0.4387075,
0.1668648,
-0.2161180,
-0.3888602,
0.1371348,
-0.1799221,
0.3359193,
-0.1808138,
-0.2446118,
-0.0831086,
-0.3973464,
-0.1002289,
0.0941823,
0.4520365,
-0.2953005,
-0.1223292,
0.2422437,
0.2248481,
-0.1246251,
0.3428460,
-0.3144298,
0.2594669,
0.1401901,
0.5396916,
0.1425557,
-0.4650223,
-0.1948911,
-0.0515038,
-0.3798347,
-0.5414689,
-0.4939501,
-0.2826932,
0.4157098,
-0.4435624,
0.1005380,
-0.2656286,
0.1591627,
-0.2273715,
-0.0240926,
0.5031549,
0.1325565,
0.2547641,
-0.3895912,
0.0534224,
-0.0235941,
-0.1070905,
0.4480598,
-0.1717942,
0.5697225,
0.0912222,
0.2873189,
-0.2766786,
-0.4702095,
-0.0131127,
0.6513879,
0.1698826,
0.3522704,
0.4856970,
-0.4297767,
-0.7806551,
-0.5015376,
-0.5104117,
-0.6125060,
0.7299226,
-0.2059316,
0.3311550,
0.0047969,
0.6540258,
-0.4866951,
0.5363455,
0.3570117,
-0.2776106,
0.1706175,
-0.7862705,
0.5046690,
-0.2578537,
-0.1941967,
0.5207140,
-0.1315258,
0.1860826,
-0.0423361,
0.0409475,
-0.1340839,
0.1414295,
-0.5602835,
-0.4522689,
-0.2698319,
0.5403353,
-0.2806816,
-0.2452000,
0.3907952,
-0.0755494,
-0.3807895,
-0.6922262,
-0.2800936,
-0.1688916,
0.3738633,
-0.0589908,
0.1994309,
0.6807670,
-0.0538950,
-0.3111459,
-0.0669197,
-0.2228562,
0.1459333,
0.2881284,
-0.0143551,
0.3758808,
-0.0501960,
0.4608889,
-0.0976991,
0.2972865,
-0.2373494,
0.3321402,
-0.4360433,
-0.0294085,
-0.8704987,
-0.4145792,
-0.3221522,
-0.2305269,
0.1379654,
-0.0367107,
-0.2125779,
-0.2585227,
-0.1472505,
-0.0845963,
-0.4832706,
-0.3267415,
-0.1526815,
0.1178679,
-0.3227279,
-0.0868451,
0.6705108,
-0.1440968,
0.6038595,
-0.0674694,
0.5521422,
-0.3571344,
0.0642609,
-0.4163398,
-0.1782039,
0.4667333,
0.2092257,
0.2477924,
-0.2287632,
0.4623583,
-0.6910957,
0.0171436,
-0.1539227,
-0.0660147,
0.3364363,
-0.3168421,
-0.5139753,
-0.3187113,
0.9337950,
0.3064348,
-0.3655639,
-0.3085581,
0.5246010,
0.1014926,
0.1858779,
0.4383780,
-0.5333956,
0.1946911,
-0.2681268,
-0.5380973,
-0.3630252,
-0.5243739,
0.1791815,
0.1698877,
-0.2452433,
0.0988258,
-0.4166655,
-0.4755465,
-0.6832600,
0.7295375,
-0.3986618,
-0.2917456,
-0.1470681,
0.0707247,
0.0847777,
-0.2845318,
0.4116244,
0.2662055,
0.1359029,
0.5498696,
0.1546184,
0.2789699,
0.7289385,
-0.5515907,
-0.2795710,
0.4106013,
-0.3940534,
0.3362422,
0.3277216,
0.1465179,
0.1119313,
-0.3559205,
-0.1706581,
-0.3249620,
0.3265204,
-0.6492997,
0.2863962,
-0.4289644,
-0.6605873,
0.7194429,
0.5857611,
0.0042613,
-0.2671127,
-0.3483382,
0.3791423,
0.3302918,
-0.3949114,
0.3953351,
0.1897363,
-0.0771111,
-0.1475488,
-0.2332758,
-0.0750677,
-0.3780309,
0.4877992,
0.0306793,
0.9314719,
0.4622462,
0.2063604,
-0.0036630,
0.0665162,
0.1811586,
0.0712567,
-0.3025847,
0.0397705,
0.1196754,
0.0658144,
-0.0506785,
0.1662503,
-0.2519880,
-0.3954645,
-0.3932211,
0.5342124,
-0.2315290,
0.1981497,
-0.1168750,
0.6890165,
-0.1468194,
-0.3567625,
-0.1686483,
0.0359089,
0.5782555,
0.7079670,
0.3528073,
-0.2273159,
-0.0595846,
0.7221305,
-0.3105388,
0.3852872,
0.2313464,
-0.3275666,
-0.3865533,
0.1338498,
0.1163261,
-0.0819407,
0.7420762,
-0.5836767,
-0.1818898,
-0.6136868,
0.5490144,
0.1473338,
0.0187312,
-0.4762766,
0.0992723,
0.2224903,
0.2717156,
-0.2437069,
0.1799002,
-0.7019903,
0.4080022,
-0.2394316,
-0.0363807,
-0.1495927,
-0.1872728,
0.2677336,
-0.1544150,
0.1580824,
0.4698656,
0.2247666,
-0.7527924,
0.0236591,
1.0574983,
-0.1146132,
-0.3570232,
-0.0189525,
0.0998073,
-0.1496966,
0.5557637,
-0.5135736,
-0.4418603,
-0.0056254,
-0.2333617,
0.3527764,
-0.0057775,
0.4960368,
-0.6827780,
-0.3223382,
0.0467222,
0.4390173,
0.3523707,
-0.6889985,
0.8027636,
-0.5537456,
-0.1767999,
-0.4363935,
0.1801562,
0.6410689,
0.1038902,
0.0542365,
