-0.5777878,
0.9708515,
0.1580679,
0.3645031,
0.9324611,
0.6022388,
-1.0003143,
0.2024316,
0.1912772,
-0.8307724,
0.0519096,
0.3997076,
0.7505061,
-0.9433051,
-1.3510560,
-0.6003375,
-0.9358114,
0.0048376,
0.3949853,
-1.5227756,
-0.4520477,
-0.2729629,
-0.8774242,
0.5102028,
-0.1918384,
0.9345732,
0.3507511,
-0.2409550,
2.2017073,
1.0904649,
0.2811661,
0.8816522,
0.9461174,
-1.2456958,
-0.2489043,
0.3266119,
-0.9264600,
-0.1662130,
-1.3281838,
-0.7575232,
-0.9820260,
0.2500556,
-0.9478035,
0.8918706,
0.3890342,
-0.6080197,
-0.7139754,
-1.5921277,
-1.3520754,
0.5867626,
-1.0400297,
0.2602816,
-0.7547100,
-1.0225146,
0.1925749,
0.1290475,
-1.0850317,
-0.2542868,
1.4682322,
-1.0378320,
-0.0250051,
-0.5088357,
1.0525575,
-0.1160490,
0.5835157,
-1.7372349,
-0.2977612,
0.7756013,
1.0453576,
0.2645739,
-1.1399012,
0.8539354,
0.5841255,
0.2418492,
-0.0872668,
0.2927792,
-0.2791873,
0.3092367,
0.1968985,
-0.0461010,
-0.0851434,
-0.6293148,
-1.1430505,
0.0531861,
0.9990717,
-0.5765045,
1.0115224,
-1.7056882,
-0.0712071,
0.6504931,
-0.7809477,
-0.4541076,
-1.7085556,
-1.6599663,
-1.0563987,
-0.1642625,
-2.2415269,
1.1621585,
-0.2637028,
-1.4520361,
0.1572617,
-0.1851168,
0.2851013,
0.5411010,
0.7006106,
1.1079907,
-0.3017554,
-1.5397618,
0.5111298,
-0.1882332,
0.3889549,
-0.5421155,
0.9657052,
-0.3500762,
0.7135800,
-0.9925383,
-0.7397029,
0.2543878,
-0.1750038,
-0.6981710,
-1.2643379,
-0.1337830,
-0.3331686,
1.0151899,
1.0798735,
0.6745034,
-0.0449639,
0.4567082,
-0.3865675,
1.0212370,
-2.3232148,
-0.5425839,
-0.3205774,
-1.3164012,
1.1612500,
-0.9604844,
1.5647784,
0.5148816,
-1.2031569,
0.6506668,
1.1565264,
0.7808683,
-0.3934162,
-0.1576434,
-0.6376057,
-0.3766879,
0.9190036,
-0.0443983,
0.3356928,
-0.3755028,
-0.0663574,
-1.8603398,
-0.0973449,
0.9018191,
0.4917661,
-0.0810965,
1.0165977,
-0.4556803,
-0.7131513,
-0.5943186,
0.5783617,
-0.9127808,
0.8026362,
0.0312430,
0.7769078,
0.3203051,
0.2884795,
-0.5475233,
-0.6611783,
0.9087127,
1.0072026,
1.0863283,
1.0321917,
-0.8809374,
0.7093439,
0.4732395,
0.1704278,
-1.0771778,
0.1073226,
-0.1164441,
0.7162853,
-1.6358027,
-0.4302496,
-0.8154774,
1.0688621,
-0.9532927,
0.3679293,
-0.2008045,
0.1892598,
0.7565397,
0.4000683,
0.2640142,
-0.7316921,
1.1207778,
0.0289975,
0.6859004,
0.3757469,
-0.7859826,
-0.5953591,
-0.3363914,
-0.6409570,
-0.7037477,
0.1367266,
1.2663318,
0.7257075,
0.6072009,
0.2255813,
0.1274806,
0.0869091,
-0.9870255,
-1.4081210,
-0.0831348,
-0.6373586,
-0.2086205,
-0.0456164,
-1.3129202,
-1.3299248,
-0.4312547,
0.0620139,
0.5376030,
1.7327056,
-1.9637017,
-0.0129209,
-0.5905162,
0.6228309,
-1.5707675,
-1.1432063,
0.1093646,
-0.1017021,
0.1770592,
0.0301322,
0.1005650,
1.1862710,
-1.1019395,
-0.2586533,
-0.3412441,
-0.8957939,
-0.2441909,
-1.2704118,
-2.4008529,
-0.4990475,
-0.2148450,
-0.4364257,
0.7885698,
0.5830321,
-2.0527558,
-0.4316394,
-0.5403887,
-1.4519189,
1.8675073,
0.4566103,
-0.4722821,
0.0694195,
-0.6409637,
0.2496295,
0.5161964,
0.2363967,
-0.5566611,
-1.3049802,
-0.6957460,
-1.1779028,
-0.2581771,
0.8460205,
1.1298363,
-2.3227385,
0.0709618,
0.7494241,
-1.0628511,
0.1988255,
0.5568558,
-0.3618393,
0.2557146,
0.5881365,
-0.3282459,
-0.1943790,
-0.9424456,
-0.4056702,
-0.3961025,
-0.1550712,
0.0951322,
-0.4709138,
0.4956382,
0.1894749,
-1.4388993,
-1.8503866,
-2.3569785,
0.3112931,
1.9529366,
1.3676011,
0.7056023,
-0.5999355,
-1.7280883,
0.2212735,
-0.7963133,
-0.8642148,
1.6374803,
-1.2908324,
-0.1237082,
-0.8592254,
0.0446752,
0.4397544,
1.1038503,
1.0427147,
0.3368574,
-1.7786789,
-1.0654782,
-1.6128275,
-0.5864476,
-1.2066149,
-0.5595127,
0.2513940,
0.1674914,
0.4885229,
-0.7757194,
0.9090457,
-0.9298622,
0.5053129,
-1.5563580,
0.8082914,
0.1442002,
1.0646510,
-1.3749393,
0.1381894,
-1.3879913,
-0.7146081,
0.9468198,
1.7295140,
1.1338083,
-0.8702031,
-1.4753676,
0.5285015,
-2.0282304,
-0.7978030,
-0.7717834,
0.1381687,
-1.1077574,
-0.0787394,
1.8493256,
0.4756897,
0.4075218,
0.8228237,
-0.2715367,
-0.0054278,
-0.3209566,
1.7684092,
0.0391500,
0.3918475,
-0.3821527,
-1.5362783,
1.1599459,
-0.7227875,
-0.1404636,
1.9034134,
2.0265493,
0.0605319,
-2.1376074,
-0.2596094,
0.7514251,
-0.2826632,
0.6961583,
-1.1348904,
-1.9867333,
1.1886102,
0.4405240,
-1.2906741,
-0.7903176,
0.5881666,
0.9912075,
-0.9953205,
-0.0508002,
1.5404726,
-0.0554612,
2.1922790,
-1.5878684,
-0.2242684,
0.0949785,
0.2339772,
0.7839514,
-0.1998743,
-1.0789024,
-0.3467974,
0.4129597,
0.8898994,
-0.3030677,
-0.9375490,
0.6699454,
-0.7229925,
1.1284393,
0.2853748,
1.0549903,
-1.6585143,
1.2158155,
-0.6972806,
0.5681112,
-0.2694408,
-0.1975107,
0.9426113,
-0.8059337,
0.3931520,
0.2142477,
0.5925950,
0.3630281,
1.6521224,
0.8061081,
0.2386196,
-0.6361452,
-0.5852614,
0.1360441,
-0.8844667,
0.5276788,
0.3226736,
0.3135707,
-1.2412055,
1.4108303,
-2.8616121,
-1.2520607,
0.0008422,
-2.4446708,
0.5894978,
-0.0182032,
-2.0215784,
-1.1636328,
-1.1319000,
-2.3120381,
2.4411202,
0.8165545,
2.0472839,
-0.8002080,
-1.5542759,
-0.4864563,
-0.3734862,
1.7270399,
0.7144017,
-0.1235198,
-0.7231931,
0.5587468,
0.8928598,
1.5222791,
0.1870892,
-2.2021067,
-0.2759195,
-0.2713891,
-0.0315424,
1.7800491,
-0.6986275,
-0.6170295,
0.5108577,
0.4615789,
-0.7338526,
0.0021524,
-0.3754497,
-0.5761075,
1.2841450,
1.1030617,
-1.2116618,
0.9887163,
-0.7018103,
-0.8075063,
-1.5814096,
-1.1338856,
1.1350513,
0.3949408,
-0.2275374,
-0.0388654,
1.3645286,
-0.8301806,
0.5480963,
-0.1031823,
0.8238144,
-0.3122599,
-0.9170538,
-0.1213315,
1.4180163,
-2.0449339,
-1.3939779,
-0.1783753,
-1.3214782,
1.1881806,
-1.4794077,
-1.3682963,
0.4881410,
-1.1335163,
-0.6164109,
0.7755090,
0.2276943,
-0.8752835,
-0.8888092,
-0.3454441,
-0.2457253,
-1.6232869,
-0.8661103,
-1.1188985,
0.9881391,
0.1065136,
-0.3426784,
1.5307500,
0.9558608,
-0.2146543,
-1.7647647,
-0.8147097,
-1.4224512,
0.3295740,
0.0130846,
0.2112615,
-0.2585357,
0.9059104,
-0.3399357,
0.4646982,
-0.2503583,
-2.2618496,
-0.8776527,
-0.0472437,
-0.1759105,
1.8458714,
2.1956977,
-0.8016683,
-0.1719615,
-0.7299556,
0.2151860,
-1.5625154,
0.1591315,
1.4079870,
-1.2917909,
-0.3717350,
-0.3666931,
-0.3203079,
-2.9163198,
0.1754180,
0.0278036,
-1.1566118,
-0.6317244,
1.0533521,
-0.3876316,
-0.5936061,
0.0714924,
0.5109672,
-2.0573473,
0.8971533,
-0.4181640,
-0.1364435,
1.9939467,
0.2895453,
0.2468460,
-0.3107502,
0.8957283,
0.4033256,
-0.9547627,
0.1147020,
0.6987032,
1.0205933,
0.4697901,
-0.9124445,
2.3262739,
1.8101940,
-0.7992537,
-1.1414112,
-0.7244888,
-0.8890665,
0.0064435,
0.0246773,
-0.5000242,
1.3762259,
-0.8568460,
0.6523546,
-1.2685985,
-2.1698696,
-0.3276364,
-0.7987136,
-0.4476199,
-0.0782179,
0.8600012,
0.8780995,
-0.2951028,
0.1151812,
-1.9346510,
-0.0317802,
1.2137726,
1.2409522,
-0.3301704,
-2.0971554,
-1.4343490,
-1.7215420,
-1.2588565,
-1.1317846,
0.3955868,
0.9266112,
0.0929300,
-1.2088293,
-1.1454432,
-1.2238072,
-0.1733574,
0.8514703,
-0.3312287,
-1.0677803,
0.5576687,
0.4189452,
-1.1142412,
-0.0813412,
1.1424595,
1.0763191,
-1.1225731,
1.2718313,
1.0162443,
0.0388630,
0.7394570,
0.5749169,
-1.6107811,
1.6183749,
-0.2873773,
-0.5607673,
-0.8173522,
0.0986881,
-0.4635529,
-0.6677887,
1.1166255,
-0.5117716,
1.3901849,
0.3204793,
0.0252200,
-0.8891731,
0.0979456,
-0.4130344,
-0.7733115,
0.2927710,
-1.0704268,
-0.5773889,
0.6405538,
-0.6440806,
-2.2135426,
-1.4677684,
-0.6524109,
-0.7774847,
-0.6610295,
0.1158989,
0.1024567,
-1.0651505,
-0.3710952,
0.5269086,
-0.2396829,
-0.3512573,
0.2484882,
0.4998196,
0.3151814,
-0.3281054,
1.0831370,
-0.0027011,
1.8880261,
0.8351503,
0.1166546,
-0.3981430,
1.6926676,
-0.7068652,
-0.8290184,
-0.2469113,
1.4342290,
-0.1192310,
1.3903458,
0.7680043,
0.1538896,
0.1096228,
-0.7974648,
-0.7072615,
0.9418322,
-0.7984302,
1.3988849,
-0.4371226,
-0.3142120,
0.4446312,
0.0935035,
0.0343963,
1.5755911,
-0.5063279,
-0.9746251,
1.1532013,
0.8728646,
-0.5015286,
1.0837415,
0.0781144,
-2.2803026,
-2.2319767,
-1.3898610,
-2.9653535,
-3.0399975,
0.3344895,
-0.6405684,
-0.8514180,
-0.4664627,
-1.6494734,
1.8867607,
-1.6176130,
2.0634298,
0.5661713,
0.0465170,
0.4557976,
-0.0786734,
0.9642555,
-1.1154063,
-0.1680925,
-1.0038686,
-1.5541493,
-1.7201563,
1.4334749,
0.8780979,
0.3019811,
0.0913221,
0.7974824,
-0.1867970,
-0.8758382,
0.6464610,
-0.2566541,
-0.4226743,
1.7163255,
-1.8643492,
0.5039493,
1.3773482,
0.9702976,
-1.8168459,
-0.5944208,
-0.7905245,
-1.5161532,
0.4457015,
-1.5565347,
-0.0647181,
-0.3165692,
0.8631602,
-0.4614484,
0.6999233,
2.3041288,
-1.5408125,
0.9313007,
-0.1925997,
0.0540845,
1.1279767,
0.2342654,
-1.5529124,
-1.1913009,
1.9758349,
-0.8631255,
0.5390986,
-0.0190048,
-0.0871856,
-0.5865778,
0.2287431,
-0.8464104,
0.6254148,
-1.9769846,
0.9673418,
1.7224853,
-0.6920869,
-1.1882324,
1.4313392,
-0.7468190,
-1.3669693,
-0.0722396,
-0.1610675,
1.2292254,
-1.0275748,
0.3291278,
1.0048754,
-0.6055135,
0.1701741,
-0.8462158,
0.1904792,
-0.7611421,
-0.5998209,
1.2837943,
-0.1051432,
-0.0784777,
-0.0270234,
-1.1268443,
1.5729988,
-1.1176931,
0.0985370,
-0.0012369,
-0.3252138,
-0.8470546,
1.2495776,
-1.3001172,
-1.3468778,
-0.2065606,
-0.2080495,
-1.4524973,
-0.7784235,
-0.4314740,
-1.5367726,
-0.7026858,
-0.7995683,
-0.1918924,
-0.5670023,
-0.6805531,
0.2238830,
-1.0018063,
0.1948980,
-1.1818268,
-0.0521031,
1.2987064,
-2.1414037,
-0.3740594,
-1.3803316,
-0.2386684,
-0.0071388,
-1.3599632,
0.7453831,
-0.6359218,
0.1746107,
-0.8120466,
1.6211624,
-0.2257588,
0.1235521,
-1.7489663,
-0.6414559,
1.1349743,
-0.3059845,
-0.1489879,
-0.2091740,
0.6560471,
-2.2369501,
0.4518396,
0.9223696,
-0.4392858,
0.4739913,
1.5055539,
-0.0273998,
-1.0621506,
1.5079179,
0.8474605,
0.9517749,
-0.6741638,
-0.1083703,
-0.5012233,
-0.6622543,
-0.4221505,
-0.4936281,
1.9010071,
-0.0854355,
-0.3059296,
-1.2796379,
-1.6761082,
0.2986992,
0.3817351,
-0.2925203,
1.8729182,
-0.3105177,
1.8278957,
0.1379668,
-0.8952126,
-0.6330928,
-0.0297924,
0.5083514,
-0.3643233,
0.2948757,
0.0471610,
-0.4658984,
-0.5868882,
-0.7337471,
-1.1560769,
-1.4550331,
-0.7556111,
-0.3600441,
-0.9684440,
1.1830998,
0.9245904,
0.1673548,
-0.0745615,
1.0471347,
1.3351632,
-0.5023641,
-0.5247942,
-0.6301851,
0.1184240,
0.4317849,
-0.3459927,
0.5939861,
1.6403389,
-0.1584715,
-1.3509657,
1.0324011,
0.6884792,
0.5949305,
-0.7561247,
1.9178018,
-0.3285040,
-1.5345708,
-0.5226076,
0.5551063,
0.7641157,
-0.7692422,
-0.8148822,
-0.7164335,
1.2113344,
-0.0136705,
-0.4545419,
1.3653809,
0.4787760,
-0.7346030,
-0.0753194,
0.3384186,
0.2796722,
-0.8831401,
-1.8516038,
0.3165704,
-0.9486883,
0.6599407,
-1.0281702,
1.7814258,
0.2175746,
-1.0970413,
0.4519368,
-1.1158173,
-0.8969661,
-0.3607280,
-0.7341804,
0.0165306,
-0.4866614,
0.0049599,
0.0216041,
-0.3761244,
-0.2926478,
0.4050292,
-1.3129296,
0.0657432,
-1.3436635,
0.1078009,
-1.5414539,
1.5751792,
1.1838665,
-0.5872155,
0.9349970,
-0.9045568,
1.0511952,
0.5976490,
0.2603659,
-0.7223378,
0.9858983,
1.3469904,
-0.1916095,
1.4580268,
0.9903664,
-0.6369927,
1.1965498,
-0.5134791,
0.0703322,
1.0664847,
-0.4558988,
1.5097125,
1.0496886,
0.5060023,
-1.5564172,
-1.2126955,
-1.1500218,
-0.1365879,
-1.1464815,
-0.3134806,
-1.8638897,
-1.4736539,
-0.8741960,
0.0338488,
1.7995962,
0.3595718,
0.3967998,
1.2957679,
0.4158724,
0.1002241,
-0.7897347,
-0.7409264,
-0.3645173,
0.3489778,
1.6760855,
0.4200192,
-1.4142001,
1.7153693,
-0.7190740,
0.5833950,
1.8902573,
-0.1815075,
0.4742423,
-1.0842101,
-0.3903497,
-2.0783015,
-0.1162510,
-0.9430114,
-0.3549305,
0.8766945,
0.4932786,
0.3779631,
-1.2094938,
-0.0608562,
-0.7891101,
-1.6624214,
0.9555523,
1.5855757,
1.4496152,
-1.7307036,
1.7225762,
0.4752136,
0.2874040,
-0.6625114,
-1.1672612,
0.0691865,
-1.4804863,
-0.6372291,
0.3140259,
1.0963711,
-0.0044246,
-1.4582384,
-0.6962716,
-0.2489638,
0.6805778,
0.3534961,
-0.6715487,
0.6331524,
0.7808847,
0.7543031,
1.0332158,
-1.6710090,
0.2143873,
0.6545524,
-1.5294626,
-0.4394951,
1.5841486,
-1.4228402,
-2.1140137,
0.0623268,
-0.1376493,
0.6766587,
0.5513340,
1.4757498,
0.9875791,
0.2225905,
-0.4991701,
-0.3307355,
-1.3814783,
-0.3830693,
-0.5324720,
-0.0747339,
1.3550920,
-0.7816415,
-0.2462241,
-1.2771308,
-0.1764133,
-0.2604274,
-0.7496878,
-0.4719260,
-1.3109382,
-0.8795774,
0.2182456,
-0.2225881,
1.7250137,
-1.3658660,
-0.7809507,
0.3235813,
-1.0236464,
-1.4708996,
0.2403626,
1.0915873,
-0.5012315,
-2.3437599,
-0.2812797,
-0.1736366,
0.2730822,
0.6164712,
-0.6134371,
2.5304691,
0.2327582,
-2.0290607,
0.5678419,
-2.7885166,
1.3884786,
-0.6042098,
-0.1025565,
0.0751224,
1.5338150,
2.1414051,
-0.5541420,
-0.6415258,
0.3667298,
-1.5300743,
-1.3491727,
0.3874095,
-0.3112660,
-0.3343654,
0.8288131,
-0.4731571,
-0.4041597,
-0.9531505,
-0.9703179,
-0.0752174,
-0.1434951,
-1.1789708,
-2.2422588,
-0.4703362,
0.8248072,
-0.7165201,
-1.2338413,
-2.4405264,
-3.0069439,
0.7623511,
-1.4468960,
-2.2006223,
0.2201851,
0.1169063,
-0.2410068,
-0.3017850,
1.9843578,
-1.8560704,
1.5178865,
1.1623834,
-0.2110780,
-1.1228161,
-0.2245563,
0.0649539,
0.5211792,
-0.4470291,
0.4809654,
-0.1299809,
0.4151897,
-1.4025503,
-0.3945988,
-1.7452694,
-2.4899875,
-0.2645821,
-1.7073524,
0.2300528,
1.1920931,
-0.6111423,
-0.6494357,
0.6664737,
0.9632994,
-0.7512048,
2.5582513,
-0.1932889,
-0.5036267,
1.1890305,
-0.3220803,
-0.6569165,
1.8212531,
-1.2488055,
0.0125572,
-2.5559568,
-1.2812827,
-0.1644990,
1.6007214,
-0.4505343,
-0.8175861,
0.6877705,
-2.0302533,
0.3163754,
0.1932462,
-0.5458060,
1.6527125,
-0.9821687,
0.0863927,
-0.8481492,
-2.4454201,
-2.4521076,
0.3630272,
-1.0066192,
-1.1172141,
-0.3883066,
0.4889767,
0.0517722,
-1.2418954,
0.6835540,
-1.7688496,
0.6290392,
0.2234792,
2.1697947,
-0.3287871,
-0.2863628,
-1.4493680,
0.2635102,
-1.0886061,
-0.6890469,
-0.2918501,
-0.4339565,
-0.1724886,
1.0872444,
-2.2323296,
0.1704425,
1.1051134,
1.0825398,
0.5236989,
0.1118903,
-0.5884798,
0.1570517,
1.9645554,
-0.1364523,
-0.0426622,
-2.3393866,
-1.0648656,
-0.2987307,
0.2996087,
-2.4228338,
1.0814769,
1.7487864,
-1.2669804,
-0.5218422,
0.5498878,
-1.2973125,
-1.2765724,
0.1700862,
0.3987974,
-0.2953753,
1.8268951,
0.7134713,
-0.4130238,
0.1641175,
1.1636378,
0.2731946,
-0.3127305,
1.1092801,
-0.5024904,
0.5479366,
-0.5544461,
0.3490074,
0.1017190,
-2.5733136,
-1.3265402,
-0.1123654,
1.6260713,
-0.4390359,
1.7113794,
-0.6544642,
-2.1047300,
0.4718953,
1.3396790,
-2.3783492,
0.8717694,
-0.6561112,
-2.5801264,
-0.7608793,
-1.9328968,
1.7976567,
-0.5978682,
-0.3576711,
-0.3689634,
0.6892284,
-0.0199615,
-2.1941991,
-1.6107905,
-1.9622196,
0.8775685,
0.8408166,
-0.6746968,
-1.1195635,
0.0471079,
1.6071811,
1.4249312,
0.9580191,
-0.8276257,
-0.6931479,
-0.9168845,
0.0774950,
-0.1336886,
-0.1919286,
0.5872413,
0.6160708,
-0.1898544,
-1.7850254,
0.8493727,
0.4489431,
-0.5391494,
-1.4500338,
0.2029334,
-0.0136188,
-0.6984164,
-0.4795391,
-0.1463663,
-1.4524302,
0.8575757,
0.6763836,
-0.6498482,
0.4846841,
-0.2956395,
-0.3356691,
-0.8078110,
-0.4578757,
2.3146169,
-0.0272183,
-0.2279175,
