0.3401877,-0.1056171,0.2830992,0.2984400,0.4116474,-0.3024486,-0.1647772,0.2682296,-0.2222253,0.0539700,-0.0226029,0.1288709,-0.1352022,0.0134568,0.4522596,0.4161963,0.1357117,0.2172969,-0.3583974,0.1069689,-0.4836994,-0.2571132,-0.3627684,0.3041768,-0.3433209,-0.0990556,-0.3702096,-0.3911912,0.4989245,-0.2817431,0.0129324,0.3391122,0.1126442,-0.2039554,0.1375942,0.0244398,-0.0055403,0.4735151,-0.2057944,0.2740021,0.0284163,0.2711925,-0.0979347,0.3946277,-0.2083668,-0.1465254,0.3078270,0.4204044,-0.4293235,0.4494443,0.0262347,-0.4138216,-0.3077862,0.1632269,0.3902326,-0.1511071,-0.4358287,-0.4799770,-0.0422973,-0.4368867,-0.2616755,0.4706509,0.4022619,0.3518850,-0.2311221,0.0418159,-0.1173447,0.2723508,0.0214826,0.1805228,0.0509308,-0.4308032,-0.0357398,0.4385743,0.4328173,0.2195872,-0.2181519,0.2355207,0.1387339,-0.1463819,0.1878645,-0.3339382,-0.0598955,0.3800752,0.3292011,-0.1696629,-0.2712097,0.3933742,-0.1499626,0.1868530,0.4574043,0.0912321,0.1658739,0.3752985,-0.0317142,0.4705722,-0.0584697,0.3751759,0.2624135,0.4775833,0.0542145,-0.2362691,0.4762763,0.4247210,-0.3535853,0.3723581,0.1315522,-0.0688885,0.1232163,-0.2171075,0.2890497,-0.1925421,-0.0529664,-0.2738899,-0.3131075,-0.2241013,0.0556693,-0.0860156,-0.3284157,0.4143975,-0.3788836,-0.3340937,0.0662875,0.3594390,0.5966605,0.5655514,0.3222201,-0.0262489,0.3127131,-0.0402940,-0.1220414,-0.2953762,0.0042863,-0.3237353,-0.3894319,0.2220649,-0.3536611,0.3048555,-0.3365653,0.2451533,-0.4254702,0.4501040,-0.4476434,0.0220766,-0.3221285,-0.2579675,0.3213951,0.2726739,0.2072377,0.5241452,0.2414824,0.4187819,-0.1916553,-0.1428448,0.2052251,-0.1994490,-0.0708818,-0.0132145,0.0590303,0.2840573,0.0029396,0.1831278,-0.4636822,-0.3353991,0.5005636,-0.2893530,0.3926083,-0.3749776,0.4977990,-0.4459374,0.3705937,-0.4260246,-0.4834348,0.4536955,0.1503702,-0.2327130,-0.2514288,0.0007544,0.4692862,0.3792773,0.0366546,0.1468604,-0.0159965,-0.0524148,0.4019962,-0.2201298,0.0826137,0.2941635,-0.2334166,0.4233305,0.0669441,0.3965516,0.2721319,0.1478720,-0.4519103,0.2487324,0.3332391,0.4255306,0.3773716,0.3349863,0.5122334,0.3030784,0.4721257,0.5631610,0.2457433,0.0682762,-0.3312263,0.3500092,0.3359069,-0.4679807,0.0041416,-0.3843009,0.1304231,-0.1629434,0.2243434,-0.2067690,-0.2604416,-0.3685912,-0.4630217,0.1691023,-0.1998537,0.2073872,0.0286649,0.4729819,-0.2185560,0.0476697,0.2277216,-0.3673627,0.0270215,0.1763509,0.5083601,-0.0033607,-0.1208412,0.4038819,0.0147783,-0.4403767,-0.0581124,0.1606255,0.2373368,-0.4465879,-0.0275868,-0.0064043,0.0225723,-0.1349914,0.2105872,-0.3757616,0.0875150,-0.3785631,0.0110265,0.2499923,0.1893501,0.1379510,-0.1527979,-0.3134472,0.1171793,0.1451781,0.3067525,-0.0675130,0.3047163,-0.2779984,0.4278801,0.2379121,0.1943283,-0.1595108,0.1855658,-0.3487367,-0.3081884,0.1262364,-0.0373858,-0.3724657,-0.2525063,-0.1058177,-0.0003786,0.0496927,0.1437781,-0.1159128,0.3508027,-0.1665666,-0.1586722,-0.3091222,0.4845229,-0.4943296,0.3350869,-0.1476932,-0.2370964,0.0314171,0.4867555,0.3733299,0.2098065,0.3382791,-0.2588636,0.2522868,0.0400133,0.3456550,0.3498435,0.2291709,0.1380450,-0.2346124,0.3437572,0.0257966,-0.3257239,0.3421145,0.3997797,0.4348170,0.0504031,0.1034699,-0.3273337,-0.2260960,0.3647075,-0.0038207,-0.0236629,0.3616196,0.0328294,-0.1810708,-0.3464017,0.0804594,0.1387221,-0.2272494,0.1528386,0.0278379,0.4830661,0.2940182,-0.4495906,-0.5387645,-0.2767280,-0.4366843,-0.4006778,-0.2709922,-0.3923896,0.2989856,0.3691149,0.1333484,0.3559794,0.3298175,-0.0004287,-0.1649138,-0.1054036,0.1609841,0.1196192,-0.2428207,-0.3745094,-0.4680819,-0.4582866,0.0458376,-0.1233731,-0.1207620,-0.1205068,-0.2913869,0.0972436,0.5216858,-0.0479451,-0.4595656,0.0057067,0.1627059,-0.0749809,-0.5680909,0.1758703,0.0396882,0.0153482,-0.2678486,0.0999708,-0.0546709,0.3343774,-0.1054409,-0.2556601,-0.1730227,0.2341016,0.1256732,0.4200818,-0.2128202,0.3758833,-0.3990088,-0.0075675,-0.3415600,0.3521686,0.4648962,0.0080157,-0.3245750,0.1750995,0.0740389,-0.4903052,-0.0828941,0.4348678,0.0273432,-0.3818496,0.0016744,0.4615882,-0.2844417,-0.3095814,-0.0804707,-0.1861423,0.1570784,0.3092387,-0.3690888,-0.4457074,-0.4585550,-0.0696153,0.2865590,0.1981890,-0.0280335,-0.2251599,0.3017915,0.2085973,0.2382585,0.2669073,-0.1146941,-0.3024611,0.3161458,-0.0250318,-0.2958524,0.0743911,-0.0262393,0.1405556,0.2151102,-0.1454786,0.4455708,-0.3292552,-0.3610421,0.4418577,-0.3303132,-0.0182196,-0.2762029,0.3308936,-0.1986413,-0.1342396,0.4526508,-0.0854006,0.3561426,0.2959274,-0.2030450,-0.1659000,0.2360851,0.0519043,0.2182677,-0.2608411,-0.2822559,-0.2751306,0.1255555,-0.3932091,0.1776863,0.3701074,0.3464604,-0.2082183,0.0026800,-0.0809874,-0.0077660,-0.2453218,-0.1111644,0.0328462,-0.3459147,0.0576022,-0.4651557,-0.0964393,-0.0200527,-0.0056452,0.3689922,-0.1891819,0.2389903,-0.0070505,0.2387747,-0.0140630,0.1199910,0.1769717,-0.0994918,0.1388112,-0.4788750,0.0505557,0.4661757,0.3173684,0.3210664,0.1771202,0.0577736,-0.0122194,0.2731371,0.3174061,0.1785321,-0.3471242,-0.4674841,-0.4303950,0.1985289,-0.2964666,0.2233101,0.4514274,0.2791087,-0.3638497,-0.4237873,-0.2260670,-0.3536198,-0.1078023,0.1015882,-0.2916146,-0.0703825,0.2206203,0.3346786,0.2003656,-0.0361067,0.5560798,-0.1516131,-0.1794296,0.1428412,0.4340824,0.2130854,0.4112589,-0.3063937,-0.1056339,0.2060623,0.3713218,0.0597456,0.2673044,0.5388466,-0.0341136,0.6721004,0.2242368,0.5012972,-0.0101192,-0.0791756,0.2801480,0.1783557,0.2822328,0.1194241,0.2143949,0.4156651,0.4786675,-0.0101078,0.5369485,0.2256829,0.2822123,0.3975686,0.3721141,0.3289378,-0.2368255,0.1042259,-0.0294367,-0.3324824,0.2951798,0.3709768,0.3913131,0.2457642,0.0736691,0.2674484,0.2461258,0.2943648,0.1440253,-0.3311219,0.0293341,-0.4822934,0.1830639,0.1535625,0.4853007,0.0587963,-0.2616149,0.1772697,0.1724130,-0.3303430,0.3950294,-0.0309008,0.1889336,-0.0312551,-0.3529911,-0.0876291,-0.2529675,-0.0920767,-0.4795927,0.2217488,0.0878988,0.3505229,0.1685854,0.0229958,0.0017704,0.6299971,-0.2289047,-0.2393718,0.1669082,0.0266037,-0.2596497,-0.0322264,0.3492768,0.5785946,0.4557299,0.1591831,0.0865711,0.4482801,0.4992797,0.4861208,0.4070650,0.2692961,-0.1657955,0.0367513,-0.2808682,-0.0224528,0.4520576,-0.0227286,0.3967561,0.4725301,-0.2940396,-0.0687371,0.2300700,0.3375995,0.5326924,-0.0746305,0.2208456,0.4492331,-0.0665438,0.1685903,0.3573217,0.2909845,0.4028027,-0.0757760,0.1181402,-0.0521999,0.2135541,0.4429133,-0.2882378,0.1060482,0.3697074,-0.3902222,-0.1264483,-0.3010041,0.1522897,0.1047074,0.1810349,0.0660836,-0.4900657,-0.0204312,-0.0281419,-0.2635950,-0.4007990,-0.0512737,-0.4578958,0.5421494,0.2629922,0.6194407,0.7554813,0.7087286,-0.0417177,0.1822477,0.1491322,0.4112910,0.2204047,0.4870047,-0.3378735,-0.2019983,0.3828428,-0.1339718,0.3994313,0.2476378,-0.0197440,-0.2190283,0.4254597,-0.4501507,0.2641610,0.0018924,0.0846216,0.3504599,-0.3519624,-0.2006825,-0.2855320,-0.1513921,0.3864133,0.1082432,0.0367598,-0.0169783,0.6454098,-0.3141325,-0.2311594,-0.3218882,-0.0186107,0.1480610,0.4172254,-0.3951542,0.1127183,-0.4294430,-0.1062539,-0.0035690,-0.0608950,-0.2068482,-0.2860145,0.3125964,-0.0539821,-0.3878066,-0.4961199,-0.0302433,0.3545804,0.3272247,-0.0015597,0.7216309,-0.1633178,0.3217859,-0.0133948,0.2502586,0.1744728,-0.1757580,0.3491835,0.0886903,-0.1842973,-0.4609853,0.2728227,0.3100073,0.2005366,0.1819217,0.4041871,-0.1870603,0.2526391,-0.2025775,0.2971587,-0.3608955,0.0433810,-0.4819901,-0.4284181,-0.3462571,-0.2062953,-0.3346868,0.0654887,-0.4087097,0.4114309,0.4402221,-0.4788849,0.2969349,-0.1995456,-0.3882114,-0.0601110,-0.4317857,0.0560490,-0.0296019,0.3145909,0.4276457,0.0284751,0.0822501,0.2293977,-0.2747644,-0.2358281,0.1334613,0.0321046,-0.4982635,0.4050402,-0.1971171,-0.3720831,-0.0836373,-0.1758265,-0.2685781,0.0689920,0.0491762,-0.1579008,-0.2918818,0.1258450,-0.2767556,-0.3920492,0.1936432,-0.3080671,0.1380330,-0.4941615,0.3436667,0.3523803,0.1007578,-0.1785225,0.1679602,0.0268302,0.3480001,-0.2497897,-0.2437721,-0.4267596,0.0144138,0.3881983,0.1021848,0.0224842,0.3189159,0.4520639,0.2287346,-0.1695045,-0.1426444,-0.4747351,-0.4807859,-0.4934320,-0.0142961,-0.2197379,0.2007289,0.3144609,0.0001773,-0.0393239,-0.4218831,-0.3090165,-0.0163516,0.4233808,-0.4566053,
-0.4155890,-0.2551417,0.2113549,0.1112412,-0.4071416,0.4615652,0.3674691,-0.3339059,-0.0240526,0.2572818,0.2775050,-0.4930199,0.0786052,0.2364378,0.2437184,0.4225717,-0.4035959,0.2876424,0.4464352,-0.3985197,-0.2251035,-0.2606792,0.3097428,-0.4049573,0.2467303,-0.2227864,-0.3266994,0.4377139,0.2608620,-0.4033186,0.4811086,0.3452730,-0.1584604,0.1924631,-0.0434874,-0.0656098,0.1532919,-0.1762897,0.1003962,-0.3700820,-0.4203125,-0.1241368,-0.3599032,0.1678047,-0.3851201,0.3805727,0.0824324,-0.2895018,0.1680133,0.0288720,-0.1876585,0.4432208,0.2682056,-0.3779138,-0.4617352,0.0149360,-0.1007001,-0.2884345,-0.0473497,-0.3398564,-0.1917466,-0.0662318,-0.4945981,0.1490032,-0.3806171,-0.0545789,-0.4338288,0.2582137,0.2700288,0.1636813,0.3782104,0.3508648,-0.4456483,-0.4642469,0.0183786,-0.3212006,0.4261578,-0.3979971,-0.1162445,0.0959732,0.1387720,0.2002774,0.0394134,-0.0933849,0.3224259,0.0776783,0.4219629,-0.2782667,0.2905866,-0.1248671,-0.1190189,-0.4061707,0.2952429,-0.1578539,0.1672887,0.3297736,0.2735989,0.1862171,0.0760313,0.0511453,-0.0661860,0.0490412,-0.0375376,0.0622670,0.1791483,-0.4737203,0.2491271,0.0830450,-0.3790127,-0.3593623,-0.3059423,0.2774102,0.3442812,0.2353258,-0.3145809,0.1693657,-0.1714376,-0.3591275,0.4178413,-0.3658138,0.0176144,-0.2011824,-0.2232266,-0.1414062,0.2264039,0.4176336,-0.2767221,0.0281835,0.2457539,0.3358975,-0.3053940,-0.1600936,-0.0155110,0.1004490,0.3444762,-0.2836465,0.1943151,0.1347186,0.3304269,0.3119250,0.2733009,-0.4715475,0.0906128,0.1220700,0.2955944,0.3681412,-0.1218436,-0.3626322,0.4427929,-0.1858682,-0.1619808,-0.0298642,-0.0328037,-0.0326758,0.2417825,-0.2768032,-0.0313867,0.3834343,0.1645092,-0.2608837,0.3435599,0.2005154,-0.1043110,-0.1117638,-0.0717396,-0.2142330,0.1059233,-0.4303116,0.4015486,-0.0677972,0.3856299,0.1971713,0.0439851,0.0864832,-0.1467436,-0.2708415,-0.1666610,0.2044436,-0.0948369,-0.2684407,0.2752168,0.0125509,-0.0189983,-0.3598794,0.4011365,-0.2386411,-0.0603861,-0.2408615,-0.4320280,0.3522152,-0.2574394,0.3407604,0.2268177,0.2482981,-0.2910826,-0.4503351,0.4597147,0.2753399,-0.3851018,0.3813653,-0.1936721,0.6101187,0.1065019,0.1569945,-0.1007957,0.2860312,0.3292317,0.0985971,-0.1720423,-0.4788111,0.1423562,-0.3807658,0.1609909,-0.0820074,-0.1365758,0.0034497,-0.0959033,0.0866086,0.1586757,-0.0267781,0.1470133,-0.3772817,-0.1902484,-0.3053801,0.1933623,-0.0566793,-0.2617808,0.1732797,-0.1899683,-0.0667142,0.0323886,-0.1650485,-0.2739238,-0.5292163,-0.5856916,0.1942070,0.3586126,0.4166014,-0.1259360,-0.3138621,-0.3968463,-0.1269576,-0.0934400,0.2938558,0.2233711,0.3381923,-0.0728927,-0.2842487,0.1586836,-0.2167483,0.1299097,0.4700991,-0.3907748,0.3682978,-0.3367304,0.3307025,-0.1039946,-0.1029930,-0.1100736,-0.1196508,0.1194295,0.3838995,0.2337899,-0.4432295,-0.3824947,-0.4257000,0.3043128,0.3746958,-0.4251128,-0.0808389,-0.4645681,-0.4226188,0.3128426,0.2644504,-0.3081437,0.0663477,0.1575517,0.1537267,0.1307009,0.3389342,0.0633168,-0.2982630,0.3089598,0.2265578,-0.3658537,0.4326256,-0.1491842,-0.3284998,-0.3557767,0.2928984,0.3113721,-0.4440683,0.4412629,0.4089155,-0.2141105,0.5786829,0.4686914,-0.4052641,0.1902065,0.4097573,0.0822965,-0.3900205,-0.3010109,-0.2342811,0.2511587,-0.0927047,0.2695549,-0.4631543,0.2218294,-0.1498421,0.3750122,-0.1723253,0.0983969,0.0928992,0.2707824,-0.1622664,-0.1580006,-0.2236886,-0.5193740,0.4880374,-0.0073598,0.6509476,-0.0501451,0.0379329,0.4101875,-0.1246691,-0.2190442,0.2813803,-0.1106703,-0.5915231,-0.0494457,0.1790017,-0.5540561,0.4373314,-0.3144624,0.1392801,-0.3517499,0.4259728,0.1782666,0.3868684,-0.2136010,-0.0624517,-0.5843175,0.0175556,-0.5294923,-0.5035752,-0.0046699,0.4496537,0.2488496,0.1709503,0.6608935,0.6257348,-0.0115434,0.5355187,-0.0669423,-0.1259271,-0.2704835,-0.4065990,0.0623317,-0.1757080,-0.2964806,0.1112201,0.0222398,-0.1212677,0.0018358,0.1950699,-0.4792536,0.1539039,0.1103385,0.1006831,-0.2356894,0.0990626,-0.4297527,0.1144062,0.1750036,-0.0099336,0.4013509,-0.1791708,-0.0536147,-0.1296622,0.2053223,-0.0631860,0.1372989,-0.1775187,-0.3488861,-0.2473738,-0.5256487,-0.3622459,0.1415803,-0.3882483,-0.4903158,-0.3578581,0.2451674,0.0326900,0.0270013,-0.2573421,-0.2910373,-0.0977152,0.1329730,0.0537090,-0.4308857,-0.1647148,0.0951519,-0.1036596,-0.2694445,0.0318502,0.4730261,0.3929242,0.1576488,-0.0712700,-0.0283454,0.0040824,0.0537281,0.0181024,-0.2379757,-0.0589012,0.3033114,-0.0018307,0.4569973,0.1516496,0.1445082,0.4879552,0.3049158,-0.1155875,-0.0280359,-0.3924000,-0.1845529,-0.1763096,-0.0154968,-0.2195869,-0.1121545,-0.3462744,0.5966877,0.0428165,0.2662315,-0.3712707,0.1967212,-0.0426177,0.4254038,0.0692950,0.4664641,-0.1536902,0.3083119,-0.2964489,0.0473708,-0.5227782,0.3040884,-0.0288840,0.0226816,0.2930979,-0.3581224,-0.3153587,0.2660083,0.2379428,-0.2818356,-0.6531517,-0.8507607,-0.8547853,-0.8055706,-0.5542626,0.1687137,0.3934762,0.0418076,0.2461683,0.2426396,0.1004744,0.1563332,0.2575267,-0.0347566,0.3575267,-0.1804228,-0.3833752,0.2614755,0.3096609,-0.1987179,-0.1204829,0.3673215,-0.3572184,0.3726889,-0.0532398,0.4813014,0.4170235,-0.1475961,-0.0568011,-0.0463321,-0.9275944,-1.0775222,-1.0169507,-0.7340698,-0.5623618,-0.1442117,-0.4436832,0.0354993,-0.1939806,0.1322684,0.0717824,-0.1430553,0.1369937,-0.0230323,0.1188595,-0.4829760,-0.0918054,0.1539760,0.3642350,-0.1725554,0.4861583,-0.2299310,-0.1736153,-0.2325220,-0.3822246,0.1000854,-0.4277577,-0.3484844,-0.4712360,-0.1600857,-0.1178984,-0.7551133,0.0820963,-0.3369426,0.0387818,0.2821126,-0.1483928,0.0595294,-0.0775662,0.4508900,-0.0074844,-0.3272810,-0.3583396,0.1514861,-0.1972163,0.2262071,0.3271120,0.3177497,-0.1059560,0.2229477,-0.1840543,0.0434788,0.5562698,-0.0481904,0.2111556,-0.0394339,0.6955373,0.0776813,-0.4432349,-0.4810216,-0.0747095,-0.3220701,-0.1626092,-0.2774540,-0.1749351,0.3845613,0.3549357,0.1874837,0.1397548,-0.0909768,0.0493343,0.2349430,-0.1325856,0.2113357,0.0466982,0.2404505,-0.0529234,-0.1067325,0.1809153,0.4928406,-0.3270820,0.3530480,-0.0310932,0.0532600,-0.0412822,0.4069823,-0.2589517,0.5609033,-0.0829595,-0.2245839,-0.4217559,0.3021584,-0.0685201,-0.0767882,0.2057669,0.0826893,-0.2353001,0.0943004,-0.3865385,0.1827690,-0.5096812,0.2645484,0.0370619,-0.1068985,-0.0185296,-0.4079907,-0.3056936,0.5703756,0.0346784,0.2447081,0.4122674,0.2947066,0.0190423,0.4502495,0.0035535,-0.0057505,0.2689343,0.0686028,-0.0215626,-0.4053036,0.2387591,-0.0377249,0.2174524,-0.4107651,0.2456909,-0.2481927,-0.0717256,-0.5038013,-0.4787901,0.2731330,0.2923108,-0.4634798,0.0396215,-0.1673673,-0.0395139,-0.3970020,-0.0738618,0.0127894,0.3269078,0.2780270,-0.3331848,0.0815972,-0.2313424,0.0394117,0.1059438,0.3204194,-0.4126595,-0.1190205,0.0053822,0.0234024,0.0622012,-0.2147008,0.3522129,-0.5070556,-0.3090379,0.2020370,-0.0389997,0.3607365,0.3046395,0.0083694,0.1352461,0.1011102,0.0702876,-0.2627286,0.4853511,0.4808126,-0.2904590,-0.1874400,0.0508872,-0.2818589,-0.3034288,0.2408318,0.3490437,0.0534625,-0.1134256,-0.0121208,0.0471546,-0.0005735,0.4524691,-0.4996722,-0.5480283,-0.1409111,-0.2242392,0.4457019,0.0078536,0.1140277,0.2223766,0.4931104,-0.0261591,0.0276090,0.0130811,-0.3649036,-0.3273071,-0.3363607,-0.0280096,-0.2409079,-0.2709450,0.0885744,-0.1759741,-0.0884418,0.0551128,0.0570448,-0.2625990,-0.1487533,-0.3781940,0.1740469,-0.5408871,0.2013251,-0.2020631,-0.4739703,0.3045655,-0.1563801,-0.0244419,-0.3571712,-0.1706915,0.4992412,0.2561429,-0.4482852,0.4923007,-0.2660848,0.0870064,0.0231567,-0.1051221,0.2841520,0.1384616,0.2132558,0.3143724,0.1462598,-0.3205807,-0.3485947,-0.4670616,0.1085243,0.1311196,-0.0952417,-0.3185975,0.4442027,-0.2466220,-0.2349511,0.2239668,0.0901230,-0.1864757,0.0475765,0.4468114,0.2937534,0.1905017,-0.2238801,0.2929748,-0.0550403,-0.1752780,0.2779969,0.1646048,0.3796514,-0.2565275,-0.5181946,0.0715468,0.2725143,0.0911637,-0.1988491,-0.1663445,0.1936173,-0.0445214,-0.0390167,-0.0536042,-0.2585494,0.4675947,0.1791767,-0.2854740,-0.2648417,0.4446969,0.4408370,0.3258946,-0.2417431,-0.0115500,0.2727059,-0.4479897,-0.3210473,-0.4511581,0.3449174,0.1248637,-0.1241252,0.1297714,-0.2015083,-0.2195552,0.4038000,-0.1864073,0.3826523,0.2258331,0.4548953,-0.2482650,-0.3961917,0.1935314,0.2594848,0.1094098,-0.3339415,-0.4879873,0.0800484,0.3438936,-0.2731886,0.3152936,
0.2885904,-0.3323516,0.1411881,-0.4531527,0.1560984,-0.0861059,-0.4011424,0.3350501,-0.0372801,0.4438626,-0.0393535,0.3393507,0.0740037,0.2625360,-0.3773724,-0.0162519,-0.4192047,-0.4851931,-0.2873549,-0.4625937,-0.2307606,-0.1780178,0.2351473,-0.4709894,0.4313380,0.4001625,-0.4592441,0.0113864,0.2440562,-0.2324326,-0.1733201,0.0326466,-0.0647849,0.4678660,0.0794052,-0.4092635,-0.1211271,0.1723826,0.4157562,0.3328188,0.1126093,-0.1161395,0.1871020,-0.2972542,-0.3443267,0.3042073,0.1760817,-0.2720872,0.3188928,0.3890324,-0.2331150,-0.4101093,-0.2852026,-0.4967690,-0.3806212,-0.3538646,0.4033936,-0.3398653,0.1575242,0.1474385,-0.0723871,0.4841693,-0.3208122,0.3569195,0.4351229,0.2220272,0.4035455,-0.1994009,-0.0943590,0.3478754,-0.3299549,-0.4479140,-0.2482368,0.3389169,-0.2632759,-0.1044565,0.1552599,0.4207873,0.1393218,-0.0143023,0.3283682,0.4162559,0.0799655,-0.4556339,0.4194815,0.1993442,-0.3092303,0.3228983,0.3596490,0.3520699,-0.0393473,-0.2330284,0.3011695,0.1081129,-0.4075699,0.2528847,-0.0517451,-0.3447106,-0.3632446,0.3424180,0.4850535,-0.2002077,0.4127651,-0.2533113,-0.3347652,-0.3456799,0.1626531,0.3230588,-0.4100800,-0.1818593,-0.1854298,0.4310142,-0.2655587,0.3966142,0.4763590,-0.3449814,0.1008739,-0.3239406,0.4910163,-0.0408355,-0.4491808,0.0103044,0.3300008,0.4729055,-0.2731654,0.4282796,0.1739615,0.1154563,0.6350141,0.3256193,-0.1093902,0.4577931,-0.4614094,-0.2788705,-0.3052254,-0.3632372,-0.0981146,0.4010182,-0.4670938,0.0299955,-0.2772707,-0.1527134,-0.0391012,-0.0385640,-0.2412398,-0.0338748,0.1503295,0.3864514,0.1698725,0.2234086,-0.0386063,0.3518433,-0.2471134,-0.3601210,0.0177151,-0.3599728,0.4590686,-0.3493287,0.0891489,0.2620730,0.1235808,0.3509930,0.2432888,0.2249581,-0.3150203,-0.3529341,-0.4030608,0.1877582,-0.4512615,-0.3797525,-0.2817813,-0.2089172,0.0000708,0.2111084,0.2906211,0.2888809,-0.2046171,0.1077069,0.3043626,0.3579043,0.4347816,0.3445309,-0.1689536,0.4658612,0.4513701,0.3769436,-0.3033112,0.2750187,0.2700273,0.1388738,0.1246320,0.1236216,0.1580991,0.1368513,0.1094539,0.4956299,0.2967881,0.2036574,0.1823375,0.3675651,0.3845022,0.4714659,-0.2438372,-0.0184640,0.3523703,0.6132027,-0.3606919,0.0742515,-0.4453843,-0.0010886,-0.1521768,-0.2563362,0.1034118,0.3125718,-0.2298792,-0.0158223,0.1076708,-0.2989805,-0.4322709,-0.0994735,0.3949694,0.3290098,-0.3564993,0.1398757,-0.0043544,0.2603572,0.1316795,-0.1746476,0.0675890,-0.0324283,-0.1356775,0.0834363,0.0036247,-0.0092760,0.1195437,0.1310472,-0.4380709,0.0496310,-0.0597840,-0.0089256,-0.1379617,0.4389940,0.0453546,0.1566394,0.0812002,0.0221691,0.4143719,-0.3191953,0.1886613,0.4400962,0.0626619,0.0618089,0.2622054,0.1932905,-0.3012638,-0.1921765,0.0731921,0.4843795,0.2349107,0.6125182,-0.1637620,0.2928827,-0.3405977,-0.3512655,0.3610769,0.0672463,-0.5437391,-0.2612526,0.1112404,0.1830694,-0.1401981,0.0487380,0.0487400,0.4307191,-0.2989416,-0.3597570,-0.2330276,0.3622955,-0.3151960,0.3478351,0.2563037,0.1962206,-0.0815312,0.0732172,0.0123147,0.2369371,0.4137591,0.4609658,0.0001970,-0.1711310,0.1649356,-0.0260818,-0.6124502,0.1455980,0.3045484,0.6900861,0.4772091,0.5710465,-0.3672397,-0.2426787,0.1578055,0.0080473,0.1806609,0.5319655,-0.3603920,0.1264869,0.4624573,-0.2268932,-0.0948605,-0.4186814,-0.3619170,-0.2924699,0.3761529,0.1227183,0.2687128,-0.2001926,-0.2660030,0.0257852,0.4847927,0.0602700,0.0873569,0.0820595,-0.2715202,0.6345350,0.4315558,0.6052106,0.4133301,0.0067939,0.4808867,0.3069827,0.0043810,-0.0995073,-0.2883112,0.5660673,-0.2349780,-0.3387404,0.0660000,-0.3251233,-0.0550962,0.5170414,-0.1872311,0.0573289,-0.4097312,-0.3430594,-0.3098778,0.3850459,-0.3047637,-0.4666337,-0.5329954,-0.4205915,0.3967311,-0.1089355,0.7290139,0.4450503,0.4400540,0.1645591,0.3132813,0.2489960,0.4366857,-0.1140170,-0.1563767,-0.0823387,0.2817440,-0.0373621,-0.1017098,-0.4871577,0.1352458,0.4852169,-0.3018865,-0.5706032,0.2506974,-0.1294929,0.0608206,-0.4613544,-0.2189572,-0.1410861,0.0134378,0.0764589,0.4548490,-0.0859306,0.5751444,0.1794967,-0.2948965,0.1995573,-0.0381978,-0.3746260,-0.3433655,0.1525653,0.0177165,-0.2979765,-0.1910585,-0.4734642,0.0953066,-0.4335147,-0.0026988,0.5060789,-0.4353009,-0.5669212,0.1777011,-0.4791958,-0.5895902,0.1330452,-0.0671209,0.0372939,0.2230964,-0.2632090,0.0902508,0.5902189,0.4690315,-0.2365093,0.2855325,0.0297927,0.2854149,-0.2742822,-0.3775593,0.2431717,-0.4173085,-0.0519138,0.3190218,0.3946996,0.1454009,-0.3907906,0.4233150,-0.2389908,-0.3236320,-0.2578748,-0.4894995,-0.4968064,-0.2568597,-0.5561921,-0.2162218,0.1422669,-0.3779934,-0.0497287,0.2054806,-0.1396257,-0.1144353,0.1393997,0.0700082,-0.4513607,-0.4757023,0.3856334,0.0484906,0.1363358,-0.5635882,0.2757463,0.2522360,-0.1947410,-0.2621198,0.0648138,-0.2979983,0.4082085,0.2057191,-0.4823095,-0.5671700,0.1225894,-0.1400934,-0.2496417,-0.5490028,-0.4759646,0.2090902,0.2963685,0.3097742,0.2636870,0.2141575,-0.6286958,-0.0847403,-0.4673438,0.3211959,-0.0200810,-0.3842817,-0.5188353,-0.1559942,0.2054986,0.3289017,0.0176622,0.0049560,0.0658354,0.3240666,0.2751899,-0.3116531,-0.5210837,-0.0404441,0.0723431,-0.4423503,0.1197043,-0.1433855,0.1222241,-0.1844758,0.4282990,0.1912140,-0.0743326,-0.4604957,-0.4575839,-0.5218163,-0.4567724,-0.0600941,0.3700659,-0.2968192,0.0567244,-0.0218564,-0.1850198,0.1191281,-0.4927303,-0.4498990,-0.0765445,0.0294167,0.0969122,0.5403527,-0.1200983,-0.2283847,-0.5045679,-0.2422342,0.2869517,0.2516698,0.1597344,0.4221646,0.2958505,-0.4947198,-0.2309940,-0.6309273,0.0507421,-0.3510810,-0.0122095,-0.2571020,0.1844806,0.2533210,0.3513258,0.1401267,0.4478121,-0.0021292,-0.2164408,-0.1997255,-0.3972804,-0.2034853,-0.1226105,0.0459563,0.3687092,0.4279214,0.0296313,-0.3559612,-0.3284336,0.0634364,0.0751197,-0.2177739,0.0869914,-0.7745439,-0.1548761,-0.6262675,-0.4550516,-0.1436060,-0.1955345,-0.4341589,-0.4226460,-0.4254021,-0.1654958,0.2104745,0.3640984,-0.1905436,-0.0014097,0.3404095,0.3022732,0.2847862,-0.3324167,0.4194567,-0.3506508,0.1164695,0.0777511,0.4531076,-0.0380603,0.5027764,-0.3368633,0.1278587,-0.0254634,-0.2470786,0.0236934,-0.4311228,0.0236242,-0.0878794,-0.2874497,0.3051106,-0.2801846,0.2203146,0.2612922,-0.3872012,0.3107179,-0.3131039,0.4102196,0.1895099,-0.0056411,-0.0827445,0.0481304,-0.1818590,-0.2106826,0.3646166,-0.0768867,-0.0822475,-0.2481132,0.2454362,-0.1899561,0.0617401,0.0405778,-0.2876375,-0.2877620,-0.2041803,0.2874967,0.3897853,-0.1546606,-0.1251800,-0.0081106,0.0695586,-0.5092575,-0.0007044,-0.2227753,0.3154179,0.1565338,-0.4024802,-0.4978850,0.0744094,0.3070155,0.0148970,0.5557940,-0.0010609,0.5415892,-0.1676909,0.4184434,0.4358196,-0.0050055,-0.2778483,0.2218093,0.2613299,0.2664849,-0.2021906,0.3331700,0.5013744,-0.0246300,0.0449877,0.3095540,0.1842740,0.2393745,-0.3448932,-0.2686014,0.2501515,0.1699079,0.0173406,0.0651894,-0.1706455,0.1278397,0.0838120,0.4232657,0.0025183,-0.2509840,0.5064516,0.1490407,0.2048677,-0.4557567,0.3315454,0.4584071,-0.0506230,0.3137136,0.0908751,-0.2688250,0.2868301,0.3380164,0.3657207,-0.0234498,-0.4185627,-0.2653482,-0.3241797,0.2312239,0.4492615,-0.1788285,0.4693078,0.1996031,0.4924990,-0.0081452,-0.2287845,-0.1728998,-0.3517758,0.4390695,-0.1524490,0.0531887,0.3683125,-0.3581270,-0.1699448,0.2913656,-0.3352526,0.4578036,0.1774867,0.1307418,0.3675938,-0.3431632,0.1241532,-0.1340787,0.2898110,-0.1425935,0.2659142,0.3358056,0.0631114,0.4397914,0.0760479,0.0134909,-0.2389443,0.0462537,-0.2836278,-0.2377417,-0.4395215,0.0277769,0.1661635,-0.2892664,-0.1191725,0.3489478,0.2016632,-0.2200929,0.4450521,0.4251556,0.4961354,0.5274021,0.3484921,0.1057529,0.0560431,0.0758475,0.1547734,-0.3680383,0.4187059,-0.0689640,-0.0199949,0.1883995,-0.2236565,-0.4552041,0.1281909,0.3523213,0.0566210,0.3866249,-0.1013358,0.2799652,-0.3499773,-0.0648532,-0.2261871,0.2478137,0.0889477,0.1100829,0.0577512,-0.2659479,0.3041912,-0.1055486,-0.3786561,0.2602443,-0.1717566,0.3472046,-0.2061867,0.3653742,-0.0811839,0.4413034,0.4964416,-0.1634977,-0.1255869,-0.0226773,-0.4750982,0.1507566,0.0221200,0.1532026,0.0035841,-0.4179810,0.0448350,0.4036450,0.3601372,0.1883397,-0.1650727,-0.3860287,-0.0938029,0.4000042,0.1690053,0.3991988,-0.3904568,-0.0660738,-0.2593545,-0.3443142,-0.3439325,0.0608424,-0.4995944,-0.0623332,-0.0762235,-0.0808093,
-0.1210340,-0.0797819,0.2556930,0.2533791,0.3975409,0.2805948,-0.0958642,-0.0803405,-0.0663125,0.4072839,0.0000650,0.4759340,0.3081842,-0.1481373,0.1593875,-0.3611743,-0.0470951,-0.4463527,-0.4672649,-0.3867927,0.4391211,-0.3731876,0.0385679,-0.3245039,-0.2198125,0.1877664,0.2348308,-0.2194069,-0.3745668,-0.3413927,0.1997838,0.0043993,0.0788255,-0.0445229,-0.2419956,-0.0231583,-0.2644846,0.1614421,0.3960498,0.1698206,0.0691482,-0.1041676,0.1471613,-0.1207049,0.2502667,-0.1948093,0.0161886,-0.2991580,-0.1415143,0.0482153,-0.1859800,-0.2021197,0.1757505,0.3526222,-0.0266553,0.4559380,0.0403887,-0.2918245,-0.2634691,0.1658234,-0.1332135,0.4363164,-0.3296077,0.4458882,-0.1072512,-0.0649096,-0.0763803,0.1284788,-0.4036373,-0.1709909,-0.1875491,0.1740604,0.2221158,0.4399534,-0.4646271,-0.0415521,-0.2562916,0.0470075,0.1593073,0.1062847,-0.3978414,0.4774540,0.4049710,0.2773802,0.3295569,-0.1216843,0.2334566,-0.1300140,0.0865598,0.4691586,-0.4651482,0.4560938,0.4201572,-0.2780565,0.3971111,-0.2143912,0.1278696,-0.1692622,0.4255911,0.2206642,0.1369891,-0.3030822,-0.1509175,-0.1752299,-0.3588396,-0.0989031,0.3025752,-0.0934237,0.4705688,-0.0215859,-0.4781337,-0.4261762,-0.0452032,0.4272433,0.3516878,-0.2160670,-0.1951361,0.0834960,0.1553707,0.3934046,0.0434096,0.1578219,0.2973869,-0.0879134,0.3711979,0.2455220,0.2458018,0.0425501,-0.4356810,0.1395165,-0.3187193,0.1757324,0.4033633,0.1391997,-0.4414437,-0.4194100,-0.4441459,0.3691347,-0.0129324,-0.4719482,-0.1502871,0.0119288,-0.3973142,0.3051092,-0.0558985,0.4543652,-0.4109002,0.2315903,-0.0115058,0.1930977,0.1256768,-0.3854559,-0.0591126,-0.0198569,0.1190528,-0.0430940,-0.1775686,-0.1894936,0.3317132,-0.2277314,0.5253560,-0.3265076,0.5524188,0.4348437,0.2672325,-0.4524183,0.4801174,0.3066227,0.4240182,-0.0321765,0.3352309,-0.2236430,0.4894769,0.4415456,-0.4192880,-0.1153738,0.3515941,-0.3152389,-0.2672140,-0.0138793,0.4798630,0.4296343,0.2084171,-0.0801139,-0.1905777,-0.4355985,0.1399115,-0.0414157,-0.0913948,0.0800412,0.3205209,-0.1002430,0.1656218,0.2987505,-0.2024661,-0.1021602,0.3477047,-0.2352344,-0.2942726,0.2717465,0.2416151,-0.4499266,-0.4654984,0.1718248,0.4951023,-0.2687196,-0.2580320,0.4564846,-0.1102673,-0.0656856,-0.0348001,-0.2469072,-0.4088686,0.2684664,-0.0535990,-0.2033211,0.3570430,-0.2442671,0.3999444,-0.2369216,0.2464554,0.2037866,0.1781557,-0.1042143,-0.0174736,0.4508563,0.2917910,-0.1720595,-0.2702871,0.4996722,-0.4153100,0.4402321,-0.3975600,-0.2182012,0.2640556,-0.4212184,-0.1733523,0.3585777,0.5006291,0.1517910,-0.3553979,-0.2797184,0.2350520,-0.3905203,0.4538115,-0.1681750,0.0635389,0.3702559,0.0283597,-0.0274411,-0.3296822,-0.2265532,-0.3663644,0.3284724,0.1701843,0.1139961,0.2940506,-0.0315076,0.4330616,0.5123946,-0.0015336,-0.3908952,0.4774892,0.0006132,-0.3264626,0.0821898,0.0461589,0.1589018,0.0765508,-0.0898308,-0.4907726,-0.1171228,-0.0222925,0.2922728,0.1590072,0.0169310,-0.3704922,-0.2418240,-0.0883524,0.1274376,0.1709854,0.0673206,0.4003085,0.3042397,-0.0956312,0.0705251,-0.1152758,-0.3413786,-0.4789385,-0.1481969,-0.3275037,-0.0590250,-0.1732724,-0.4769198,0.4918924,0.3723657,0.3818683,-0.0300079,-0.4896311,-0.5032951,0.2673958,-0.4013778,0.0585627,-0.1728532,0.4289320,-0.2034861,0.3706025,0.4995843,-0.0147453,-0.2329071,0.1234122,-0.3447630,0.3351667,-0.0239864,0.3817423,-0.3321257,-0.4608145,-0.1553908,-0.0938182,-0.3873473,0.1589197,-0.0377602,0.1148445,-0.1218608,0.2971311,0.0092841,0.1919696,-0.1759736,-0.5308285,0.3332574,-0.0324010,0.2808418,0.4561089,-0.3692619,-0.3325791,0.3594623,-0.1193300,-0.4699372,0.3576961,0.3661681,-0.2110763,-0.0812464,-0.5849990,-0.4470717,0.4574015,0.4746481,-0.1401131,-0.3796827,-0.1201593,0.1823079,-0.2509871,-0.3232459,-0.1912590,0.1824683,-0.3107373,-0.5243440,-0.1761433,-0.4808985,-0.1160856,-0.1966904,0.3793249,0.4665415,-0.3102386,0.3676432,-0.4133739,-0.1473274,0.2274420,-0.0320953,-0.1282444,0.0338100,-0.2473703,0.1136863,-0.4558299,-0.1752719,0.2862929,-0.3915981,-0.1135662,-0.3359891,-0.2539789,0.1448848,0.3222814,-0.2636094,0.2061178,-0.2653548,-0.3757355,-0.4044923,-0.2122888,-0.0470839,-0.3695472,0.2677895,0.3798512,-0.4429729,0.2265505,-0.4401194,0.4237262,0.3128139,-0.0980950,0.1024073,-0.2762264,0.2722281,-0.2370007,0.0847749,-0.1119428,-0.2461945,0.5103152,-0.1864193,-0.0843087,-0.2368142,-0.1234852,-0.1487807,-0.6099048,-0.1919012,0.3388843,0.3279089,0.1623799,-0.5041481,0.4147418,0.5034161,0.0430893,-0.4294110,0.2514370,-0.0987636,-0.3738701,-0.0178290,-0.0483473,-0.4831337,-0.2616013,0.3591354,0.2291845,0.0355202,0.0666270,0.3458003,-0.3131717,-0.3056251,-0.2274710,-0.3313490,-0.0789739,-0.0995127,-0.2320653,0.2648456,-0.4409889,-0.0505937,-0.2576247,0.4550130,-0.1964373,0.4708347,0.5132849,-0.2744960,0.4436006,0.0225737,-0.2059021,0.2038688,0.4207770,-0.1172958,-0.3819428,-0.1820261,-0.1024954,-0.1031832,-0.3107102,-0.3505482,-0.4051434,0.5472773,-0.2897019,-0.2817097,-0.4764738,-0.3590687,-0.3051465,-0.1124455,0.3707663,0.3213065,-0.1329998,-0.4648025,-0.1721256,0.1820174,-0.4710459,0.1153367,0.1056370,-0.4961235,0.3353952,0.0583663,0.0292775,-0.4017834,-0.3171842,-0.1357445,-0.0521417,-0.1485391,0.3123222,-0.5026372,0.4381158,-0.2650209,-0.2038863,0.3891163,-0.5522599,-0.3879989,-0.5008732,-0.4685196,0.0532174,-0.0068876,0.0995138,0.0493476,-0.1218160,0.4942178,0.0732450,0.1631961,0.1158542,0.0710587,-0.2263191,-0.2685186,0.0830133,-0.4164933,0.2073442,-0.4619858,-0.3177525,-0.4872777,0.0147136,0.2218402,-0.0124041,0.0484147,0.4117368,-0.1635951,-0.0399368,0.3956306,-0.3149633,-0.0148288,-0.3208712,-0.1343797,0.1161932,0.3427510,0.4197808,-0.2979333,-0.1542996,-0.2588984,-0.3630373,0.3975041,0.4003814,0.2642045,-0.0185584,-0.3495908,0.4596593,-0.4444247,-0.1925589,0.3062838,-0.3645637,0.0602416,0.3847147,0.4107304,-0.0924851,-0.1870068,-0.2963134,-0.4060287,0.0347609,0.0814541,0.4638506,0.2192431,-0.4314241,-0.2995885,-0.3763706,0.1766274,0.4973148,0.4937941,0.3307638,-0.1774340,-0.2698065,0.4880881,-0.2515873,-0.3792787,0.2387951,0.2390277,-0.0996808,0.2831866,0.2732672,0.2039364,0.0859644,0.5147793,-0.3106223,-0.1429253,0.2753825,-0.0655594,-0.0462442,0.1829644,-0.1551855,0.3735740,-0.2599636,-0.1370128,0.1534637,-0.2029511,0.0057794,0.2446871,0.4427423,-0.0131546,0.2385503,0.2957095,0.3464721,0.4955174,0.2582607,-0.4198189,-0.3177074,0.0097216,0.2342603,-0.0479389,-0.2493592,0.0082933,0.5269907,0.2419956,-0.0219355,-0.3726393,0.4345851,0.5004374,-0.1530397,-0.2976165,0.1124949,0.2338633,-0.3885939,0.2851331,0.4947997,0.2269004,-0.4350200,-0.0065020,-0.0261912,-0.4762622,0.5235265,-0.2283789,0.3254136,0.3284243,-0.2637398,0.0988193,0.3273031,-0.2314202,0.4540686,0.0109711,0.2310236,-0.2421631,0.6181923,0.2417008,0.4346768,-0.0343346,0.1755124,0.0897534,-0.2312615,0.4361592,0.2403666,0.2775004,0.0725742,0.3154023,0.0495186,0.0652556,0.0425304,0.1163788,-0.4216007,-0.4372483,0.1758981,-0.4171556,-0.2359152,-0.0549748,0.3363844,-0.1262989,0.4233957,0.1999332,0.2769297,0.5441021,-0.1835599,-0.0631660,-0.3015706,-0.2110320,0.4218380,0.3368978,0.0309468,-0.0440192,-0.1668441,0.2076482,-0.1528907,-0.4497456,-0.0261955,0.4140598,0.3656791,-0.4773751,-0.0186496,-0.0823799,0.1528564,0.0459993,-0.0901934,-0.2737304,0.0105768,0.0650704,0.1156525,-0.0578802,-0.3724671,0.1494281,-0.4150303,0.2615218,0.0600340,-0.2495045,0.4666363,0.0593046,-0.0675749,0.3404038,-0.1529302,0.4048588,-0.2223591,0.1645115,0.1046540,0.1199653,0.2147711,-0.4225764,0.0305818,0.0779605,-0.4005115,-0.5028006,0.4691805,0.2094776,-0.0005256,-0.1376481,0.4548049,-0.4016261,-0.4535148,0.1384889,0.0026975,-0.4229748,-0.2599437,0.0713340,0.2584142,0.2437800,0.3272995,0.2437658,-0.1974053,-0.2555577,0.0803788,0.1425210,-0.3533589,0.3579777,-0.1929675,0.2512971,-0.0217798,-0.4776929,0.3304087,-0.4893078,0.0937326,0.4190493,-0.4838883,0.0753224,0.1594316,0.0673875,-0.5072699,0.1583495,0.1976432,-0.4461415,-0.1681530,-0.2632416,-0.3577976,0.0864403,0.3291325,0.4178535,-0.1618006,0.1599005,0.1633937,0.1408002,0.4043257,-0.2562424,-0.2166788,-0.4490333,-0.3982648,0.0903543,0.3022567,0.0796231,0.1120656,0.1317314,0.0916711,-0.2853462,0.0641532,0.1166948,0.3046266,-0.2659149,-0.3066251,0.3051128,0.4035651,0.3979073,0.3587212,-0.2611180,-0.3618565,-0.4962994,0.3255965,0.4689385,0.4218368,-0.3362042,
0.1288396,0.0852305,0.3045960,0.0331652,0.3289881,-0.4120828,0.0841320,0.4307234,0.1782710,-0.1136062,0.0104018,-0.2095770,-0.4817390,-0.3988439,0.0041638,0.0819333,0.2190037,-0.1902289,0.3166455,0.4126826,-0.3844294,0.2220973,0.3117089,0.4758075,0.4614062,0.4509302,0.4796658,0.2870027,0.4198687,0.4015026,0.4507985,0.0487082,-0.0132804,0.2553528,-0.4188428,-0.1856918,0.3404361,0.1631274,-0.2576901,0.0194628,-0.4484715,0.2515715,0.3107335,-0.4393373,0.3420413,-0.1871294,0.1530036,0.0748755,0.1244045,-0.0284312,-0.0096404,0.2420404,-0.3084893,-0.1977103,0.2179507,-0.3470830,-0.2467801,0.1976165,0.4399074,-0.3269654,0.0988157,0.3906813,0.2214846,-0.4179862,0.1421800,0.3022882,-0.0990690,-0.0149621,-0.0321933,0.1276651,-0.5345245,-0.0431136,-0.1538537,0.2878149,0.0678382,-0.2370215,-0.3580207,-0.2495537,0.3409527,0.2630941,0.2123486,-0.1695424,0.0085300,0.4065754,0.1345278,-0.2735193,-0.4405356,0.3875687,0.4250165,0.5018082,-0.4328733,0.0195892,0.3728268,0.2556107,0.0736836,0.0065918,0.0277208,-0.6079573,-0.6048731,-0.6185048,-0.0302536,-0.6023901,-0.0123426,-0.4884165,0.3294155,-0.3207924,-0.1651199,0.4959456,-0.0846746,-0.3331993,0.2660101,-0.3683467,0.0011777,-0.2255858,-0.4617730,-0.3644194,0.0019495,-0.3985802,-0.4807294,-0.0852949,-0.4494792,-0.4824596,0.3467202,0.3570263,0.1804894,-0.1419878,-0.2513988,-0.3868627,-0.2543595,-0.2377420,-0.2149890,-0.2775947,0.1370756,-0.3478489,-0.1419236,0.0016149,-0.2307667,0.1106728,-0.0573893,0.1746190,0.2863262,-0.2890797,0.3063027,-0.2144764,-0.0216297,0.3424306,-0.0912550,0.4660521,0.4217424,-0.0477371,-0.0948274,-0.5729512,-0.2020145,-0.3240500,-0.4933540,-0.1606231,0.1742163,-0.2751253,0.0139432,-0.1595124,-0.4231042,-0.1277198,0.2608269,0.2615675,-0.0264840,-0.5087488,-0.3770243,0.2060546,0.1187122,0.0758723,-0.1199271,-0.1007740,0.2883951,-0.2869006,0.2251510,-0.1648985,-0.3722022,-0.3104876,-0.1997697,0.3426284,-0.1788101,0.0344976,-0.3830766,-0.3513016,-0.5335445,-0.6489669,-0.3482340,0.1742313,-0.1442575,-0.2667982,-0.0552973,0.2211455,0.1797066,-0.3872371,-0.1183576,-0.3522867,-0.3570509,0.0061523,0.3615052,0.2804402,-0.3944336,-0.2292519,-0.2720857,0.4709265,-0.0202648,0.3894308,-0.3585483,-0.1468012,0.3147934,-0.1978501,-0.1301988,-0.0219525,-0.3971740,-0.0559077,-0.0448430,-0.4626912,-0.1711495,-0.5412140,-0.5226404,-0.4704680,-0.1752952,-0.0873328,0.2670302,-0.3347450,0.1157343,-0.3593268,-0.1717332,0.2770557,0.1589927,-0.2973785,0.0312350,0.2020876,-0.1335067,0.0714640,-0.1172287,0.1093303,-0.2015369,-0.0033053,-0.3324759,0.0074489,-0.3287017,0.2305592,-0.3720357,-0.2133444,-0.3155230,0.1289962,-0.2724237,-0.0010450,0.1155159,-0.2409425,0.1934577,-0.2333290,0.3220902,-0.0178194,-0.0458472,-0.0528212,0.0866727,0.2087748,-0.3926809,-0.3526423,0.2551074,-0.0056123,0.2320030,-0.2597184,-0.1403398,0.0366800,-0.3373793,0.5676278,0.0550130,0.1084543,0.1897037,0.2105162,-0.0982709,0.0758561,0.1447768,-0.3272380,-0.4378651,0.4059565,0.4615565,-0.4665847,-0.1779195,0.2037235,-0.1825308,-0.3592703,-0.3705289,0.1283584,-0.0596491,0.1794986,-0.1031910,0.1916582,-0.3985820,0.0915770,0.2015855,-0.3037553,0.2799710,0.7273538,0.6423519,0.7429384,0.6789617,0.9117775,0.2816935,0.0165912,0.0006504,-0.0122784,0.2212448,-0.4285394,0.4387370,-0.4259361,-0.4123691,0.4386834,-0.3856609,-0.0821246,0.1116816,-0.1265403,0.0714845,0.3695599,-0.2421098,-0.2746874,0.3197842,0.3810908,0.5853612,0.0039241,-0.5125432,0.3574066,0.8310088,0.6822635,0.2266614,0.3737528,0.7254845,-0.0624240,-0.0082312,-0.2513444,-0.1403847,0.2788075,0.3916924,-0.1619216,0.4464344,0.3624793,-0.0822516,-0.4517524,0.3313218,0.0759597,0.1260429,0.1083612,0.5951837,0.5698732,-0.0960420,-0.2576901,-0.3668545,0.0192860,0.1448060,-0.0580142,0.4195841,0.5376332,0.2069184,0.0778030,0.5417733,0.5155951,0.3981896,0.1964791,0.3557136,-0.3921442,0.4506245,-0.0834901,0.4816334,0.3861637,0.2569234,0.4349740,0.3077384,-0.2123427,0.6655915,0.2387952,0.3315544,-0.0971753,0.5608738,0.2339478,-0.1011862,-0.4892608,0.2188189,0.1953434,-0.1396954,0.2296236,0.2271495,0.3153707,0.0879452,-0.1922337,-0.2382653,-0.2159607,0.3004984,0.3062019,0.3553183,0.2439134,0.4890290,0.3551032,-0.3383244,0.4811408,0.2915506,0.5202069,0.5415820,0.1360637,-0.3149751,0.4228300,-0.3670146,0.3045844,-0.2887875,-0.5647314,-0.1509389,0.2763583,0.0849105,-0.0612032,-0.1216241,0.0330192,0.3204070,0.4693231,-0.1243664,-0.3681427,0.3686731,-0.2849411,-0.3030836,0.1469377,-0.4198155,-0.4007175,-0.1067705,-0.4366354,0.4552628,0.0972465,-0.3664193,0.2963636,0.0518258,0.5152248,-0.2099128,0.0314500,0.1868905,-0.3635894,-0.1894129,-0.2357052,0.0422115,0.4795975,0.3974827,0.1982551,0.4304950,0.5687195,0.5976993,0.0570744,0.2072343,-0.4695517,-0.0327626,0.0621007,-0.1514436,0.2120224,-0.2911799,-0.1252646,0.2310045,0.1217743,0.0809085,0.4722578,-0.1423586,0.0857217,-0.0411957,-0.0759694,-0.2464496,-0.0180091,-0.3958671,-0.0955534,0.4958955,0.1947716,0.1265065,-0.1673844,-0.1960928,-0.3924678,0.0783058,-0.4959326,-0.5879009,-0.0173396,0.0213213,0.2457686,0.2030960,-0.4442315,-0.1860571,-0.5251235,0.1567003,-0.0180233,0.0075286,0.2877295,-0.2016395,0.5238849,-0.1372104,-0.2257444,-0.0017710,0.3058445,0.3123295,0.5133594,0.0290092,-0.2156715,0.0372890,-0.1284594,0.0051051,-0.0421254,-0.2807180,0.1961633,0.0247870,-0.5307887,0.4223241,0.2005069,0.1759115,0.0157972,-0.0438119,-0.1899923,-0.0434836,0.1457927,-0.1744101,-0.1518077,-0.1471048,0.3480197,0.4193532,0.1007675,0.4847280,-0.2294560,0.2261123,-0.0726577,-0.4536638,0.1672473,-0.0980884,-0.1018131,0.0913550,-0.0518311,0.0866588,-0.2955174,-0.4039592,-0.2956155,-0.2444986,0.4568756,-0.1334828,-0.2859818,0.1630302,-0.5072474,0.1549800,-0.5402850,-0.2831601,-0.3573063,0.1924148,0.0333586,-0.0521010,-0.2659209,0.1214908,-0.0917381,0.1413313,0.0312203,0.0534393,-0.2784687,-0.6462245,0.1563696,-0.6469299,-0.2689292,-0.3155496,0.1663138,-0.5076108,-0.2734835,-0.2414405,-0.1083375,0.0528969,0.0310136,-0.1557198,0.3592364,0.1409267,-0.6648315,0.1454912,-0.3717605,-0.6745351,-0.5085001,0.0193822,-0.5325349,-0.3494831,-0.1662367,-0.2531221,0.2905442,0.2261356,0.1689889,-0.1671563,0.0469219,-0.4255313,-0.0274537,-0.0458194,-0.3088874,-0.4193960,-0.3961460,-0.2472965,-0.2183446,-0.1120096,0.0252720,0.1569247,0.3746619,-0.5274445,-0.6073701,0.0419292,-0.0535940,-0.6945642,0.1041731,-0.3637780,-0.3823322,-0.2698903,-0.5124249,-0.4655897,-0.2139760,-0.2120823,-0.2843538,-0.3678717,-0.2885081,-0.3313373,-0.5782123,-0.4579513,-0.0317234,0.2426473,0.4367517,-0.4685787,0.4615993,-0.4333349,-0.2105024,-0.2760878,-0.0964076,0.2558076,0.3598857,-0.2831474,0.1305831,0.3652442,-0.1451536,0.1999968,0.4250025,-0.5644642,0.2471327,-0.4816768,-0.2060449,0.3428756,-0.3394406,0.0692973,-0.1276959,0.1780199,-0.4684389,0.2641201,-0.4905051,-0.2825683,-0.3472616,0.2576422,-0.4475049,-0.3906553,0.2901245,-0.4949336,-0.3481153,-0.4185751,-0.2050358,0.1184223,0.3568946,-0.2492864,-0.2789243,0.4285907,-0.3424318,-0.3046181,-0.2037482,-0.3856149,-0.1403704,-0.2276971,-0.3491469,0.1137378,-0.1465761,0.0024654,-0.2130379,0.2868356,-0.1961662,0.0055574,0.2619045,-0.0298067,0.2849289,0.4310236,-0.2722890,0.3341058,-0.4630253,-0.4553095,0.4299149,-0.1884611,-0.3369786,-0.3573442,0.3304057,0.4733166,-0.2977885,0.1722739,0.0646257,-0.2140794,-0.3521511,-0.3336649,-0.0618757,-0.0103745,0.0505742,0.1971570,-0.3329865,0.4696141,-0.2119585,0.0071700,0.3102044,0.1418999,-0.4427033,0.0888048,-0.3849761,0.3419369,0.0209842,-0.1448570,0.2111579,0.0974259,-0.0905818,0.0553563,0.2006899,-0.2067677,0.0058332,-0.0174012,-0.1725899,0.3645187,0.0136587,-0.2909792,-0.2023851,0.1580193,-0.0952379,0.3299935,-0.2954588,0.4987963,0.0245630,-0.1767752,0.4492183,0.3039688,0.3520319,0.2713872,-0.0481206,0.4093286,-0.1396882,0.0687123,0.2572653,0.3922844,0.4245876,-0.0516218,-0.0418476,-0.2189025,0.4872367,-0.2667451,0.2462066,0.1557341,0.3807917,-0.3178549,0.0288209,-0.1585513,-0.1096942,0.3421930,0.4907162,0.2887689,0.1443874,-0.3434747,0.2736019,-0.3385175,-0.0176159,0.2245621,0.4685494,-0.1655841,-0.0040507,-0.0795599,-0.2562245,0.3561272,0.4871837,0.4952511,0.2364363,0.3971225,-0.0738159,-0.3238493,-0.3309828,-0.1074578,-0.1052680,0.3965867,0.4932427,-0.2606957,-0.4191033,0.0186847,0.0713382,-0.0390979,-0.1410946,0.0600233,-0.2510080,-0.4967180,0.2165484,
-0.4774052,-0.3352356,-0.3010675,0.2471569,-0.3666862,0.0333485,-0.2568938,0.0537426,0.2770930,-0.4007525,0.0410746,0.2723916,0.3355890,-0.0613112,-0.3008339,-0.4882003,0.1052235,0.0877250,-0.0950444,0.0006586,0.0788768,0.1385129,0.0744076,-0.4051522,-0.2907222,-0.4658172,-0.0463270,0.2693011,-0.2168252,-0.0430450,-0.0141504,-0.1942304,0.1217271,0.1848309,-0.4416357,0.2665916,-0.2704276,-0.1981717,-0.1828209,0.5006467,-0.0970521,0.3623708,0.2672078,-0.2626349,-0.2072209,0.4700650,-0.2530161,0.3990873,0.0575159,0.1487652,-0.1039111,-0.3653413,-0.2140540,0.4681849,-0.2720478,-0.0047762,-0.4976323,0.1816251,-0.2354689,-0.2142392,-0.3612691,0.2505365,0.0968130,0.2804104,-0.0352206,0.1762178,0.0562576,0.1875805,0.4914030,0.3832923,0.2077028,-0.0990268,0.2261884,-0.0456983,0.0920302,0.4699102,-0.1142029,0.3089430,0.3578343,0.4458415,-0.0407674,-0.2505638,-0.4300399,0.2420975,-0.2830649,-0.2020877,-0.2626657,-0.2796116,0.4802935,0.0084620,0.0227493,-0.3404302,-0.1898963,-0.3299738,0.4571881,0.2645528,0.3443945,0.0443855,-0.0156742,0.3150622,-0.1821333,0.5562841,-0.4348217,0.4146889,-0.0646013,0.1059024,0.3746256,0.3105644,-0.1018806,0.2095599,0.2242401,0.3473296,0.4573944,0.2947298,0.0894996,-0.3244747,-0.4072174,0.3424566,-0.0634504,-0.3622113,-0.0710137,0.5321694,-0.1686993,0.1555160,0.5840474,-0.3163415,-0.0906695,0.3407698,0.0111882,0.1484348,-0.0528174,0.1498842,0.0763100,-0.1061454,0.0265832,-0.5427448,-0.5014327,-0.0683512,0.2980087,-0.0933372,-0.3655300,0.0160455,-0.2469343,-0.4049184,-0.1853658,0.3584902,-0.1826475,-0.0418853,0.2076629,0.1662323,-0.0395640,0.4956261,0.1822226,0.2952758,0.2097500,0.2154564,0.3033366,0.2954286,-0.2591245,-0.4064462,-0.2049062,0.0311325,0.2003006,-0.5888304,-0.4187374,-0.0584151,-0.4388781,-0.3500470,0.3754779,0.3481440,0.0556949,-0.4877352,-0.1390331,0.3102346,-0.3868078,0.1607737,0.1257324,-0.1915607,-0.4299699,-0.0931604,-0.4621046,0.0366136,0.0992437,0.5516471,0.1102170,0.5257228,-0.3516974,0.2222169,0.0026633,-0.3052571,-0.6233692,-0.5329873,-0.4922890,-0.5309953,-0.2784801,-0.2348200,-0.0209851,-0.1913243,-0.0797086,-0.1416921,-0.3278210,0.4699926,-0.1341573,0.0015434,0.2745674,-0.0036982,-0.2524416,-0.1570693,0.1502621,-0.3465911,0.5153553,0.7996799,0.5324705,-0.4516483,-0.0759370,-0.6137849,0.2410453,-0.1206554,-0.7513070,-0.0737444,-0.6569866,-0.4477759,0.3779556,-0.3554996,-0.3158952,-0.3445068,-0.0894572,0.1553313,-0.0268104,0.3346101,-0.4345452,0.2034324,0.3959648,-0.0033819,-0.2849402,-0.1035024,0.0393937,-0.2050218,-0.1021685,0.5620485,0.1947554,0.0702793,-0.0637110,-0.2411039,0.0827926,0.2484072,-0.2298524,0.0720936,-0.0549311,-0.0821323,-0.0088125,0.0971711,0.1470612,-0.0969452,0.2389716,0.3302721,0.0511953,-0.3295907,0.1074752,-0.2800019,0.6176370,0.1011198,0.2542383,0.0672516,0.1398685,0.3861011,0.3321831,0.7485374,-0.1984963,-0.1332372,-0.0462599,0.1688761,-0.4435091,0.3261472,-0.3646849,0.4579371,0.4286126,0.1471134,0.2549684,0.0432573,-0.3380266,-0.2492881,-0.3535307,0.3059294,0.1469920,0.4322267,0.3071668,-0.0934926,-0.3080475,-0.3135105,-0.2187487,-0.6903165,-0.0904158,0.5604664,0.8511603,0.4713052,0.3817720,-0.2497374,-0.0236788,0.3719379,0.0882893,0.2319471,0.1606755,0.2783775,0.2185861,0.2389547,0.1056414,0.1442130,-0.1022885,-0.1488157,-0.3044331,0.0574553,0.1199016,-0.1121497,-0.0241509,-0.0314487,-0.1359300,-0.4805145,-0.1893943,-0.6085704,-0.7087853,0.3839250,0.2327969,0.6285670,0.1955271,-0.3588077,-0.1050009,-0.1458403,-0.1285796,0.3070853,-0.1491046,0.3793680,-0.0669727,0.1826522,-0.1629263,-0.4884016,-0.1263548,0.4354650,0.1568529,0.2731960,-0.1648093,0.3641657,-0.2045055,0.4513567,-0.3050932,0.1221564,-0.6749799,-0.6557570,-0.2054103,0.2272849,0.4725143,0.5067098,-0.2199997,0.2199052,0.0221684,0.5634937,0.5872070,0.7063221,-0.0422066,-0.3061828,0.1441294,-0.1250815,0.2684059,0.4270009,-0.4977272,-0.4020622,0.4400335,-0.1166298,-0.4638460,-0.0201244,-0.5272554,-0.2437284,-0.1844733,-0.2077793,-0.5318197,-0.2116479,-0.4036385,0.2081792,-0.1018335,0.5179421,0.4566555,-0.0698547,0.0634350,-0.0290944,0.1448552,-0.0057957,-0.1465505,-0.1134962,-0.1417563,0.0817924,-0.0308153,0.4624737,0.4275045,-0.2758322,0.3865076,0.4202794,-0.2586565,0.0549688,-0.4171120,-0.2543415,-0.2482998,-0.2692642,-0.0504575,0.1459729,0.3460727,0.5802761,0.2821251,-0.1337540,-0.1338512,-0.0740285,0.4062294,-0.2130197,-0.3128157,0.2820225,0.0514428,-0.0062191,-0.4423638,0.4086608,0.4819899,-0.0168221,-0.0409634,-0.0686074,-0.0648999,-0.1601260,0.0465778,-0.4176725,-0.3393315,0.3708163,-0.5354723,-0.0862774,-0.2421979,0.1061528,-0.3743960,0.6347676,0.2575866,-0.1359965,0.4053951,0.3379483,-0.2958014,-0.2939802,-0.0023244,-0.3864446,-0.2516476,-0.1258110,0.3055655,0.4313177,-0.4059053,0.4719849,0.2826247,-0.4406681,-0.0465241,-0.2897760,-0.0406037,0.2192774,-0.0585717,-0.4609505,-0.2972387,0.4441227,-0.2628924,0.1909443,0.3244464,0.1473576,0.6118250,0.1693971,-0.1353895,-0.1389770,0.1923783,-0.2887110,-0.3820278,0.1308487,-0.1279601,0.1454043,0.3422723,0.2384748,-0.2880180,0.2377762,0.0932396,-0.2238905,0.1995592,-0.1280340,-0.1930339,-0.4269844,-0.0711345,0.1883188,-0.3665253,-0.1822240,0.5494736,0.0304764,0.0334719,-0.1566530,0.2319475,0.1991328,-0.0955182,0.1569905,-0.1319726,0.3537963,0.3168814,-0.4904044,-0.1810142,-0.2211438,0.3112240,0.1455208,0.4836870,0.2167002,-0.1938100,-0.3436877,-0.0536651,0.3973996,-0.1052997,-0.3848864,-0.3282614,0.2069031,-0.1003650,0.5321658,0.2888241,0.2040975,-0.0283438,0.2617394,0.1940303,-0.2270995,0.1323501,0.0595860,-0.3289041,-0.4647862,0.2932786,0.0037803,-0.2808671,0.4115088,0.0446478,-0.1351873,-0.3268992,-0.1136762,0.4456095,-0.3648385,-0.4053179,-0.2586157,-0.2776505,-0.0366990,-0.4372497,0.1689702,0.2680178,0.1076646,0.2477904,-0.1450453,0.1990269,-0.1525787,-0.0270769,0.0361959,0.3154538,-0.1237909,0.3943064,-0.2787856,-0.1654795,0.3972342,0.0129509,-0.1825462,-0.1186268,0.0741432,-0.3398831,0.4318163,0.3924209,-0.1751521,-0.1877716,0.3307135,-0.0658228,-0.1518866,-0.4455915,0.2373779,0.4556450,-0.1113171,0.1138357,0.2297550,0.2103914,0.4648925,0.1859936,0.4798901,-0.2960093,-0.1145036,0.0411956,0.1454696,-0.4133297,-0.3256031,0.4485290,0.0229980,-0.3561014,-0.0630919,0.2521838,-0.0138634,0.4699329,0.4088248,-0.0811156,0.3519909,-0.3040215,0.1887047,0.1742706,0.1338775,-0.4362671,0.2617148,-0.0068918,-0.3783812,-0.4324472,0.2949391,0.1984605,0.1090053,0.4869512,0.1601683,0.2479455,0.3020500,-0.1177375,-0.5184923,0.0618377,0.1933305,-0.1115180,0.0999468,-0.3432027,-0.0352118,-0.4995831,0.4088522,0.4518484,0.4732534,0.2956016,-0.1505533,0.3202196,-0.5083128,-0.5120426,-0.1298561,0.1812221,-0.2138102,-0.0992887,-0.4131915,-0.1701123,-0.2723532,-0.3134362,-0.2270355,-0.4753130,0.2313736,-0.0947527,0.1086536,0.3679835,-0.3486745,0.3659922,0.0326489,0.3082508,-0.2884816,-0.3808529,0.4664017,0.1764104,-0.3811891,0.3673539,0.1129371,-0.4105150,0.1507402,0.3695417,0.2325821,0.0759641,-0.4047746,-0.0354379,-0.1288060,-0.2937850,0.0809403,0.1448353,0.2462823,-0.3476629,0.1630415,0.2530314,-0.3412721,0.2686117,-0.0521645,0.4275446,0.1950994,0.0696344,0.2718882,-0.2691052,-0.1206485,0.4832723,-0.1521770,-0.1543074,0.1557394,-0.0467858,-0.2939478,-0.2063670,0.0534226,0.3977909,-0.2002003,-0.0784797,-0.0244967,-0.2385753,0.3993475,-0.3586732,0.3452124,0.3137228,0.3254915,-0.0262234,0.4036242,0.1291164,-0.2003329,-0.4504329,-0.1078347,0.2037492,0.4467482,-0.4110489,-0.2260718,0.2186196,-0.1811391,0.1543099,0.2210976,0.2029610,0.5509867,-0.0662071,-0.2733219,-0.1551196,0.2485940,0.2563893,-0.4268374,0.4106208,-0.2439191,0.3707577,-0.0021794,-0.2327649,0.5353174,-0.3769653,0.3823086,0.2748052,-0.0173905,0.1954730,-0.1164139,0.2421984,0.2154903,0.2758629,-0.0542069,0.1622386,0.3648121,0.2206210,-0.1106689,-0.2933417,-0.0878749,-0.3456659,0.4500511,-0.0196345,0.0338792,0.5743632,0.2019344,-0.2403185,0.3107819,0.3636589,-0.3204315,0.4951305,0.0777435,-0.1098692,0.5281459,-0.0339257,-0.1226223,0.3291186,-0.2713492,0.3471387,0.0119923,0.1121562,0.0892603,-0.2725174,-0.1119808,-0.4649389,0.3897677,-0.2449625,0.2667389,-0.2169850,-0.0566970,-0.3596046,-0.1375648,-0.1953305,0.0127159,0.3317079,-0.1959421,-0.3918131,0.4132154,0.4966141,0.3251384,0.4213007,0.3584138,-0.1575683,-0.2459211,0.3460101,0.2967931,0.1288917,0.1740580,
-0.4745629,-0.0239696,-0.3139497,0.1375933,-0.4347093,-0.0864670,-0.4743875,-0.3996559,-0.1967458,-0.2215543,0.3551188,0.0738505,0.2158586,0.4825881,0.4272215,-0.4920259,-0.0172956,0.2255649,-0.2059433,0.0745955,0.1171719,-0.2268493,-0.1073633,0.0336475,-0.3736822,0.2295171,0.2868149,0.4723279,0.0263103,-0.0842934,0.1463859,0.0517473,0.3917345,0.3324289,-0.3107759,0.4567047,-0.2548280,-0.2858190,-0.4441843,0.0472095,-0.0085277,0.4103956,-0.3795731,-0.2947391,0.3911886,-0.4478733,-0.2797536,-0.1204753,0.2759455,0.0122305,0.4531457,-0.1070297,0.2845255,-0.1546784,0.4268250,0.4108433,-0.4251612,0.2136400,0.3831705,0.1008834,-0.3707593,0.0295535,-0.3471739,-0.4794445,-0.1397361,-0.1630058,0.4667308,0.0950033,0.0434703,-0.4831761,-0.3655480,-0.4721521,0.4321605,-0.2143015,-0.2224828,0.3653044,-0.1571697,-0.0145302,-0.2717206,-0.3902482,0.4855470,-0.3285068,-0.0001160,0.2731452,0.0194543,-0.0732909,0.1838363,0.0933662,-0.3600283,0.0653160,-0.3059607,-0.2327336,-0.4118173,-0.1794102,-0.2503272,-0.0946347,0.1128225,-0.3605642,-0.5362658,-0.3265599,-0.2544905,-0.2873033,-0.1949228,-0.2466529,0.0036873,0.0665588,-0.3955371,0.3267920,-0.4807953,-0.1814389,0.4424562,-0.4758534,-0.0087151,-0.0585943,0.2966988,-0.4902266,0.3657433,-0.0252964,0.0866879,-0.5213884,-0.5274844,0.1984255,-0.3497727,-0.4960934,-0.5516216,-0.1903977,-0.1263588,0.1479313,0.2222550,0.1549302,-0.4263642,-0.4460595,0.2517758,-0.1868074,-0.1225996,-0.0817495,0.4712098,0.0009298,-0.2655743,0.4785839,0.3074092,-0.3251358,-0.4968776,-0.2058163,0.1030298,0.2729164,-0.2631835,-0.1218479,-0.3481746,0.2565266,-0.2168393,-0.3973670,-0.0230324,0.1603486,-0.0906271,0.0832215,-0.4930772,-0.5883621,0.0937040,-0.3839750,0.1800009,0.1840606,-0.1590436,0.2220819,-0.2739259,0.2370465,-0.4531970,-0.3801663,-0.2951799,-0.2237160,-0.4006660,-0.4976058,-0.0759140,-0.4533195,-0.2986747,-0.5671079,0.2394570,-0.0866692,-0.1778935,-0.4701538,-0.0281698,-0.3203596,0.1565318,-0.3230968,0.0438067,0.2752519,-0.5106837,-0.3250786,-0.4125559,0.2740912,-0.1506484,0.3966076,0.1935181,0.2056244,-0.0112458,0.2841712,-0.1319349,0.0077548,0.3998082,0.0609924,0.2329781,-0.5762149,-0.0328807,-0.3798616,-0.5084576,0.2654346,-0.2623658,-0.4267462,0.1089367,0.4778131,-0.2814261,-0.4324605,0.3838941,0.1164295,-0.2474661,0.2377343,0.2304689,-0.0535647,0.3836939,0.3792020,-0.0983096,-0.1704381,0.1293573,0.3422861,0.3581340,-0.4447785,0.1192600,-0.2880850,-0.0006080,-0.0683700,0.1971647,-0.2627070,-0.0641472,-0.2273170,-0.0619835,0.1319564,-0.1519612,0.4458571,0.0679523,0.2058700,0.1957075,0.2379823,0.3148168,0.2564468,0.2120878,-0.2574190,-0.0967992,-0.0627420,0.3428230,-0.0849332,-0.4523368,0.2997835,-0.0675719,0.0930298,0.1295623,-0.2327787,0.1061291,-0.3151902,-0.0670336,-0.3993102,0.1905113,-0.3078223,-0.1152402,-0.2130759,0.2691270,-0.3002917,0.3088183,0.3418608,-0.4947902,0.1269297,0.3377324,0.3809583,0.0319859,0.2333620,0.0614883,0.6731569,0.5966848,0.5058021,-0.2899594,-0.1607137,-0.4991372,-0.3392569,-0.3743294,-0.0903912,0.2265413,0.2031705,0.1602856,-0.1270493,-0.4950087,-0.3067814,0.0412997,0.3524554,0.1780966,-0.2199036,-0.3985699,-0.2925225,-0.1772442,-0.5228466,-0.3744901,-0.2342881,0.0426056,-0.4269998,-0.2392110,0.6736479,0.3935578,0.2554352,0.4608518,-0.0917411,-0.1819855,-0.4410406,0.2356552,-0.1981703,-0.2907613,0.3745572,0.2727099,0.4826876,0.0912005,-0.0944693,-0.1437761,0.1265535,0.2623078,0.6043626,-0.0246890,-0.2566273,-0.3964580,-0.2254413,-0.3556140,-0.3813387,-0.2665221,0.0860731,0.2643530,-0.3495495,0.3245834,0.5722544,-0.3460762,-0.0918589,0.0229183,-0.4782642,0.3106537,0.3368534,-0.4050874,0.1064244,-0.2796698,-0.1894394,-0.1251393,0.3555962,-0.1929021,-0.3788586,-0.0526272,0.2871863,0.1902594,-0.3958322,0.0715923,-0.5094952,-0.4933166,-0.0917560,-0.1839596,0.0918604,-0.4049075,-0.3903222,0.0638544,-0.3350998,-0.0888799,-0.0610061,-0.3561284,0.0206987,0.3445687,0.1634556,0.0644646,0.2178150,0.0396115,0.1341855,-0.2979779,0.1650827,0.4364808,0.2019382,0.2096827,-0.1783990,0.1627532,0.3687382,0.2615195,-0.1165520,-0.5446837,-0.1624692,-0.1322540,-0.3080780,-0.3385836,-0.3881692,-0.2669046,0.1341233,0.0445716,-0.4825772,0.3263207,0.4444997,-0.0457457,0.4658991,-0.0282285,-0.1738305,0.1316325,-0.5009348,0.4678332,-0.3743386,0.1478131,-0.3220233,0.3701852,0.0811403,0.2966342,-0.1841739,0.1557357,0.0014115,-0.1999832,0.0110176,0.2841609,-0.2501759,-0.4680456,-0.0852510,0.2710456,-0.0339460,0.3444961,-0.2675251,-0.3310902,-0.0966606,-0.2520991,0.4844183,-0.1756205,0.1520228,0.3756022,0.2096028,-0.5589166,0.0178658,0.2009682,0.3736240,0.1917549,-0.1686437,-0.4175520,0.0599450,-0.4829956,0.4240569,0.3571497,0.1056438,-0.1817101,-0.3436143,-0.1896421,-0.1189194,0.1595008,0.0783073,-0.4446017,0.1203146,-0.3671372,0.4284301,0.3477522,-0.2242726,-0.2282588,-0.4764121,-0.3298454,0.0458930,0.1596555,-0.4680406,-0.1678079,0.1705500,0.2504093,-0.2738915,0.2660146,0.1870130,0.1792296,0.3862036,-0.3785639,0.1182100,0.2306894,-0.5774566,-0.0619628,-0.1739570,-0.1391721,-0.4601463,0.4246341,-0.3330142,0.2084416,-0.4876319,0.2825538,0.2985071,0.3906025,0.1386537,-0.3356384,-0.2351425,0.1305404,-0.1556170,0.4037655,0.0757745,0.1400523,-0.0595775,-0.1102967,0.1158423,0.1766222,-0.3832188,-0.3207275,-0.0803811,-0.5318975,-0.3575585,-0.3219111,-0.5762264,-0.0926556,0.4508328,-0.0417371,0.3857666,-0.4211694,-0.0870720,-0.4488478,0.2293025,-0.1049240,0.3596162,0.2191433,-0.0721741,-0.0010943,0.2471280,0.1254765,-0.2186294,-0.2650357,0.1198138,0.3217172,0.3757857,-0.5556021,-0.3092535,-0.0183457,0.1754913,-0.2204703,-0.0326671,-0.2837057,-0.0823616,0.4358697,0.1927130,0.0186779,-0.0552330,0.2289983,0.4946373,-0.1707866,0.2348476,-0.1595035,-0.1328034,0.0316563,0.3171796,-0.1567885,-0.2208259,-0.2795093,0.2620088,0.5260706,0.3100644,-0.5399831,-0.3982213,-0.2519917,0.2768845,-0.4250590,-0.1602513,-0.5498128,-0.0092321,-0.2456331,-0.0922177,-0.2791681,0.1316794,0.4023286,-0.2673115,-0.1059239,-0.0616271,0.1777806,-0.4575683,-0.2100808,-0.6142065,0.2681908,0.2090390,-0.1218053,-0.0311672,0.1877025,0.2080064,0.2514402,0.2635129,-0.2551700,-0.0059332,-0.0218337,-0.1789296,0.3358292,-0.4556949,-0.2951944,-0.4448751,0.1656070,-0.2056379,0.1548401,0.4112405,0.1860021,0.4104611,0.0824012,0.1054215,-0.3608640,0.4185146,-0.5577135,0.1611618,-0.5180311,-0.1148131,0.2531914,-0.4844604,-0.1604835,-0.2841095,-0.0692685,0.2705512,0.1937396,-0.4008691,0.0996727,-0.3394834,-0.6255693,0.0005930,0.2732114,-0.4596205,0.2793691,0.5009743,-0.4346899,-0.1435313,-0.2480347,0.2381554,-0.2136297,0.4443281,0.1402326,0.3311880,-0.0301770,0.1274244,0.2048400,-0.0090935,0.0486635,0.4606292,-0.3498899,-0.0786650,0.3768857,-0.2473596,0.0953543,-0.1012724,-0.3142112,-0.0402146,0.1607784,-0.3063880,-0.4627468,0.4172693,0.3600747,0.2663028,0.3871306,0.0656162,0.2318249,0.4637980,0.4308576,0.4851322,0.1993720,-0.2936667,0.3909076,-0.2281983,-0.4957623,-0.0568597,-0.3431481,0.4240570,-0.3309805,0.3035067,0.3191805,-0.4470230,-0.3036177,0.2325568,-0.1061832,0.3322573,-0.1955734,0.4255749,0.2186563,-0.2557306,-0.3123321,0.1847047,-0.3939361,-0.4996263,-0.0777195,-0.4993837,0.0686183,-0.3440640,0.4647859,-0.0008640,-0.3728643,0.1341530,0.1746248,-0.4209352,-0.4552731,0.3180949,0.0866645,-0.3256090,0.1995364,0.1183407,0.4026251,0.1158779,0.3092454,-0.2476497,0.0639910,-0.0854882,-0.2508461,0.3762423,-0.2648455,0.3473655,-0.4371376,-0.1180430,0.0103646,-0.3253921,-0.1126834,0.4353143,-0.3248037,0.4572934,-0.4121677,-0.3839747,-0.0775612,-0.2907521,0.2648291,-0.3666392,-0.2497093,0.2367853,0.3958419,0.3083060,0.4771405,0.3118597,0.1043838,0.5376424,-0.0828862,-0.1741442,-0.3610921,0.3011500,0.0611840,-0.2200303,0.1263587,0.2625444,-0.3894019,0.1897204,-0.3504087,0.1233440,0.3643283,0.0369421,0.0587299,-0.4648928,-0.0198360,0.1324193,-0.3386387,0.4311719,0.3585430,0.4746150,-0.3864363,-0.3412667,0.2801473,-0.4047107,-0.4668740,0.2887186,0.3093774,0.0269284,0.2187553,-0.3678026,0.2606899,0.3098973,0.4030600,-0.1979091,-0.4176111,0.0276530,-0.4343782,-0.3058085,-0.2826266,-0.2847870,0.3175311,-0.4183928,0.2517506,-0.1245868,-0.3801904,-0.2567164,-0.4760980,-0.2010347,-0.3105872,0.3987579,-0.2253205,-0.1908856,-0.4094256,-0.4086014,-0.0947961,-0.3711426,0.3865735,-0.2879346,0.1451488,0.0979798,-0.1643652,-0.0979707,-0.0922122,-0.2613038,
0.2041191,-0.0098233,0.2663492,0.2697409,0.1843682,0.4837226,0.4849539,0.0019036,-0.4345756,0.2370748,0.3780974,-0.3133214,0.4820074,0.4038864,-0.0131485,-0.3247556,0.3125292,0.2727699,-0.0111564,0.4059411,0.3665600,0.3976308,-0.4628150,0.2535520,-0.3895807,0.1821290,-0.1484373,-0.0539459,-0.4158417,0.2593505,0.1847503,0.2882775,-0.2504729,-0.0489037,0.0577299,0.4332210,-0.0660277,0.0427047,-0.0644033,-0.0000319,-0.2196928,-0.1864632,0.1857945,-0.2386919,-0.2824302,-0.3253922,-0.0624494,-0.4692856,0.4471240,0.4273058,0.4365040,0.3132885,0.3238158,0.4737515,0.0669315,0.4342350,0.1558805,0.4184943,-0.1197107,0.2400269,0.1778893,-0.4349550,0.0279857,0.4258456,0.0129604,-0.4201941,0.3487246,0.4354466,0.1221236,-0.2052552,-0.0550017,0.4087917,0.1211468,-0.3431232,-0.2990623,0.3579499,-0.1661870,0.1300264,0.3748346,-0.2353166,0.0353941,0.2961483,-0.4276185,-0.1412183,0.2700025,0.1393131,-0.2070378,-0.0741995,0.0578165,0.1724436,-0.3364258,-0.2773201,0.2047726,0.1300924,-0.4021410,-0.2968351,0.2440958,-0.5304808,-0.3254987,-0.0890250,-0.1535085,0.2077364,-0.1128671,0.4950554,0.3456750,0.0282131,0.2964620,-0.3839496,-0.4013094,0.1233577,-0.1329874,0.1344204,-0.0826839,-0.0616342,0.4929640,-0.3123178,-0.4212930,-0.2074764,0.1090764,0.1039090,0.3794189,0.1694695,0.2715037,0.1325102,-0.0968350,-0.5289134,0.4833474,-0.1407389,-0.3010038,-0.1733591,0.3852855,0.0571664,0.3375117,0.4986953,-0.1576187,0.1714288,0.0237786,-0.4121886,0.2141288,0.0725306,0.1945653,-0.4178219,-0.2927892,-0.3897598,0.0184335,-0.2832433,-0.2168928,0.0289087,-0.0933114,0.4038952,-0.2203968,-0.0040008,0.1315080,-0.3484274,-0.1702240,-0.1201026,-0.1696595,-0.2712699,0.1118776,-0.0582641,-0.0917248,-0.3556166,0.2415288,-0.2226112,-0.3227837,0.4203328,0.1804300,0.0408866,0.4628004,-0.1055364,-0.3872188,0.1554757,-0.0182715,-0.1514452,0.2358762,0.3867273,-0.0204397,-0.4271776,0.1210471,-0.4076111,0.4754571,0.4422218,0.1389724,0.1773357,0.4264313,0.1416156,0.3506441,-0.3498471,0.2956362,-0.2070633,-0.1389807,0.6190057,-0.0058146,0.4398349,-0.4362206,-0.0899480,0.2366337,0.1977035,0.4401397,0.1895529,-0.4307265,-0.4727792,-0.2694866,-0.1282919,-0.2659853,-0.4738155,-0.0555911,0.4302724,-0.1856261,-0.2776887,0.4831706,-0.2376371,0.4915852,-0.1179923,0.2363146,0.2934623,0.4355326,0.2407383,0.5416940,0.2531771,0.6141666,-0.0873122,0.1515109,-0.2162764,-0.3856615,0.1236610,0.1788278,0.3203523,-0.2579540,-0.0018667,-0.1605616,-0.3698379,-0.0127125,0.2496980,0.2747761,-0.3447807,-0.3492886,-0.0469034,0.3369536,-0.2776003,0.2658474,0.3168004,-0.2752676,0.0942173,-0.1721535,-0.2062838,0.0950654,-0.2732680,0.5876173,0.2517540,0.3646963,0.3808346,0.3877875,-0.0577817,-0.3528454,-0.5446690,-0.5380623,0.1366389,0.1331635,-0.2931706,-0.0826946,-0.1324956,0.2713554,-0.0575914,-0.1247909,0.1593015,-0.4987215,-0.2943526,-0.3897060,-0.7606092,-0.3741269,-0.7112256,-0.6029439,0.2506942,0.0404577,-0.3719520,-0.2321977,-0.0587419,-0.0412368,-0.3343517,0.4885374,-0.2190327,-0.4730534,0.3325350,0.1241677,-0.4818755,0.2572538,0.2330684,-0.3461279,0.3264242,-0.1733104,0.2006122,-0.3517067,0.3543633,0.0664920,-0.2314609,-0.1283693,-0.1366362,-0.2135273,-0.8185415,-0.8092410,-0.5638508,-0.7382773,-0.6950828,-0.2570638,0.4030910,-0.1497340,0.0663247,-0.2402821,0.2797830,0.2070755,-0.2963288,-0.5038668,0.1773762,-0.4019685,0.3336787,0.5446092,-0.4238908,0.1949379,0.4392236,0.1574232,0.2426079,0.0226549,0.3876800,0.2107826,-0.4203042,-0.3163602,-0.1297612,-0.7131987,-0.7501208,-0.2765050,-0.7004443,-0.1994514,0.2426526,-0.3483752,0.3081415,0.1657413,-0.0101749,-0.1471883,0.3811211,-0.2548110,-0.4098394,-0.3117486,-0.1173410,0.3709097,-0.2008940,-0.2837203,0.2654662,-0.1966862,0.2042065,0.3356462,-0.4239641,0.0486514,-0.0144563,0.6105904,-0.0836214,0.0021899,-0.4275702,-0.0216174,-0.2459371,-0.3247464,-0.1421430,0.0598025,0.3061637,-0.3340681,0.2153358,0.1011987,0.3024917,-0.2892640,0.5187609,0.2794123,0.0659951,-0.3528781,0.3996046,0.3765030,0.4213513,-0.1625933,0.4535811,0.1755615,-0.0834287,0.2149972,0.2065308,0.2581293,-0.0511603,0.4508423,0.0217223,-0.1005896,-0.3417104,0.0800088,-0.3103854,0.3185292,-0.4590217,0.1176700,-0.1089327,0.3413861,0.2626699,-0.3874556,-0.0272108,0.1058684,-0.1586678,0.0610706,-0.0407104,0.3759099,-0.0432162,-0.0702220,0.1042602,-0.1519288,-0.0741482,0.0928917,-0.1867606,-0.2731015,-0.0874100,0.2633653,0.1984811,0.1627563,0.1000553,-0.4377677,-0.4774168,0.4685309,0.3243862,-0.2227303,0.3112811,0.3659329,0.3746877,-0.3133854,0.1714896,0.0716764,-0.3302988,-0.4394199,-0.3232338,0.0535167,0.1061245,0.1961422,-0.0733803,-0.4242660,0.3211238,-0.3737188,0.1624140,-0.0106759,0.2206951,0.2973560,0.1505268,-0.2530837,0.1276801,-0.2874951,0.2457848,-0.2667548,-0.1769728,0.3219182,-0.2686288,-0.3485118,-0.4039674,-0.4587602,-0.5695510,0.2743374,-0.5047092,-0.1691011,-0.3285997,-0.3058878,0.2139575,0.2996761,-0.2551670,0.1192206,0.0964796,0.1961993,0.1583922,0.0095055,0.1823054,-0.1546427,-0.3126558,0.1618158,-0.3365868,0.2003845,0.2416764,0.1878670,0.3775461,0.0464091,0.4577095,-0.2922188,-0.1129820,-0.2668049,-0.1872342,-0.1451630,-0.4737557,-0.5673164,-0.6124210,-0.5126434,-0.8576041,-0.8275476,-0.6364856,-0.5265631,-0.3105783,-0.1894500,0.0608737,0.1670033,0.2834570,-0.2042202,-0.1090880,0.1890698,0.0511932,-0.0456053,-0.2332171,0.1158913,-0.3881620,-0.4173995,-0.1597681,0.5016513,0.1627616,-0.0884737,-0.2688065,0.4884228,-0.1251635,-0.2155801,-0.4400359,-0.2410801,-0.1726755,-0.1214812,-0.6066255,-0.4694910,-0.3459529,-0.1761184,-0.3596080,-0.3701172,-0.1062531,0.1057169,0.3701744,-0.1819624,0.3587777,-0.2601309,-0.4572582,-0.1393286,0.1616600,-0.1144715,0.4975206,0.2895296,0.0066406,-0.0329766,0.3587754,-0.3359807,0.0973442,0.4163404,-0.5339647,-0.6227102,-0.2784815,-0.1768811,0.2522502,0.0059056,0.0412423,-0.3760850,0.1373638,0.0776085,-0.2810683,0.0188912,0.1438843,0.1822806,-0.2741534,0.1172045,-0.4262774,-0.4733827,0.3234321,-0.3217265,-0.0962950,-0.0031929,0.0982367,-0.0200245,-0.1264611,-0.3762857,0.2821586,-0.2882447,-0.2341111,-0.0743089,-0.3589110,-0.1070575,0.1827893,0.0482398,0.2423359,-0.0337643,-0.3271103,-0.1568773,-0.1045630,0.0433581,0.2316601,0.1371991,-0.3695118,0.0214958,-0.1609572,-0.2112741,-0.3758791,-0.0468494,-0.1698307,0.4523613,0.1545276,0.2922361,-0.0129378,-0.2787734,-0.3123164,0.3451858,-0.1383303,0.5023056,0.4675754,0.2208526,-0.0915616,0.2000585,0.1285560,0.3184591,-0.1471777,-0.1317512,-0.3747746,-0.1063094,0.1384356,-0.0411278,0.3697804,-0.0695918,-0.4298820,0.4698832,0.4778414,-0.0636695,-0.2333921,-0.3950277,0.4026941,0.1365633,-0.4518801,-0.0338860,-0.2000922,-0.0139087,0.2748446,0.0586992,-0.1419810,0.6060804,-0.1627120,0.4085050,-0.1611128,0.0906785,0.1093309,0.3076016,-0.1040010,-0.4301376,-0.2835167,-0.0606239,-0.1369507,0.3602561,0.3851637,-0.2787667,-0.1649128,0.4753848,-0.3064748,-0.1847151,-0.0756039,-0.0097026,-0.0580100,-0.2040658,-0.4448784,0.0103751,0.3956275,0.0725072,0.4967409,-0.0071047,0.1939174,-0.3492211,0.0042407,-0.3636083,-0.5068597,0.2102898,0.2531869,0.2518320,0.1486973,-0.3536662,0.3187787,0.3978498,0.0762401,-0.3241660,0.2909237,-0.0239254,-0.1041170,-0.3730296,-0.0460841,0.0996547,-0.0421779,0.3965679,-0.3666752,0.4546790,-0.2034783,-0.2344663,-0.2043053,0.3407803,-0.0837199,-0.2328773,0.1088232,-0.1631207,-0.0567220,-0.5108009,-0.0152334,0.0294290,0.3140381,-0.1520119,-0.1703414,-0.0514904,-0.0146614,-0.3566808,-0.1402160,-0.4285719,-0.1817025,-0.3492063,0.0476055,0.2142823,-0.2187980,0.5180212,-0.1625975,0.2736672,0.4116492,-0.0605270,0.1360129,-0.3742530,-0.0099116,0.3908152,-0.4418480,0.4916831,-0.2940512,0.0432736,-0.1852498,0.1074951,0.0559213,0.3534187,-0.3782440,-0.1669740,-0.3080345,-0.0606664,0.2827207,0.1804503,0.0829919,-0.3574953,0.2519844,0.4058584,-0.1990733,-0.1927500,0.1212417,0.0859917,-0.1597440,0.4532493,-0.1910582,-0.2889901,-0.2224102,0.3446453,-0.2914469,0.2534108,0.2746706,-0.2932952,0.1807652,0.4181606,0.2447827,0.4855322,0.0031253,-0.2184044,0.3361841,0.1193079,0.1134609,-0.4717743,-0.4412428,-0.1038184,0.2086759,0.1417484,0.0386367,-0.0395268,0.0428278,0.3311962,0.2584050,-0.3463305,-0.1023697,-0.4441066,-0.4286108,0.1869433,-0.2805961,-0.1519894,0.0370646,-0.0992315,-0.4237186,-0.2159233,0.1036330,0.2649534,-0.3035283,-0.1567293,0.2537888,0.1997729,0.1247951,
0.0899725,-0.1809192,-0.2617440,0.1181982,-0.1221619,0.1344376,-0.1731259,-0.4804129,-0.3268761,0.2874284,0.0626256,-0.4949775,0.0472946,0.2209980,-0.0931307,0.1056432,0.2987014,-0.4057293,0.3244000,-0.3515507,0.1367500,-0.2698614,-0.2701090,0.4236587,0.3358215,0.4965078,-0.3796824,-0.3209078,0.2502966,0.3200905,0.3038872,-0.1597309,-0.3608285,-0.4578548,0.4574529,0.0149747,0.1744302,-0.2162513,0.0341933,0.3474967,-0.4290017,-0.4025273,0.3545435,0.1200709,0.3215294,-0.2412974,-0.2777769,0.1168439,-0.1458406,-0.4527638,0.2670694,0.4925569,-0.2196853,0.4973979,0.4162584,-0.3838637,0.4939057,-0.4634239,-0.2047709,0.2442092,0.3565886,-0.4008953,-0.4164468,0.4909032,-0.3663759,-0.4666575,-0.0074622,0.3027864,-0.1824767,-0.4565952,0.1715192,-0.0881992,-0.3373830,0.0216415,-0.4898095,0.4555214,0.2657105,-0.2737981,0.0760491,-0.3660756,-0.2048648,-0.1442009,-0.3676998,0.0774509,-0.1470152,-0.4514414,0.1936202,-0.1530268,-0.4142932,0.4928154,-0.4086927,0.4378706,-0.4191934,-0.3267490,0.4206957,-0.2693502,-0.2583105,-0.0138335,-0.4122084,0.0775685,0.0307087,0.2295719,0.4538134,0.1590185,-0.2616226,0.4366470,0.0789850,-0.5086846,-0.2980066,-0.2966904,-0.3420750,0.0131132,0.0612856,-0.2073018,-0.4093012,0.4166026,-0.1477643,0.3122325,-0.2075215,-0.0438740,0.3215631,-0.1337568,-0.1457476,0.3263610,0.0137475,-0.1227205,-0.3685459,0.2401566,0.2207786,-0.4309308,-0.1834312,-0.2142665,0.3264243,-0.3625485,0.2825045,-0.4968505,-0.3242753,0.0076707,-0.3973806,-0.0756209,0.2281614,-0.2303689,0.4395524,-0.1991827,0.0952305,-0.3949471,-0.2147184,0.4271387,0.2711614,-0.1342353,-0.2717279,-0.0338045,0.1624603,0.0053715,-0.1760482,-0.1024248,-0.3724903,0.0327534,-0.3580041,0.3136006,0.1855132,-0.2071008,-0.6218200,-0.1107252,0.0695280,0.3917908,0.1098641,0.3350135,-0.0561325,0.2243010,-0.2361505,-0.2984366,0.5746828,-0.1680745,0.0624345,0.0163169,-0.3323744,0.1197840,-0.0982894,-0.5533963,-0.4762690,0.1713739,-0.0455056,0.2437438,0.0103129,-0.2326676,-0.0112956,0.0335224,0.1818613,-0.1119278,-0.3592157,-0.3660010,0.1763851,-0.2636958,0.3210751,-0.1051942,-0.3097504,-0.0671498,-0.2665592,0.1654372,-0.2239400,0.1522248,0.4276200,-0.3774954,0.1418256,-0.1910913,0.1803622,0.2986018,0.4213476,-0.3135924,0.5234816,-0.4523954,0.3582249,0.1012463,-0.4351255,-0.0499067,0.1898546,-0.1710770,0.3975470,-0.3896503,0.0330750,-0.3442281,0.0821051,-0.0461923,-0.0426997,-0.1044060,0.3506649,0.1745155,0.4582593,-0.2941814,-0.1244112,0.5208282,0.1117759,-0.3028697,-0.2445773,-0.2090684,-0.0061354,0.5689337,-0.0073882,0.0291790,-0.4535884,-0.2962127,-0.1174810,0.4073038,0.2090510,-0.0476143,-0.0555635,-0.2585746,0.0189266,-0.1920222,0.1840345,-0.1531685,0.0317580,-0.2312528,0.3141165,0.5197178,0.2459815,0.2179793,0.2056671,0.0628505,0.2273254,0.4505625,-0.0280444,-0.3093915,-0.5524443,0.1485541,0.2534904,0.1538400,0.1335301,0.2194952,0.0964640,-0.1170670,0.3441284,-0.3537759,-0.0061334,-0.0190644,-0.2290431,0.2969858,0.4764608,-0.4739605,-0.3333451,0.1786124,-0.1117531,0.2299921,0.4744956,-0.2801602,0.2466357,0.1121838,0.1453204,-0.4561329,-0.7070693,-0.3842589,-0.7064835,-0.1871132,0.4208094,0.1218262,-0.1324217,-0.0720502,0.0838094,0.1379580,-0.2988387,-0.1225534,-0.4199010,0.3522061,-0.2979706,-0.0097708,0.0376683,0.1223901,-0.1831003,0.0294649,0.1565237,0.0044799,-0.3017109,-0.5573106,-0.4171707,-0.5216430,-0.6734113,-0.1779216,-0.2579982,-0.8440889,-0.6415840,0.1710867,0.2717212,0.3249706,0.0038114,-0.0786581,0.2716652,0.1925548,0.3569762,-0.1994010,-0.3495232,0.2899357,-0.0048588,-0.1972447,0.3532427,0.3139971,0.3013325,-0.1014691,-0.0574672,-0.3905117,0.3731084,-0.5780698,-0.1373316,-0.6416507,-0.7558513,-0.1961633,-0.5935054,-0.4027354,0.0311292,-0.5522391,0.0996092,0.5515681,0.3353072,0.2467134,-0.1647848,-0.1616768,-0.2213744,0.3280721,0.3022231,-0.4521736,-0.2694011,-0.3289024,-0.4545396,0.3134381,-0.0207437,0.4041684,0.1326392,-0.2296455,-0.2691833,-0.5960853,-0.3294036,-0.5036487,-0.5113700,-0.6861523,-0.3079921,-0.2833908,0.1333018,0.1327860,0.3125196,-0.0208420,0.0674176,0.2560676,-0.2398735,0.0641217,0.2538676,-0.0081647,0.3594188,-0.3616482,0.0297039,0.3792937,-0.1717824,0.2897602,-0.4555614,-0.1261458,0.1066732,0.0143700,-0.2488953,-0.3448110,0.1422922,-0.0243812,-0.1620092,-0.2050661,0.2693181,-0.1186449,-0.2807598,-0.2285421,0.4074472,0.5614648,0.2703559,-0.2583683,-0.0897897,-0.0583939,-0.2618869,0.3282605,-0.3114665,-0.3958845,-0.2041341,-0.4486733,-0.2523842,0.3028957,0.4085737,0.0735896,0.0969139,0.4560180,0.4524344,-0.2830996,-0.0250645,-0.2579499,0.0031332,-0.1308724,0.2482877,0.1755490,-0.0340596,0.2070363,-0.0901597,0.3670145,0.2255402,0.2907096,0.0432627,0.0087778,-0.2065576,-0.1512181,-0.2088482,0.0268649,0.3500534,-0.2882940,-0.0003416,-0.4153162,-0.2743761,0.2341582,0.3972671,-0.3385474,-0.1588185,0.0451266,-0.3292588,-0.2067044,0.1747880,0.0734411,-0.1493639,-0.4626630,0.3802381,-0.0675227,0.5518347,-0.0807914,0.3545956,-0.5584226,-0.5416433,0.0923766,0.4663792,0.4578438,0.0064905,-0.1978251,0.3809216,-0.1620114,0.0764980,0.1137731,-0.0053725,-0.4503127,0.2067772,0.2778235,0.3618509,0.1654681,0.3805886,-0.3899461,-0.4306369,0.3058507,-0.3757431,0.1387794,0.0069759,0.3982380,0.4103763,-0.1252078,-0.4315718,0.0765861,0.1169428,0.3706561,0.1458351,0.3745416,0.3424553,0.3134841,-0.0260702,0.3158843,0.2845436,-0.2943431,-0.4100769,-0.1650280,0.3201786,0.1713605,-0.0113680,0.1063922,-0.1642331,-0.2853703,-0.3229170,-0.4495995,-0.3960123,-0.3922998,-0.4143216,0.0675176,0.3086065,0.0519516,-0.0412625,0.2474433,0.3686979,-0.0287695,-0.1443778,0.2758613,0.0863916,-0.2589468,-0.1049878,0.4697148,0.2512554,0.2613266,0.2350725,0.0199515,0.4682635,0.4103438,0.4430508,0.3369046,-0.0397914,-0.1388964,-0.1181749,0.2351221,-0.0794388,-0.0469893,0.3832415,0.1699209,-0.0874671,0.4224852,-0.0891808,-0.0160869,-0.0680545,0.0983861,-0.4074490,0.1202948,-0.3344333,0.0711336,-0.2929196,-0.0317934,0.1282808,0.0506207,-0.0945386,-0.1326584,-0.1852035,-0.2766452,0.4980023,-0.2356392,0.4706965,0.4059383,-0.2430931,0.0576579,0.5425745,-0.0420356,-0.3992316,-0.1676307,0.1497918,0.4254478,-0.3168640,-0.2612273,0.3024208,-0.2454156,0.1068196,0.0072053,0.3821364,0.2018177,-0.4430449,0.4837311,-0.2543602,-0.2377500,-0.0676477,0.3619568,0.3271818,0.3998674,-0.2024984,-0.4316055,0.3802805,-0.3154977,0.0907819,0.4212446,0.2232756,-0.0029931,-0.0826054,0.3114343,0.1703478,-0.2163056,-0.2055726,-0.0580505,-0.1516964,-0.1941347,0.1792446,-0.2926255,-0.0361675,-0.1986671,0.3256187,-0.0584450,-0.4287394,0.3979321,-0.0859496,-0.1897740,-0.3259584,0.3858377,-0.2809433,0.4576263,0.0986400,-0.1419295,-0.3563119,0.1614958,-0.0907231,-0.0363879,0.0242910,-0.2938897,0.1851774,0.2794004,-0.2933643,0.2638041,-0.1027631,-0.0152036,-0.3325148,0.0780710,0.1237483,0.4134656,-0.5016907,-0.2781784,-0.1922641,0.3433058,0.1611442,-0.1230519,0.2446755,-0.4082260,0.2392331,0.4422366,0.4671948,0.4135995,0.3417116,0.1176180,-0.2241514,0.4712513,-0.3032668,0.1949411,-0.1676311,0.2756282,-0.4040041,-0.1507435,0.2630810,-0.2205242,-0.5160446,-0.4709604,0.2365314,-0.1690595,0.3290696,-0.0143819,-0.1607173,0.3506633,0.2101483,0.1414188,0.1947733,-0.1141396,-0.4300007,0.0186630,0.0922392,0.4148915,0.0097675,-0.0332737,0.1225840,-0.2946105,0.3999603,0.2964165,-0.3674634,-0.3773857,-0.0737194,0.0017956,-0.5629997,0.0547432,-0.5998117,0.3541894,-0.3959767,-0.3400422,-0.4517149,0.4277866,0.0444228,0.3880795,-0.0876033,0.3787674,0.2387935,-0.3759131,0.0455515,-0.0189126,0.0554831,0.1142803,0.4650710,0.5154862,-0.1474709,-0.1189536,-0.0423269,0.3924940,-0.0898167,-0.3320445,0.0122986,-0.0253691,-0.0763434,-0.3489039,-0.3365143,0.0970146,-0.5086278,-0.2311453,0.0591056,-0.3704897,-0.0582651,0.1091168,-0.4450023,0.4856794,-0.0028037,-0.0325864,0.3642690,-0.2648726,0.0911944,-0.1195450,0.1453242,-0.4580505,0.3883765,0.0186457,-0.5210022,-0.3623467,0.2140581,-0.1913596,0.4550518,-0.3575396,0.1019265,0.0940784,0.2345196,-0.3774249,0.3449907,0.4778072,0.2809502,0.3534335,-0.2532003,-0.1603769,0.4825763,0.1882961,0.4487399,-0.4624260,0.1739893,-0.0540276,0.0047446,0.0370718,0.1806723,-0.4057131,0.4219771,-0.1517978,-0.3235580,0.3453725,0.3821344,-0.2970622,-0.4855721,0.1291255,0.0329940,0.4891557,0.2838656,-0.3499796,0.0968494,0.0327364,-0.2105513,-0.0468163,0.0111187,-0.4295975,
-0.1933795,0.2579184,-0.0899743,-0.2108032,-0.0537854,-0.1412344,-0.1732292,-0.3798099,0.3047018,0.3317392,0.1586125,-0.0134229,0.4265801,0.0816598,0.3372578,-0.3946619,-0.0720910,0.2242030,-0.1918830,-0.0585718,-0.1476065,0.3434080,-0.0687840,-0.3636038,0.4935000,-0.4676398,0.1690043,-0.2170512,-0.0144560,-0.3198769,-0.1466487,0.2921645,0.4380412,0.2633737,-0.4193956,-0.1172204,-0.3823678,-0.0941260,0.0018803,0.4235637,-0.2668250,-0.3427671,-0.0877024,-0.3361956,0.2432230,-0.2504482,-0.2290922,-0.3288403,0.4739544,0.0799080,0.1140602,-0.1728778,-0.0766251,-0.4547204,-0.0364819,-0.0831251,-0.4223602,-0.3674776,0.1998228,0.0631082,-0.1873614,-0.4468872,-0.1459941,-0.2550613,0.3029531,-0.0791767,0.1070711,0.4140320,0.3143079,-0.4014975,0.3286010,-0.4425584,-0.2296460,-0.2419226,-0.2527476,-0.4397780,0.0329409,0.0194801,-0.2821341,0.0029696,-0.3960525,0.3350345,0.3313362,0.0264226,0.3791527,-0.2051457,0.4434245,0.4559612,-0.0736316,0.1431588,0.0178135,0.2400014,0.1976930,0.3670268,0.4813404,0.0249601,-0.1374216,0.1635784,-0.0068817,-0.2994979,0.3094418,-0.1706304,-0.2920099,-0.4479929,0.0847615,-0.0495948,-0.4312489,-0.4084432,-0.4966253,-0.1640041,0.1306968,-0.3810517,-0.3316539,-0.0389201,0.1457659,-0.4511997,0.2640345,0.1141506,-0.4563026,-0.2747703,-0.2167869,0.0564375,0.4526339,0.4800626,-0.0339899,0.5253662,0.0140870,0.1948948,-0.1062112,0.2473612,0.4013750,-0.1542258,-0.3324682,-0.4155629,-0.1525055,0.2912161,0.1273030,-0.0014453,0.4324664,0.1187831,0.3213604,0.0608720,0.2380178,0.4994881,-0.4491254,-0.0441178,-0.3580539,0.3639412,0.5640812,-0.3224679,0.6362977,-0.1737561,0.0491391,0.4284383,-0.3061377,0.4784473,0.2663708,-0.0066211,0.2373318,-0.0521058,0.0701166,0.1097680,0.1778285,0.2034298,0.1963843,-0.4624768,-0.0160998,-0.2416575,0.0021071,-0.0886160,0.3796440,-0.1578595,0.5168269,0.2264125,-0.0601194,0.5525525,0.6072431,0.0616435,0.5163610,0.6213022,-0.0107009,0.4276849,-0.2611576,0.2614721,0.0547436,-0.1032911,0.5697504,0.0150527,0.5352673,0.2416886,0.2776200,-0.1935222,-0.3180850,-0.0767560,-0.4704314,0.3014051,-0.0871560,-0.0014724,-0.4376527,0.4280914,0.4700884,0.5313208,-0.1888605,0.3790892,0.1360173,0.2794336,0.5377498,0.2336432,0.5934815,0.3374909,0.2817433,0.0582166,0.1818135,0.3945212,-0.1557977,0.4122713,0.5205596,-0.2438672,-0.0494960,0.2861045,0.2332364,-0.2921179,-0.2659099,0.4205061,0.0674760,-0.2621932,0.2253389,0.5017144,0.3109184,0.3238757,0.3551755,0.1289069,0.3045375,-0.1824238,0.1433942,-0.0309267,0.4231938,0.1431716,0.7377299,0.5436289,-0.0843814,-0.0023694,0.2637639,-0.2934729,-0.4757627,-0.3574198,-0.0429164,-0.4983888,-0.2101356,0.3783388,0.4170486,-0.4196580,-0.4858013,-0.3710415,-0.4850447,0.1130966,-0.0781718,0.1644672,-0.0412968,-0.4546313,-0.0905993,-0.1058455,0.1302787,-0.2813995,0.0975007,-0.2435205,0.0590302,-0.0180432,0.3080789,-0.2313317,0.1114322,-0.0227877,0.0012588,0.1741185,-0.3437458,0.1772918,0.4245131,0.1426250,0.2260626,-0.3090978,-0.0742714,0.1223615,-0.2207252,-0.0157905,0.2547020,-0.3633590,-0.6804435,-0.6994459,0.0790424,-0.2475888,-0.4930673,-0.2180147,-0.6856513,0.0296692,-0.2172493,-0.0556718,-0.4507103,-0.5265131,0.0239276,0.0588147,-0.1157951,0.2369553,0.0861373,-0.3728876,0.0532453,0.3294210,0.3516636,-0.1002345,-0.1383516,0.0554234,0.0933634,0.3284811,-0.3468235,0.0669930,-0.7340935,-0.2104836,-0.8987978,-0.5424977,-0.5983637,-0.5822055,0.0586117,-0.7480344,-0.5353148,-0.0781699,-0.5788884,-0.3267910,-0.0085102,-0.1929790,-0.1884779,-0.2955102,-0.3228133,-0.5734787,-0.3516548,0.5046254,-0.3160991,0.1975085,0.2695622,-0.4808312,-0.3971939,-0.3425786,0.0231935,-0.1323873,-0.1318230,-0.4153519,-0.4117720,-0.4954982,0.2291276,0.0941500,-0.2763575,-0.1486617,-0.1465030,-0.6004431,0.1960090,-0.2524910,-0.2358463,-0.3934750,-0.1261266,-0.2327928,-0.0747570,-0.4814454,-0.5221809,-0.4940467,-0.3664474,-0.3049808,-0.4997700,-0.1910706,0.4017134,0.2760664,-0.2120136,0.2735704,-0.0243404,-0.0610551,-0.0758259,0.2775632,0.2117146,-0.2620424,0.2931539,-0.4389667,0.0866797,-0.3520171,-0.6754510,-0.0584762,0.1389939,-0.4461749,0.1071309,0.0587208,-0.3499451,-0.1384311,-0.2385183,0.3359480,0.0124166,-0.2052393,0.3560821,0.1412785,-0.0052920,0.3594307,0.4336982,-0.2208635,-0.0878734,-0.3764942,-0.1004093,0.0080728,-0.3780600,-0.5024956,-0.1050847,0.2075492,-0.3433284,-0.2511266,-0.6301584,0.1258857,0.1152787,-0.3307241,-0.1097997,-0.1797231,-0.2758322,-0.2455787,0.4340530,-0.1595694,0.1035818,-0.2862358,-0.3165392,-0.4011221,0.0118576,-0.4457217,0.2561853,0.4651478,0.2835671,0.0907847,-0.0773757,-0.0485789,0.3158789,0.0975465,-0.3714699,-0.3197106,0.1006353,-0.3215956,-0.0141380,-0.0574918,-0.0227012,-0.3723808,0.5227719,0.0105545,-0.2422621,-0.1908776,0.1598665,-0.1495500,-0.0517971,0.0551529,0.1664203,-0.4848754,0.2724465,0.3844831,-0.3186619,-0.2087721,0.2399561,0.0618465,-0.5464441,-0.0005323,-0.1611719,0.0116191,-0.1601941,0.1043741,-0.2497485,-0.4661576,-0.2912187,-0.6252072,0.1673194,0.2530983,-0.2175679,0.0982863,0.1585654,0.4571756,0.4254516,0.3152794,-0.3953601,-0.0460206,-0.4055977,0.0068388,0.5097176,0.3136164,0.1358056,0.2766026,-0.0636605,-0.2503347,-0.9212355,-0.4140802,-0.1674239,-0.3441822,-0.5113292,-0.6977594,0.1249415,-0.1995981,-0.1305577,-0.2125562,0.4353407,-0.0825222,0.1971700,0.2646682,0.2084152,0.1027822,-0.2288441,-0.1914917,-0.1355266,0.4862474,-0.4790752,-0.0654309,-0.0548552,-0.3169940,0.5691529,-0.0307751,0.1969764,-0.3586421,-0.5998005,-0.2823227,-0.5825810,-0.7316645,-0.2168809,-0.3665856,-0.3325190,-0.3601735,0.1682805,0.0043102,0.3353868,-0.0913917,0.6176332,0.4494977,-0.1648556,-0.0427736,0.1312075,0.4683234,0.3413587,0.1869828,-0.3139874,-0.3094441,0.1830222,-0.2052284,0.2800134,-0.2996674,-0.2117346,-0.1452136,-0.1735175,-0.3685742,-0.4535938,-0.0552480,-0.1842241,-0.5567248,0.3115156,0.3088065,0.3874067,0.0135084,0.3385584,0.0664647,-0.1527188,0.4680804,0.0126021,0.5089887,0.2238593,0.2421727,-0.2687221,-0.3383886,0.1296654,-0.4432279,0.3528928,0.4239293,-0.0600661,0.1638116,-0.4121904,0.2543504,0.0827290,-0.0381433,0.0823238,-0.1283589,0.1686003,0.1574559,0.5842218,0.1066376,0.4317491,0.2533131,0.3113858,0.0498523,0.0799348,0.3352231,0.1648489,-0.0366439,0.2292716,-0.4235735,-0.2308534,-0.2054360,0.2460732,-0.0163588,-0.0325020,-0.0357605,0.2069143,-0.0678392,-0.2288273,0.2687939,0.4332403,-0.1215942,0.2846179,0.2137872,0.4194386,-0.0350150,0.4306330,-0.0460970,0.3210854,-0.1311963,-0.0216810,-0.0840826,-0.1952225,-0.3515396,-0.0548981,0.1780225,-0.3754217,-0.4420855,0.4913450,0.2360107,-0.4080062,-0.2473917,-0.4591208,0.3909987,0.3298133,0.0982079,-0.1842642,-0.1965942,0.4139728,0.2517401,-0.1686228,0.2894288,0.2225950,0.2845545,0.5873543,-0.1136723,0.4399201,0.1487316,0.0005213,0.0097348,0.4164527,-0.0359600,0.0097573,-0.2248322,0.3442034,0.4440168,0.3428750,0.4150985,0.4869812,0.3315313,0.1538531,-0.3871604,-0.3223028,0.3095242,0.5792007,0.4679389,-0.2900769,-0.1176579,-0.0792063,0.5443961,0.0093522,-0.3091750,0.1967481,-0.1425574,0.4096179,0.0853442,-0.1230869,0.0628298,-0.6222309,0.0072253,-0.4599156,-0.4645351,-0.2728159,0.0617953,-0.2278496,-0.4387664,0.0040169,-0.3859224,0.4770819,0.0177867,0.5132595,0.2480861,0.2652859,-0.1911939,0.0190854,0.1379426,0.4546754,0.0608879,0.1842368,0.5323817,0.0468574,-0.2316434,-0.3876046,0.4147778,-0.3252912,0.2253042,-0.2384368,0.0421438,0.1559061,0.0169459,-0.2394773,0.2277977,0.0668632,-0.0228641,-0.2124182,0.3383986,0.0384199,0.2929546,0.4696013,0.0437723,-0.1761378,0.4909448,-0.2110038,0.5065803,0.5597759,0.1880234,0.0418373,0.3893925,0.4389227,0.4263659,0.1663245,-0.2505654,-0.4789839,0.2255054,-0.3191023,-0.1352911,0.3084153,0.2406697,-0.4364936,-0.0130613,-0.2293123,-0.1821026,-0.2870137,0.3376154,0.2950333,0.0005651,0.1762174,-0.1699647,-0.2133540,0.1263337,0.3334133,0.0261733,-0.0073576,0.4799513,-0.0889802,-0.0543880,-0.0304102,0.3165745,-0.2485708,-0.1470500,0.2358612,0.4612408,0.1974600,0.3285279,0.2880369,0.4915594,-0.2438414,0.1012844,0.2359043,-0.1810352,-0.4121903,-0.4934086,0.1368622,-0.1992040,0.3442089,-0.0680455,0.3013375,0.0197058,0.2652074,-0.4062524,-0.3502615,0.1138606,0.1719607,0.1851234,0.1118179,-0.4002146,-0.3651214,-0.4502073,0.3665596,-0.1366560,-0.0894539,0.0864241,-0.1802480,-0.3790472,-0.0774594,-0.3939623,-0.3867517,0.1786951,
0.2073220,0.3491526,0.4976599,0.2951317,0.3557440,0.1345221,-0.4040723,0.1999507,-0.4335823,0.3972917,-0.2798284,0.3317162,0.4908502,-0.1310275,-0.0548529,0.1591181,-0.4558307,-0.4512586,0.2547434,-0.3261376,-0.4062205,0.1172803,0.0358543,0.0055443,-0.2958461,0.3547037,0.1263113,0.1266944,0.4607413,0.2395596,-0.1946104,0.1680634,0.0887160,-0.1969251,-0.0322863,-0.0460349,0.4448243,0.0640058,-0.3463180,-0.4843866,-0.0329577,-0.1239942,0.3382226,-0.0511829,0.2372334,-0.2143119,-0.3874683,0.2847494,-0.1667671,0.3644540,0.4557421,-0.0753155,-0.0216228,-0.0126530,0.4288856,0.1825311,-0.1579493,0.0551969,-0.1907746,-0.1964910,-0.2048681,0.1146918,0.4752076,0.4011869,0.4395711,-0.0404987,-0.1306240,0.3994947,0.5436168,0.0389843,0.4187125,-0.0050377,0.3713472,0.2147138,0.4052587,0.0698278,0.4843582,-0.4853380,-0.1440148,-0.1885037,0.3658806,-0.2006256,0.2286545,-0.1573477,0.2868414,0.1575401,-0.4751187,-0.3687003,-0.2880787,-0.1662460,-0.0515097,0.0471313,0.5117818,-0.0143650,-0.0038429,0.4757926,0.4550660,0.3922838,0.3792277,0.4539323,-0.1738305,0.1929992,-0.1232052,-0.4035011,-0.2074650,-0.3371933,0.1024455,-0.2099904,-0.2767891,0.4471782,0.0600875,-0.4563714,-0.2540043,-0.2142008,-0.1147364,-0.4671476,0.4422886,-0.0909097,-0.3111965,-0.2662097,0.3746034,0.2289055,0.2799474,0.2568029,0.5773357,-0.3093688,0.1405514,0.4071588,0.3666167,-0.1253782,0.1589216,0.4063211,0.3079829,0.3483644,0.4335542,-0.3848933,-0.4142333,0.0771029,-0.1092142,-0.2015166,0.0377678,0.4497195,-0.1588452,0.2830403,-0.2606362,0.2292529,0.3605733,-0.2162063,-0.2267792,0.5268115,-0.1882722,0.2911259,0.0806532,0.5533065,0.1445485,0.2740810,-0.0810688,-0.0305218,0.0589035,0.3246318,-0.0981815,-0.4880215,0.1594153,-0.3240584,-0.5545688,0.2388351,-0.0795214,-0.3780604,-0.1248689,0.3224017,-0.0808488,0.4169747,0.2753739,0.2606933,0.2296004,-0.4024721,0.0137784,-0.0589398,-0.4822577,-0.1025006,-0.0895088,-0.0758284,-0.0658404,-0.3402328,0.2053075,-0.1764069,0.3546723,0.0917164,-0.2598917,-0.4540965,-0.2112341,-0.0272464,-0.5266735,-0.3815801,0.4177956,-0.4041552,0.4744083,-0.1262993,-0.2824730,-0.1562258,-0.3189479,0.1276397,-0.2443034,0.4408137,-0.2326893,0.2762236,0.2166939,0.1196477,-0.2800862,-0.5419973,-0.0918918,0.3519822,0.1266641,-0.2689362,-0.2160799,-0.2150942,-0.4060461,0.1200409,0.1436693,-0.3378748,0.0387647,-0.4314918,0.4634621,0.2794943,-0.1324843,0.4402001,0.3700003,-0.1738010,-0.2283592,-0.4257330,0.1636184,-0.0536224,0.0632651,0.2209809,-0.2089327,-0.6180240,0.1516911,-0.1808550,-0.4177748,-0.0405293,0.2113681,0.2669559,0.0663528,-0.1293303,0.0021835,-0.2076686,-0.1682629,-0.0271107,-0.6658276,-0.3650131,-0.5283035,0.2163426,-0.0425091,-0.4890661,-0.0034437,0.3080829,0.4118853,-0.1208617,-0.3606053,-0.3235785,-0.1973877,0.0865664,0.0894148,-0.5890318,0.0850188,-0.1691265,0.0991860,0.3678888,0.2834713,-0.0599731,-0.2750240,-0.1393072,0.3320522,-0.1587128,-0.0281161,-0.1957357,0.0938250,-0.5623330,-0.3805294,0.3631442,-0.0855630,-0.3167373,0.0764356,0.3484864,-0.3640224,-0.4345531,0.0757212,-0.5544429,-0.3201466,0.0825741,-0.3246163,0.2139250,0.1333743,-0.1813493,-0.1731027,0.0150929,-0.1858108,0.0160123,-0.1861175,-0.3328615,0.3879795,-0.2454839,-0.0844780,0.3274073,0.1696796,-0.5571548,-0.1524711,0.1357270,-0.2522952,0.0745649,-0.0036207,0.1380783,0.1422740,-0.4988544,-0.1471579,0.1977349,-0.5642249,-0.4047795,-0.5412969,0.1208707,-0.3392683,0.1198456,0.0787797,0.0247985,-0.1024956,0.2221189,-0.1060418,-0.2095687,-0.1017747,0.0803703,-0.1052998,-0.0130817,0.4922857,0.2421594,-0.2277648,0.2443273,0.4157961,0.2109243,-0.1200891,-0.3621954,-0.3493924,0.2750385,0.1844152,-0.6357346,0.3491626,-0.1547007,0.4112208,-0.3097712,0.1863453,-0.3725322,0.1776337,-0.0795155,-0.0739862,-0.0329947,0.1406123,-0.0982243,-0.2586086,0.2988828,0.1339405,0.4803166,0.1322765,0.3056103,-0.3683046,-0.1502528,0.0991704,-0.0435418,-0.4067590,0.0027732,-0.4439091,-0.1275316,0.1296030,-0.1204993,-0.1747929,0.0392293,0.0913274,-0.0205732,0.4166391,-0.1132445,-0.1852032,-0.2470742,-0.0089335,-0.1287863,-0.2092231,-0.2433507,0.1581115,0.0782891,0.1466264,-0.0291660,0.2305338,-0.4406063,0.4063367,0.3701742,0.3280209,-0.4373338,-0.2789874,-0.0772162,-0.0249817,-0.1904378,0.4618446,0.1939796,0.3547326,0.3037859,-0.1050990,-0.0301411,-0.3002587,-0.0783062,-0.2715204,0.1445302,-0.5506579,-0.4529155,0.1020459,0.2412078,-0.2285252,0.0211423,0.4703742,-0.0531297,-0.0839268,0.0325890,-0.1244686,0.1747692,0.0356026,-0.2166914,0.0468565,-0.1334559,-0.1272592,0.3945841,0.3699291,0.4795122,-0.2489151,0.4367762,0.3680471,0.5102687,-0.2610869,-0.0377221,-0.6549074,-0.3258725,-0.3850478,0.0470142,0.0598927,-0.0141567,0.0508665,0.2932390,-0.2589817,0.6742946,0.1726000,-0.2845557,-0.2973597,0.2188886,0.1750241,0.0689096,-0.1052594,-0.2656391,0.3987905,0.5847714,0.2551391,-0.1682730,0.4075052,0.1811079,-0.0537401,0.4927240,-0.4729573,-0.0579069,-0.0353576,-0.2685824,-0.3177464,0.2057027,0.4773105,0.1308329,-0.2559621,-0.1658638,-0.3016732,0.5891528,-0.0355387,-0.1211156,0.4051971,0.3234622,-0.0103273,-0.4104908,0.0472380,-0.3128509,0.1505878,0.5365107,0.0893817,0.1833935,0.5107535,0.6479877,0.5789312,0.3016398,-0.1522134,0.0817622,-0.3390006,-0.1919875,-0.0669681,-0.4113389,0.3438361,0.1784349,0.1860074,0.2494445,-0.0242341,-0.2630956,-0.1901847,0.0056210,0.4977890,0.0266626,0.2641197,0.3824818,-0.1525442,-0.2376092,0.3991696,0.4594719,0.0919131,0.2850994,0.3394897,0.3415350,-0.0658898,0.4286694,0.3597476,0.1936488,-0.3424374,-0.3723115,0.2739936,0.0777236,-0.0494979,-0.4509637,0.1842098,-0.1220840,0.3314683,0.1530780,-0.2525046,-0.4047798,0.0717910,-0.1542204,-0.0179340,0.0594134,0.3657165,-0.2527742,-0.1208493,-0.2324092,0.1966751,0.0932226,-0.4330422,0.4541146,-0.1577803,0.7889938,0.4105599,-0.3745454,0.0441292,-0.0349523,-0.4702371,0.2672211,0.0135614,0.2350236,0.1229979,0.5298298,0.2352329,-0.1325723,-0.1000943,-0.1076244,0.2659583,-0.0297638,-0.0892202,-0.1678152,0.3172576,0.4017599,0.3853762,0.2498406,-0.1722760,0.0431422,0.4384515,0.2324618,0.4486141,-0.3135049,0.1159859,0.2197942,0.3151210,-0.2600155,0.3335299,-0.0635980,0.2589339,-0.3836489,0.0779201,-0.2189734,0.1956996,-0.3529720,-0.2431384,-0.1562168,-0.1299190,0.0590049,0.2123003,-0.3685502,-0.4660193,-0.3687391,-0.0392120,0.3877760,-0.3253180,0.0074587,0.1418402,-0.2245089,0.3004925,0.0102190,0.3480883,-0.0268604,-0.0415846,-0.1753316,-0.3552913,-0.1218244,0.1987161,-0.2364333,-0.5049641,-0.1598445,-0.2418420,0.0632858,0.1003519,0.3938729,0.1216414,0.3196530,-0.2725684,0.4869180,-0.1141458,0.4496380,-0.3790398,-0.0287324,-0.3233485,0.1917042,-0.1455528,-0.2618238,0.5449855,0.3488766,-0.1652065,0.2300542,-0.1709107,-0.3376013,-0.3602068,0.1868841,-0.1563275,-0.2781583,-0.4548758,-0.5003451,-0.0002971,-0.3800213,-0.1450168,0.2086556,0.1403722,0.4395615,0.0903855,-0.2416451,0.2629890,0.3200214,-0.2639245,-0.3409242,0.3155663,-0.0851246,0.0930551,0.4614655,0.5347089,0.3895886,0.4497245,0.4443220,0.1647969,-0.3193305,-0.0801433,0.1388424,-0.4916505,-0.0188338,-0.0730298,-0.0006129,0.3239371,0.0852487,0.0439200,-0.1626908,0.2046856,0.3917353,-0.4641031,-0.1562894,0.3335487,0.1269627,0.0983270,0.0678354,-0.1212744,0.2623327,0.1698707,-0.2764645,-0.2053280,-0.0953073,-0.3098528,-0.2516237,-0.4176985,0.3213898,-0.6324104,-0.0499986,-0.5844446,-0.0358317,-0.1252743,-0.3734224,-0.4356426,0.4437552,0.2548462,0.4576982,0.0519162,-0.2031428,-0.2138800,-0.2453894,-0.3111890,-0.1773937,0.0975164,-0.4930436,0.4059821,-0.4039418,-0.0463987,-0.2866299,-0.6308251,-0.3525885,-0.1070917,-0.4213437,-0.0633474,-0.0683092,-0.2601523,0.0155853,-0.0853870,-0.1170505,-0.2243389,0.0326896,0.4698469,0.3019675,0.3028751,-0.3962620,0.2691349,0.0607155,-0.4443550,-0.1813037,0.3575727,-0.1582388,0.0727554,-0.4546235,0.1547175,-0.3610654,-0.4778719,0.0619860,-0.1705787,0.1311624,-0.5271170,-0.1302524,-0.5505852,0.0337779,0.1151158,0.0674989,-0.3232203,-0.4174147,-0.2051481,0.2235526,0.0309751,0.1538362,-0.1573633,0.0433558,-0.0332143,-0.3513356,0.1461056,-0.2652845,0.2093799,0.2017505,0.0534029,0.0668827,-0.4569632,-0.3746447,0.1108979,0.2039603,-0.2041041,0.1779112,-0.1828291,0.1646247,-0.1544059,-0.1849683,-0.4199922,-0.1410202,0.4145790,0.2659290,0.4964780,-0.3681335,0.3500487,-0.1893268,0.3887498,-0.0907594,0.4707923,-0.2683491,
0.4526188,-0.0624221,-0.1196848,0.0987244,0.1722935,-0.4103049,-0.1995251,-0.2742947,0.1566476,-0.1560096,-0.1475758,-0.2302346,-0.4485931,0.1510229,0.4489272,-0.1293340,-0.1788672,-0.1954387,0.1945253,-0.0887572,0.1754196,0.1169136,-0.3201405,0.1744865,0.2538934,-0.4578255,0.4878076,0.1426433,-0.0485849,0.4585999,0.3742942,-0.0959661,-0.1038120,-0.2453597,-0.4965866,-0.4299992,-0.1526965,-0.1934440,-0.2014082,-0.4951756,0.1525933,0.1505209,-0.2301027,0.1993779,-0.2009044,-0.2764318,-0.4261811,0.1235228,0.0273999,0.2658898,-0.4690102,-0.2999350,-0.1193833,-0.2903930,0.3741220,-0.3654899,-0.2482186,0.3619296,0.2771568,0.2032051,0.3206512,0.1514947,-0.3922442,-0.2795524,0.4142375,-0.3759213,-0.1941423,-0.2298544,-0.0675090,0.1043846,-0.2227826,-0.4196080,-0.2525677,0.0509405,0.2889283,0.0504683,0.2589203,0.3428272,-0.3472158,-0.2283650,0.0936337,-0.3281713,-0.0344628,0.4724542,-0.1188133,-0.1603409,-0.3933498,0.1332360,-0.2981780,0.3837485,-0.1635757,-0.4744445,0.0431975,-0.0417612,-0.2343635,-0.0273337,0.0672808,0.0486722,0.2390710,0.5058838,-0.3449380,0.5101940,-0.3843777,-0.1054430,0.0156629,0.3289562,0.3866893,-0.2741895,0.1215020,0.4965025,-0.0253896,-0.2940206,-0.3339452,0.4384535,-0.3226631,0.0467925,-0.2230958,-0.2182565,-0.3326209,-0.0347459,-0.3655271,-0.0176063,-0.0307505,0.1749111,0.4036161,0.1534520,-0.3960679,-0.0312592,-0.2386259,0.4193061,0.0860195,-0.1097082,0.2484985,-0.0006150,0.2289279,-0.2126392,-0.1748592,0.0630192,-0.0429558,0.4071029,0.0444406,0.4272440,-0.3873017,0.2060897,0.3517762,-0.2363331,-0.2873000,-0.4090505,0.0026547,-0.1302491,0.0360892,0.1108718,0.3278346,-0.4401809,-0.1227956,0.3270559,0.4451955,0.2864615,0.0423023,-0.3176723,-0.0482111,0.4199518,0.0909614,-0.1700700,-0.0314594,-0.2778719,-0.0272104,0.2070775,0.2459208,0.4203821,0.1131194,-0.2223224,0.3224460,0.1782970,-0.5765397,0.1274533,-0.5463405,-0.3257938,0.1673990,-0.1066092,0.0895723,-0.0380067,-0.1884792,0.1306544,0.0930248,0.2533235,-0.0750369,-0.1013230,-0.1252847,0.4798226,0.2065303,0.4675887,0.5146930,-0.3315174,-0.4287104,-0.1851227,-0.2028380,0.0119102,-0.4826515,-0.4764144,-0.1132608,0.0578151,-0.2930174,-0.3311964,-0.2016807,-0.2667893,0.2637617,-0.2819915,-0.0208370,0.2864547,0.3295007,-0.3054094,-0.2595349,-0.3227861,0.2074031,0.2253236,-0.4611040,0.0309868,0.0057284,0.1464743,0.1754931,-0.3705170,-0.1388320,-0.1005943,-0.3871435,-0.1320760,0.2040464,-0.1221082,0.3109678,0.1103108,-0.1886284,-0.3205870,-0.2089095,0.2634045,-0.0048310,0.1410370,-0.4592984,-0.0982894,-0.7286926,-0.0397956,-0.1703788,-0.5464355,-0.6108385,0.2432286,-0.0545611,0.5417009,0.2976391,0.1627854,0.1801304,-0.2484405,0.5204659,0.4495545,-0.3745775,-0.1908745,-0.1654067,-0.3046097,0.1048142,-0.5756224,0.0340109,0.0038677,0.3874032,-0.2424107,0.4267597,-0.3572397,0.2736602,-0.2384463,0.0498997,-0.7635716,-0.5727622,0.4278882,0.1846084,-0.0058120,-0.3489756,0.3392465,-0.0980348,0.1599505,0.4113197,0.5963021,0.4437764,-0.3814713,-0.4235450,0.4006866,-0.4574173,-0.3514903,-0.3725486,-0.2120219,-0.1088615,0.4433220,0.1443821,-0.1987178,-0.0141115,-0.3045501,-0.3672391,-0.2717265,-0.2444106,-0.6093678,0.1445265,-0.2250801,-0.4033702,0.3847534,-0.2359902,0.3467877,-0.0506102,-0.0479232,0.2294094,0.2117187,0.2059362,-0.2987620,0.0537210,0.0849074,-0.2157323,0.0582415,-0.1166081,-0.1818961,0.3836275,0.2864651,0.3764668,-0.1357026,0.1002499,-0.2636058,-0.0493443,-0.3432007,-0.0540069,-0.1498438,-0.2907095,0.2730385,0.0539365,-0.2929517,-0.4125144,0.1780561,-0.4589889,-0.0563466,0.1193570,-0.0984644,0.1025081,-0.4479024,0.4344042,-0.2379838,-0.2720322,-0.0778028,0.2661132,0.0396024,-0.3002128,-0.0845610,0.4658323,0.4798547,-0.3181769,0.4088528,-0.0996281,0.2922943,0.4059727,-0.1257581,0.0888880,-0.1314027,-0.4178290,-0.2932366,-0.1262343,0.3012665,-0.2198721,-0.0035875,0.0204350,-0.2205564,0.2905910,0.4920021,0.1118728,-0.1225564,-0.4706157,0.0084590,0.0947862,-0.1897495,-0.3948673,0.0814218,0.4432392,-0.1499039,0.6056894,0.5825381,-0.1410409,0.5670293,-0.0423943,-0.2618402,0.0242935,-0.0614330,0.4083372,-0.0771697,-0.4333876,-0.4180543,-0.0445591,-0.1303341,0.3372766,0.1846606,0.2886449,-0.2232192,0.4456400,0.0797288,-0.2347978,0.0401575,0.4442135,-0.1341850,-0.3334008,0.1590980,0.2046453,-0.1045397,-0.1334173,0.2503826,0.0249108,0.5680556,-0.2374547,-0.1400481,0.2884297,0.1658394,0.0723600,-0.1041606,-0.1918554,0.0690817,0.3506088,-0.1131702,0.1981759,-0.2274961,0.2218173,-0.0165303,0.4605594,0.0196850,0.2626900,0.4085958,-0.4125508,-0.4393496,-0.0228404,-0.4903781,-0.1759571,0.2084809,0.3134768,0.6020454,0.3143363,0.2436856,-0.0551526,0.3804487,0.1383545,0.0324937,-0.2981636,0.0121309,-0.0576864,-0.4492330,-0.2714128,0.4723254,0.2475292,-0.3949500,-0.1467003,-0.0734554,-0.0961372,-0.4083589,0.4111302,-0.1273460,0.0896170,0.1767650,-0.2451038,0.0979027,0.0703846,0.2179577,0.3924336,-0.2633145,-0.1097289,-0.0329621,-0.4802249,-0.5381504,-0.3191136,-0.0710487,-0.5158997,-0.6041924,-0.3830412,-0.1404573,0.2014190,0.2875293,0.0200752,0.4665868,0.2358455,-0.2383847,-0.3992597,-0.3884876,0.1922306,0.0082551,-0.3035955,0.1289777,0.4659134,0.3119106,-0.2698412,-0.3369788,0.1363746,0.5571684,0.3243325,-0.3356242,-0.6201380,-0.3199725,0.3647250,-0.3721507,-0.2650258,0.4005724,-0.0180243,-0.3299392,0.4403389,0.2195731,0.1036210,0.1898036,-0.0355444,-0.3975641,0.1827876,-0.2772006,-0.1326525,0.2916446,-0.1405204,-0.3818618,-0.0340718,0.2101847,0.3006906,-0.2104886,-0.1067732,0.2883198,-0.3962551,0.1338657,0.2287114,-0.2469313,-0.1223371,0.5164241,-0.1065665,0.3638395,-0.4794539,0.0015120,0.3671414,0.0595095,0.2338689,0.3467177,-0.2927785,-0.1940615,0.0618081,0.1890538,-0.0860022,-0.2463292,0.4467884,0.3846039,-0.2661745,0.0247646,0.6433108,0.0340961,0.3609644,-0.0601635,-0.1423620,-0.5037096,-0.1275999,0.4371299,-0.3517806,-0.1059312,0.5102772,-0.3299874,-0.2104196,-0.2286059,-0.3677324,-0.1627632,0.3074769,0.4723633,0.3204138,0.0417880,0.3515137,-0.4560009,0.3570692,-0.0775855,0.2439712,-0.1358681,0.3546301,0.4277322,-0.2038105,0.3219760,0.4248713,0.3825829,-0.4555801,0.2052901,-0.0964002,0.1302267,0.2967567,0.2872269,-0.1895793,0.2913160,-0.3803357,-0.3084350,-0.4162724,-0.0245233,-0.0442085,-0.3692430,0.2502307,-0.1923198,-0.3625557,0.0825749,0.3540955,0.4998343,0.1421873,0.2634702,0.0457047,0.0552637,0.6114925,-0.3828827,-0.4639035,-0.4133039,0.3920304,0.5505349,0.5269268,0.3188620,-0.0600411,-0.3650435,-0.3309643,-0.1480098,-0.4355811,0.0246760,-0.1761220,-0.2675002,0.1502537,-0.2243032,0.1454459,-0.3413084,-0.0707170,-0.0980964,-0.0272494,0.0719364,0.4987731,-0.1680153,0.1220869,0.1777227,-0.4405487,0.4327840,0.5094563,0.5968461,-0.2955237,0.6603811,-0.4366143,0.2022074,0.1868593,0.1967178,-0.0564489,-0.0031129,-0.2795624,0.3293954,0.4585699,-0.2798175,-0.2860365,-0.3681314,-0.0984124,0.3997207,-0.0798452,-0.4512153,-0.4361672,0.3609222,-0.0455487,0.0165675,-0.1067301,-0.0831295,0.3827637,0.5301280,-0.3486983,0.4481094,0.4871134,-0.4580131,0.2775732,0.2943036,0.3393945,0.2582449,0.2204721,0.4693875,0.3625671,-0.1955857,-0.0944221,0.4037553,0.4718250,-0.2558647,-0.4124645,-0.2970327,-0.1155481,-0.0072632,-0.3946312,0.3101023,0.0339581,-0.3921216,0.0695368,0.4347327,0.2014439,-0.2472685,0.1562394,0.1917295,-0.3026019,0.1066929,-0.0775822,0.4416185,0.0119171,-0.2209925,0.4951282,0.0950578,-0.3126159,0.1664532,-0.1009691,0.3580412,0.3674556,0.2380618,0.2380142,0.3421711,0.4866045,0.3284466,-0.4545703,-0.1287260,-0.1930893,-0.3931761,-0.3726009,0.2846061,-0.2739751,0.2964618,0.3654786,0.4093385,0.3316425,-0.2093574,0.0007954,0.3665598,0.1918529,0.3904692,0.4099386,-0.2247671,-0.3168986,0.3387197,0.2522935,-0.2258698,-0.0302943,-0.3876069,-0.3821612,-0.1657616,0.3504497,0.3554790,-0.3235905,0.3370487,0.1835188,-0.2818126,-0.2989214,-0.5088166,-0.1473111,-0.1159185,0.3490373,0.1296005,-0.2967930,0.1778222,0.0685313,-0.4667623,-0.5624660,-0.3707991,-0.4970783,0.2341084,-0.3984381,0.4641351,-0.4931318,-0.2217014,0.3042295,0.2435726,0.0462528,-0.2266979,0.3559209,0.1638351,0.1075406,0.2063706,0.0193123,0.2839397,0.0433980,-0.2969408,-0.4956694,0.2486873,-0.2977695,-0.1243534,-0.3644700,-0.4383046,-0.4652791,-0.1576979,0.2912139,0.2101504,-0.0559668,0.2962643,0.4206478,0.0121291,0.0609368,-0.4646408,-0.0124800,0.0716443,-0.1872776,-0.2081969,
