0.3401877,
-0.1056171,
0.2830992,
0.2984400,
0.4116474,
-0.3024486,
-0.1647772,
0.2682296,
-0.2222253,
0.0539700,
-0.0226029,
0.1288709,
-0.1347819,
0.0143808,
0.4522636,
0.4161965,
0.1357117,
0.2172969,
-0.3583974,
0.1069689,
-0.4836994,
-0.2571132,
-0.3627684,
0.3041768,
-0.3433209,
-0.0990556,
-0.3702096,
-0.3911912,
0.4989245,
-0.2817431,
0.0129324,
0.3391122,
0.1126401,
-0.2039588,
0.1388174,
0.0269816,
-0.0041861,
0.4745904,
-0.2022812,
0.2772149,
0.0404913,
0.2768355,
-0.1025439,
0.3976257,
-0.2160898,
-0.1453793,
0.3214677,
0.4427486,
-0.4180353,
0.4513630,
0.0279733,
-0.4131252,
-0.3077862,
0.1632269,
0.3902326,
-0.1511071,
-0.4358287,
-0.4799770,
-0.0422917,
-0.4369184,
-0.2616717,
0.4707104,
0.4038751,
0.3588368,
-0.2193595,
0.0679507,
-0.0840700,
0.3089734,
0.0747046,
0.2325099,
0.1095714,
-0.3654769,
-0.0000811,
0.5015328,
0.4567718,
0.2477735,
-0.1845423,
0.2608259,
0.1551562,
-0.1336661,
0.1833992,
-0.3383534,
-0.0598955,
0.3800752,
0.3292011,
-0.1696629,
-0.2722673,
0.3929715,
-0.1534004,
0.1914467,
0.4702552,
0.1258212,
0.2067778,
0.4163940,
-0.0046391,
0.5276802,
0.0025960,
0.4569493,
0.3018180,
0.5154603,
0.0246035,
-0.3163147,
0.4673190,
0.5238296,
-0.3683776,
0.3801885,
0.1791185,
0.0044435,
0.1484569,
-0.2404074,
0.2846310,
-0.1925421,
-0.0529664,
-0.2738937,
-0.3166277,
-0.2257591,
0.0609050,
-0.0367003,
-0.2754568,
0.4595116,
-0.3119054,
-0.2601232,
0.0916384,
0.2574899,
0.5854638,
0.5568599,
0.2067226,
-0.2092612,
0.1751676,
-0.1985425,
-0.2437680,
-0.2276567,
0.0064847,
-0.3234547,
-0.3586674,
0.2386619,
-0.3814396,
0.2737233,
-0.3330613,
0.2520008,
-0.4254702,
0.4501040,
-0.4478361,
0.0163313,
-0.3020140,
-0.2020409,
0.3726948,
0.2715407,
0.1608721,
0.4828205,
0.0685246,
0.1059873,
-0.4178559,
-0.3681803,
-0.0490434,
-0.4487092,
-0.3035594,
-0.2323902,
-0.1327951,
0.1778810,
-0.0994590,
0.1612508,
-0.5376520,
-0.3286042,
0.5431263,
-0.2943180,
0.4121492,
-0.3643921,
0.4977990,
-0.4459366,
0.3677800,
-0.4326204,
-0.4743546,
0.4790066,
0.1782122,
-0.3515672,
-0.5100200,
-0.2686859,
0.2443038,
0.2269786,
-0.3187176,
-0.1117117,
0.0932646,
0.2231591,
0.3863492,
-0.5033471,
-0.1856122,
0.0055336,
-0.5144248,
0.2553328,
-0.1255751,
0.2682966,
0.2126783,
0.1256414,
-0.4539894,
0.2641285,
0.3332450,
0.4257793,
0.3680457,
0.3158429,
0.5094030,
0.3288689,
0.4273573,
0.4083190,
-0.1135936,
-0.2486952,
-0.4551306,
0.2208641,
0.2104938,
-0.5153058,
0.3311433,
-0.1399902,
0.1882541,
-0.3499118,
-0.0023172,
-0.5115009,
-0.3722832,
-0.4393569,
-0.5957048,
-0.0539058,
-0.3493777,
0.1351228,
0.0112278,
0.4804029,
-0.2197232,
0.0455865,
0.2109489,
-0.3890460,
0.0212536,
0.1611441,
0.3571634,
-0.2153379,
-0.4533071,
0.1655570,
0.0306278,
-0.5311950,
-0.3001285,
0.1655562,
0.2039820,
-0.3620649,
0.2923935,
0.0088276,
-0.1803553,
-0.3592889,
0.1067948,
-0.4149263,
-0.0221042,
-0.6820195,
-0.2597594,
0.1289648,
0.1553274,
0.1309953,
-0.1527964,
-0.3150467,
0.1086322,
0.1300015,
0.2480194,
-0.1671201,
0.1107422,
-0.4499172,
0.3235168,
0.2183414,
0.2367696,
-0.1542492,
-0.0710481,
-0.4202314,
-0.3574066,
0.3738491,
0.2565061,
-0.3670863,
-0.5791094,
-0.4521932,
-0.0392845,
0.0343532,
0.0553869,
-0.3471599,
0.0906894,
-0.3093308,
-0.1976806,
-0.3055467,
0.4844722,
-0.4946624,
0.3242513,
-0.1745192,
-0.3606113,
-0.1247283,
0.2634765,
0.2349332,
0.1400485,
0.1471403,
-0.2924810,
0.1097552,
-0.1277215,
0.1212706,
0.2224239,
0.4727597,
0.5567384,
-0.1759581,
0.1559705,
-0.1598423,
-0.2801436,
0.3018485,
0.2920129,
0.2811670,
-0.0785894,
-0.0285964,
-0.3615690,
-0.2279013,
0.3646998,
-0.0053527,
-0.0361548,
0.3377145,
-0.0716563,
-0.2556075,
-0.5535259,
-0.0741861,
0.1021978,
-0.3696406,
-0.0034402,
-0.0606657,
0.2268946,
0.0846575,
-0.1992560,
-0.1610945,
0.2859807,
-0.3196326,
-0.4207719,
-0.1679162,
-0.2242866,
0.4332371,
0.3132871,
0.0731873,
0.2977017,
0.2481024,
-0.0327741,
-0.1663591,
-0.1055091,
0.1602090,
0.1093516,
-0.2512822,
-0.4481345,
-0.5259078,
-0.6506782,
-0.1229679,
-0.2189482,
-0.3995730,
-0.4909785,
-0.4193052,
-0.2057820,
0.2934577,
0.1465893,
-0.1625075,
0.3426733,
0.2649832,
-0.0493943,
-0.4145665,
0.3958445,
0.1609020,
0.0013222,
-0.2459998,
0.1164298,
-0.0492298,
0.3180926,
-0.1042689,
-0.2556694,
-0.1739213,
0.2294999,
0.1245181,
0.3749374,
-0.3166536,
0.1169388,
-0.6449068,
-0.1958442,
-0.7107444,
0.0414242,
0.0483417,
-0.4871579,
-0.4032344,
0.4368268,
0.2848648,
-0.3129476,
-0.1500212,
0.5192058,
0.1975975,
-0.4366282,
-0.1321903,
0.3139587,
-0.3480291,
-0.3066738,
-0.0710494,
-0.1940754,
0.1597885,
0.3090887,
-0.3682449,
-0.4479004,
-0.4527522,
-0.1369923,
0.0798998,
-0.0276227,
-0.2146567,
-0.3148037,
0.0536572,
0.0109781,
-0.0488746,
-0.0730457,
-0.1913780,
0.0643147,
0.5705250,
0.2121460,
-0.4416683,
0.2032903,
0.0020056,
-0.0016245,
0.1540154,
-0.2045843,
0.3908991,
-0.4454150,
-0.3434435,
0.4331502,
-0.3300518,
-0.0182594,
-0.2743484,
0.3292238,
-0.2127031,
-0.2097321,
0.1579293,
-0.2781439,
0.2788207,
0.1351149,
-0.4149806,
-0.1553653,
0.4491237,
0.1535539,
0.3360390,
-0.0875462,
-0.3978288,
-0.0674873,
0.0873192,
-0.4236244,
0.2103727,
0.2767895,
0.3704693,
-0.1704767,
-0.0744046,
-0.1407719,
0.0401589,
-0.2564273,
-0.1127556,
0.0328998,
-0.3451052,
0.0589119,
-0.4828568,
-0.1740064,
-0.2597788,
-0.2367302,
0.2158366,
-0.2519398,
0.3640079,
0.1759282,
0.5761489,
0.1245859,
0.2550755,
0.1541521,
-0.0806339,
0.4775217,
-0.3970806,
0.1138461,
0.4197113,
0.0464028,
0.1798304,
0.0894187,
-0.0245814,
-0.0143827,
0.3657701,
0.3247345,
0.1767602,
-0.3471242,
-0.4670656,
-0.4242410,
0.1956728,
-0.2890338,
0.0983810,
0.1317047,
-0.0101682,
-0.4662303,
-0.4820026,
-0.1221515,
-0.2267711,
-0.0221164,
0.2780077,
-0.2136921,
-0.0610634,
0.2214946,
0.2470967,
0.1457571,
-0.3285811,
0.3035999,
-0.2436941,
-0.3622328,
0.0453039,
0.4129243,
0.2530952,
0.4076551,
-0.3235188,
-0.1057886,
0.2060762,
0.3800847,
0.0871674,
0.3046044,
0.4750022,
-0.3477819,
0.3632672,
-0.0816939,
0.3393631,
-0.0771924,
-0.1259997,
0.3852252,
0.4188475,
0.3768397,
0.1026801,
0.0690411,
0.6194342,
0.5570447,
-0.2314624,
0.2864822,
0.0763299,
0.0866546,
0.3547806,
0.3334723,
0.3430707,
-0.2369929,
0.1094262,
-0.0294354,
-0.3366768,
0.2981903,
0.4073175,
0.4225558,
0.1838861,
-0.0339142,
0.0785893,
-0.1243712,
0.0541663,
-0.0151855,
-0.1672076,
0.1738688,
-0.2851465,
0.2062412,
-0.0325321,
0.3566808,
0.2355458,
-0.2820488,
-0.0512332,
-0.1108007,
-0.4803195,
0.2454586,
-0.0804775,
0.1606152,
-0.0211994,
-0.3488079,
-0.0852605,
-0.2529675,
-0.1019629,
-0.4815074,
0.2489758,
0.1144598,
0.3433868,
0.1919529,
0.0087363,
-0.2032489,
0.3161638,
-0.4791301,
-0.3070919,
0.1728315,
0.2656952,
-0.0461943,
-0.3217812,
0.1289198,
0.5579222,
0.3127500,
-0.0796609,
-0.0301543,
0.3606072,
0.4124106,
0.4267809,
0.3721486,
0.2384666,
-0.1635930,
0.0367517,
-0.2808451,
-0.0224829,
0.4537696,
-0.0020178,
0.4438059,
0.5375812,
-0.1603585,
0.1153112,
0.3391465,
0.2673675,
0.4015356,
-0.1893135,
0.2483325,
0.5366161,
-0.1305881,
-0.2075827,
0.0413998,
0.0927233,
0.1997584,
-0.1854541,
0.0075719,
-0.2282181,
0.0623683,
0.3459923,
-0.3127274,
0.0798786,
0.3663409,
-0.3902223,
-0.1264259,
-0.3010431,
0.1469854,
0.1021585,
0.2306073,
0.1906227,
-0.4224628,
0.0811677,
0.0626258,
-0.1132866,
-0.4315885,
-0.1253051,
-0.5654808,
0.1588168,
-0.1499384,
0.2284245,
0.3195325,
0.3785984,
-0.3238565,
-0.0158531,
-0.0469825,
0.2125226,
0.0568905,
0.3833814,
-0.3632055,
-0.2360560,
0.3751515,
-0.1339721,
0.3994313,
0.2476378,
-0.0239004,
-0.2317394,
0.4501416,
-0.3662769,
0.3503955,
0.0771939,
0.2273451,
0.5582937,
-0.3355153,
-0.2844261,
-0.4804606,
-0.5184407,
-0.0611863,
-0.5100819,
-0.6145817,
-0.4278141,
0.3252562,
-0.4762459,
-0.3334695,
-0.4211178,
-0.0810320,
0.1007905,
0.3849095,
-0.4217672,
0.1120351,
-0.4294430,
-0.1062539,
-0.0035690,
-0.0645017,
-0.2083343,
-0.2815000,
0.3268107,
0.0044140,
-0.3962518,
-0.5024236,
0.0131159,
0.3211255,
0.2684265,
-0.2718429,
0.3122596,
-0.6086722,
-0.0410646,
-0.3066664,
0.1523010,
0.0946449,
-0.2205321,
0.3445831,
0.1385310,
-0.1543031,
-0.4529859,
0.2713123,
0.3067291,
0.2002758,
0.1819217,
0.4041871,
-0.1870603,
0.2524697,
-0.2008502,
0.2893628,
-0.3433651,
0.0552262,
-0.4858820,
-0.4255721,
-0.3260959,
-0.2881915,
-0.4077765,
-0.0401606,
-0.5482874,
0.4304889,
0.4332277,
-0.4877772,
0.3612215,
-0.1083614,
-0.3444939,
0.0243059,
-0.3470541,
0.0932590,
-0.0076223,
0.3228071,
0.4271671,
0.0281404,
0.0822501,
0.2293977,
-0.2747644,
-0.2358281,
0.1334480,
0.0359911,
-0.4935619,
0.4209911,
-0.1577460,
-0.3128740,
0.0094325,
-0.1081687,
-0.2286028,
0.0609892,
0.0804518,
-0.1108138,
-0.2668478,
0.1532059,
-0.2231822,
-0.3382691,
0.2159874,
-0.2758866,
0.1615479,
-0.4849081,
0.3452926,
0.3521758,
0.1007626,
-0.1785225,
0.1679602,
0.0268302,
0.3480001,
-0.2497897,
-0.2437721,
-0.4267283,
0.0145180,
0.3888491,
0.1051924,
0.0254054,
0.3210007,
0.4557157,
0.2301012,
-0.1690361,
-0.1414825,
-0.4576275,
-0.4737096,
-0.4939938,
-0.0136691,
-0.2183671,
0.2084446,
0.3201619,
0.0062120,
-0.0330883,
-0.4215022,
-0.3090165,
-0.0163516,
0.4233808,
-0.4566053,
-0.4155890,
-0.2551417,
0.2113549,
0.1112412,
-0.4071416,
0.4615652,
0.3674691,
-0.3339059,
-0.0240526,
0.2572818,
0.2775050,
-0.4930199,
0.0785085,
0.2362273,
0.2437195,
0.4225717,
-0.4035959,
0.2876424,
0.4464352,
-0.3985197,
-0.2251035,
-0.2606792,
0.3097428,
-0.4049573,
0.2467303,
-0.2227864,
-0.3266994,
0.4377139,
0.2608620,
-0.4033186,
0.4811086,
0.3452730,
-0.1584603,
0.1924634,
-0.0434967,
-0.0656430,
0.1534486,
-0.1761790,
0.1003610,
-0.3704211,
-0.4210696,
-0.1238821,
-0.3638162,
0.1578773,
-0.3863594,
0.3805586,
0.0823914,
-0.2920925,
0.1663880,
0.0288599,
-0.1876694,
0.4432101,
0.2682056,
-0.3779138,
-0.4617352,
0.0149360,
-0.1007001,
-0.2884345,
-0.0473502,
-0.3397904,
-0.1917348,
-0.0662451,
-0.4950616,
0.1479318,
-0.3776139,
-0.0431651,
-0.4216877,
0.2651376,
0.2597615,
0.1458109,
0.3696022,
0.3351647,
-0.4463318,
-0.4509970,
0.0388932,
-0.3064485,
0.4361674,
-0.3862908,
-0.1087302,
0.0970069,
0.1380668,
0.2003428,
0.0394134,
-0.0933849,
0.3224259,
0.0776783,
0.4216107,
-0.2779454,
0.2908564,
-0.1280460,
-0.1210875,
-0.4091474,
0.3075141,
-0.1305632,
0.2312409,
0.4290540,
0.3386513,
0.3215333,
0.2450131,
0.1284004,
0.0082831,
0.1202177,
0.0095549,
0.1181853,
0.2183892,
-0.4490287,
0.2629068,
0.0995085,
-0.3599900,
-0.3568334,
-0.3039952,
0.2774102,
0.3442812,
0.2353129,
-0.3157735,
0.1679082,
-0.1886155,
-0.4090599,
0.3725784,
-0.4084943,
-0.0328013,
-0.2393671,
-0.2853374,
-0.1713853,
0.2310697,
0.5205777,
-0.1793541,
0.0737275,
0.2716045,
0.3998570,
-0.3353743,
-0.1743381,
0.0961049,
0.1287074,
0.3663658,
-0.2590651,
0.2140697,
0.1388362,
0.3354524,
0.3132194,
0.2733009,
-0.4715475,
0.0903956,
0.1196416,
0.2525888,
0.2550091,
-0.2428527,
-0.4471984,
0.3755225,
-0.3616443,
-0.3747505,
-0.1341217,
-0.1107720,
-0.1816667,
0.2225138,
-0.3505218,
-0.1866573,
0.3538284,
0.0542584,
-0.4656430,
0.2474513,
0.1968136,
-0.1037634,
-0.1278244,
-0.0811941,
-0.2092767,
0.1100013,
-0.4322139,
0.4015486,
-0.0678030,
0.3843904,
0.1811270,
-0.0455297,
-0.0446591,
-0.2197419,
-0.2631392,
-0.2044316,
0.0752168,
-0.1778940,
-0.3467014,
0.2951601,
-0.0360371,
-0.0287847,
-0.3429972,
0.4248483,
-0.1947848,
-0.1466678,
-0.3198475,
-0.5701490,
0.3459732,
-0.2239831,
0.3120048,
0.1613284,
0.1951805,
-0.3226760,
-0.4566126,
0.4597229,
0.2752598,
-0.3806873,
0.3765198,
-0.3056882,
0.4874458,
0.0722605,
0.2373157,
0.0640420,
0.4481470,
0.5186843,
0.3596609,
0.0694744,
-0.2404122,
0.3171346,
-0.2225072,
0.3827201,
0.0946059,
0.0901386,
0.1288553,
-0.0666918,
0.0220250,
0.1576896,
-0.0683217,
0.0202707,
-0.4969999,
-0.2321075,
-0.3082473,
0.1933948,
-0.0546647,
-0.2551757,
0.1681233,
-0.2858833,
-0.1515546,
0.0331675,
-0.0265218,
0.0064664,
-0.3306675,
-0.3117795,
0.3756895,
0.4743762,
0.4447404,
0.0528250,
-0.0813816,
-0.1705976,
0.0160739,
0.1034420,
0.4002440,
0.1793767,
0.2119213,
-0.1854950,
-0.3840031,
-0.0925612,
-0.4015515,
0.0981505,
0.4682532,
-0.3907325,
0.3702847,
-0.3368127,
0.3173299,
-0.1800472,
-0.1455319,
-0.0205468,
-0.0100229,
0.3344844,
0.5438384,
0.5083785,
-0.4840352,
-0.5149035,
-0.5154944,
0.3600254,
0.3581316,
-0.3975019,
0.0008985,
-0.2794659,
-0.2406052,
0.2605996,
0.0776078,
-0.4896763,
-0.0656475,
-0.0848789,
-0.0463570,
0.1006224,
0.3351681,
0.0633642,
-0.2964285,
0.3143663,
0.2060522,
-0.3883080,
0.4556591,
-0.0156221,
-0.1531189,
-0.0916346,
0.4958249,
0.4303444,
-0.5069115,
0.2551626,
0.2962508,
-0.4187005,
0.2692965,
0.4854809,
-0.3994231,
0.3024570,
0.4844946,
0.0887662,
-0.5075519,
-0.3343833,
-0.2499547,
0.1158897,
-0.2470455,
0.2464500,
-0.4634646,
0.2228691,
-0.1467190,
0.3840208,
-0.1653456,
0.1043492,
0.2088388,
0.4984751,
0.1309668,
0.1352468,
-0.0527471,
-0.5338868,
0.4149689,
-0.1876846,
0.4032820,
-0.4793639,
-0.2784644,
0.2565405,
-0.1942728,
-0.3654147,
0.1883772,
-0.0550172,
-0.5698629,
0.1419204,
0.3252655,
-0.5145290,
0.3755030,
-0.3244733,
0.1391153,
-0.3506218,
0.4269515,
0.1828454,
0.4146248,
-0.1635859,
0.0929516,
-0.3111536,
0.3700163,
-0.2496716,
-0.3642334,
0.0247183,
0.3668955,
0.0569050,
0.0201326,
0.3482204,
0.4505478,
-0.0353569,
0.4460205,
-0.3868150,
-0.3303168,
-0.2130360,
-0.1810900,
0.3600659,
0.0800408,
-0.1710881,
0.0981122,
0.0163803,
-0.1215273,
0.0018323,
0.1952555,
-0.4770914,
0.1816895,
0.1690111,
0.2438457,
0.0557370,
0.4677194,
-0.2090529,
0.2645730,
0.2617025,
0.0413405,
0.3873924,
-0.1986552,
-0.1520973,
-0.1324491,
0.2219527,
-0.2887124,
-0.2198942,
-0.4091647,
-0.2727132,
-0.0574974,
-0.2790352,
-0.1521079,
0.2182781,
-0.3902704,
-0.4892946,
-0.3563046,
0.2451582,
0.0318944,
0.0256255,
-0.2412245,
-0.2210025,
0.0751910,
0.4050156,
0.3798343,
-0.2435087,
-0.0640043,
0.2308423,
0.0539297,
-0.3481472,
0.0065487,
0.3541720,
0.2750247,
0.0429007,
-0.2544237,
-0.1971943,
-0.1111714,
0.0346821,
-0.0483699,
-0.2169389,
0.0775848,
0.3321017,
-0.0163915,
0.4665442,
0.1533811,
0.1445157,
0.4866919,
0.2974100,
-0.1057448,
0.0431282,
-0.1739793,
0.0802829,
0.2118002,
0.4055386,
0.0996150,
0.0799715,
-0.4487943,
0.4167382,
-0.1523450,
-0.0972078,
-0.5439630,
0.1482988,
-0.0265362,
0.4614147,
-0.0343470,
0.3910745,
-0.3652107,
0.2023875,
-0.2574879,
0.0394096,
-0.5462885,
0.3099838,
-0.0281333,
0.0227416,
0.2917242,
-0.3723548,
-0.3389307,
0.3017284,
0.4221789,
-0.0415035,
-0.2276637,
-0.2251314,
-0.3035578,
-0.4395717,
-0.5155347,
0.0376159,
-0.0121466,
-0.4614962,
0.1525269,
0.3742388,
0.2464578,
0.1942585,
0.2831811,
-0.0736179,
0.1741205,
-0.3681334,
-0.4658392,
0.1945575,
0.2967370,
-0.2000356,
-0.1198201,
0.3673215,
-0.3579328,
0.3528630,
-0.1100885,
0.4452589,
0.4469743,
-0.0041982,
0.1455789,
0.3413484,
-0.4945574,
-0.6305376,
-0.5147841,
-0.3825825,
-0.6602447,
-0.3763062,
-0.5194934,
0.2090412,
0.0532992,
0.2310532,
0.2190175,
-0.0944542,
-0.0520241,
-0.2461899,
-0.0354784,
-0.4937604,
-0.0588173,
0.1577482,
0.3706123,
-0.1716974,
0.4859540,
-0.2522106,
-0.3097561,
-0.3770684,
-0.4015495,
0.0729540,
-0.4882096,
-0.4728038,
-0.4560411,
0.1826517,
0.3857172,
-0.3855060,
0.2064230,
-0.3574713,
0.0479175,
0.4599538,
0.0734823,
0.1539764,
0.1154742,
0.5310418,
-0.1890254,
-0.5360641,
-0.4826706,
0.1664715,
-0.1741338,
0.2284680,
0.3266210,
0.3177471,
-0.1031824,
0.1956581,
-0.3583381,
-0.1004051,
0.4807539,
-0.1438655,
0.0335218,
-0.4597950,
0.3654724,
0.0247205,
-0.4704034,
-0.4272615,
-0.1372779,
-0.3015138,
-0.1506318,
-0.3393592,
-0.1543487,
0.4260149,
0.4563418,
0.1825526,
-0.0572085,
-0.1978115,
-0.0240224,
0.2490421,
-0.1266024,
0.2089436,
0.0472059,
0.2404505,
-0.0525671,
-0.1259486,
0.0513503,
0.3649893,
-0.3765720,
0.2291975,
-0.3341193,
-0.4959743,
-0.5364684,
0.2207407,
-0.5311863,
0.4218848,
-0.1723822,
-0.3642249,
-0.4295385,
0.1563263,
-0.1562107,
-0.1718239,
0.2104869,
-0.0434857,
-0.2972434,
0.1320633,
-0.3398006,
0.2040133,
-0.5059574,
0.2600427,
0.0370258,
-0.1069080,
-0.0187119,
-0.4173283,
-0.3793670,
0.4443987,
-0.0651630,
0.1311367,
0.1582419,
-0.0717156,
-0.2402450,
0.4024036,
-0.0919949,
-0.1198763,
0.2450199,
0.0247219,
-0.0349059,
-0.4100003,
0.2575537,
-0.1275172,
0.1166606,
-0.4677459,
0.3349034,
-0.1151046,
0.0515870,
-0.4504166,
-0.4704350,
0.2738308,
0.2923142,
-0.4634891,
0.0396265,
-0.1733607,
-0.0842370,
-0.4925401,
-0.1393936,
-0.0533807,
0.2993760,
0.2761114,
-0.3329144,
0.2302385,
-0.1226770,
0.1029732,
0.1408163,
0.3293089,
-0.3790535,
-0.0189495,
0.0435928,
-0.0533284,
-0.0749654,
-0.1986991,
0.4738879,
-0.4118479,
-0.2079222,
0.2375569,
-0.0311046,
0.3605151,
0.3046457,
0.0083694,
0.1352461,
0.0965913,
0.0456356,
-0.3376718,
0.3830521,
0.3909988,
-0.4439575,
-0.2944543,
-0.0630342,
-0.3058721,
-0.2050756,
0.2509724,
0.2226287,
-0.0083307,
-0.0193070,
0.0800038,
-0.0289546,
-0.0713754,
0.4501438,
-0.4103915,
-0.4316449,
-0.0500054,
-0.1740339,
0.4720661,
0.0132055,
0.1129136,
0.2223766,
0.4931104,
-0.0261591,
0.0274737,
0.0043376,
-0.3888658,
-0.3765378,
-0.4716841,
-0.2360927,
-0.4766887,
-0.5055148,
0.0175496,
-0.0505999,
0.0653101,
0.0632661,
0.0049819,
-0.1908644,
0.0151149,
-0.2757270,
0.2641657,
-0.4703769,
0.2777113,
-0.1666597,
-0.4485350,
0.3167107,
-0.1493534,
-0.0250781,
-0.3573175,
-0.1706915,
0.4992412,
0.2561429,
-0.4483433,
0.4934330,
-0.2625628,
0.0898272,
0.0053153,
-0.1325716,
0.2256001,
0.0804397,
0.2127290,
0.3891132,
0.1827389,
-0.3139792,
-0.3423623,
-0.2883059,
0.3391757,
0.3030628,
-0.0006146,
-0.2563889,
0.4929590,
-0.2031575,
-0.2241580,
0.2254548,
0.0914478,
-0.1865263,
0.0474415,
0.4468114,
0.2937534,
0.1905017,
-0.2238801,
0.2930057,
-0.0531882,
-0.1713898,
0.2879797,
0.1854253,
0.4216877,
-0.2066069,
-0.4660260,
0.1654305,
0.3703149,
0.1996081,
-0.0659570,
-0.0479806,
0.2973397,
0.0575400,
0.0348239,
-0.0251696,
-0.2409763,
0.4861054,
0.1824573,
-0.2852567,
-0.2646603,
0.4446968,
0.4408370,
0.3258946,
-0.2417431,
-0.0115500,
0.2727059,
-0.4479897,
-0.3210440,
-0.4511264,
0.3450882,
0.1258646,
-0.1226049,
0.1313207,
-0.1921330,
-0.2135872,
0.4131653,
-0.1769928,
0.4011642,
0.2318895,
0.4607727,
-0.2403309,
-0.3853869,
0.1982546,
0.2598494,
0.1120293,
-0.3313991,
-0.4879427,
0.0800484,
0.3438936,
-0.2731886,
0.3152936,
0.2885904,
-0.3323516,
0.1411881,
-0.4531527,
0.1560984,
-0.0861059,
-0.4011424,
0.3350501,
-0.0372801,
0.4438626,
-0.0393535,
0.3393507,
0.0743754,
0.2632212,
-0.3775156,
-0.0162578,
-0.4192047,
-0.4851931,
-0.2873549,
-0.4625937,
-0.2307606,
-0.1780178,
0.2351473,
-0.4709894,
0.4313380,
0.4001625,
-0.4592441,
0.0113864,
0.2440562,
-0.2324326,
-0.1733201,
0.0326466,
-0.0647845,
0.4678642,
0.0792457,
-0.4092393,
-0.1192452,
0.1780355,
0.4254432,
0.3383921,
0.1155199,
-0.1158077,
0.1831014,
-0.3033596,
-0.3528260,
0.3055633,
0.1797014,
-0.2688870,
0.3217203,
0.3935414,
-0.2309274,
-0.4095922,
-0.2852026,
-0.4967690,
-0.3806212,
-0.3538646,
0.4033936,
-0.3398653,
0.1575229,
0.1469481,
-0.0725004,
0.4841916,
-0.3198448,
0.3625435,
0.4504377,
0.2562785,
0.4443140,
-0.1837232,
-0.0637158,
0.3869471,
-0.3271628,
-0.4244390,
-0.2133142,
0.3772023,
-0.2351719,
-0.0751032,
0.1779084,
0.4369286,
0.1468486,
-0.0103059,
0.3281396,
0.4154889,
0.0799655,
-0.4556339,
0.4194815,
0.1993442,
-0.3094821,
0.3213641,
0.3608499,
0.3606406,
-0.0112047,
-0.1955263,
0.3372644,
0.1218583,
-0.3378434,
0.2877542,
-0.0020791,
-0.3498961,
-0.3371474,
0.4097488,
0.5080278,
-0.1519555,
0.4316734,
-0.2209798,
-0.3393301,
-0.3154795,
0.1776266,
0.3180816,
-0.4027336,
-0.1799901,
-0.1823922,
0.4310142,
-0.2655587,
0.3966185,
0.4754495,
-0.3452560,
0.1016512,
-0.3044434,
0.4943619,
-0.0430556,
-0.4993263,
-0.0946031,
0.2437520,
0.3714666,
-0.3037282,
0.4750579,
0.1763472,
0.0215247,
0.5025069,
0.2593714,
-0.1200239,
0.5493556,
-0.4557697,
-0.1895030,
-0.2472037,
-0.2824410,
-0.0359590,
0.4097234,
-0.4687916,
0.0290422,
-0.2772707,
-0.1527134,
-0.0392337,
-0.0409518,
-0.2432315,
-0.0297286,
0.1168845,
0.3650166,
0.1086508,
0.0974740,
-0.1939432,
0.1329565,
-0.4261751,
-0.4223252,
0.0235163,
-0.4219034,
0.2690343,
-0.5454221,
-0.0087377,
0.2830668,
0.2515081,
0.4570789,
0.3840446,
0.3911006,
-0.2088261,
-0.3472092,
-0.4073090,
0.1890803,
-0.4512615,
-0.3797540,
-0.2797882,
-0.2215274,
-0.0253625,
0.1756390,
0.2014941,
0.1846545,
-0.3714642,
-0.1266975,
0.0081896,
0.1058002,
0.5323379,
0.4378571,
-0.0422148,
0.5144350,
0.3012939,
0.0803317,
-0.5700797,
0.1031436,
0.1832982,
0.1504881,
0.2318126,
0.2797000,
0.2924566,
0.1984437,
0.1358497,
0.4974585,
0.2967884,
0.2031469,
0.1777102,
0.3430580,
0.3038824,
0.3688456,
-0.4392440,
-0.2476146,
0.1162062,
0.3506758,
-0.5692462,
0.1557511,
-0.3453184,
-0.0203517,
0.0648211,
-0.1989407,
-0.0041402,
0.1863065,
-0.4887450,
-0.3967696,
-0.1596079,
-0.4920800,
-0.4419076,
-0.0665154,
0.4400557,
0.3757447,
-0.3232483,
0.1393866,
-0.0008795,
0.2579934,
0.1163305,
-0.2302263,
-0.0784351,
-0.1789953,
-0.4614324,
-0.2384863,
-0.2027329,
-0.1810684,
0.0857072,
0.1845418,
-0.3713769,
0.0550392,
-0.0439106,
-0.0589406,
-0.2266746,
0.4558920,
0.0561009,
-0.0383075,
-0.0157278,
-0.1698249,
0.2660745,
-0.3505067,
0.1752456,
0.5026676,
0.0755196,
0.0542840,
0.2622090,
0.1928269,
-0.3128605,
-0.2520690,
-0.0455858,
0.3153684,
-0.0399475,
0.3750905,
-0.2157709,
0.2246984,
-0.3816273,
-0.0606370,
0.5544427,
0.2372741,
-0.2344560,
-0.2840324,
0.0858521,
0.1288731,
-0.1506067,
-0.0504569,
-0.4482854,
0.0317517,
-0.5516796,
-0.4202690,
-0.1949194,
0.4522626,
-0.3200714,
0.3507069,
0.2563335,
0.1959915,
-0.0853087,
0.0311770,
-0.0766580,
0.1051684,
0.2504733,
0.3595368,
0.1356842,
-0.0865378,
0.2828541,
0.1389902,
-0.3996482,
0.5478648,
0.4850371,
0.4921557,
0.2319698,
0.4256596,
-0.5173606,
-0.4167506,
-0.2598615,
-0.3748661,
-0.1433774,
0.4281235,
-0.3153100,
0.1647853,
0.4572734,
-0.2300224,
-0.0947237,
-0.4115806,
-0.3402712,
-0.2807129,
0.3516030,
0.1052737,
0.1630432,
-0.3168993,
-0.2452917,
-0.0435490,
0.5330497,
0.1087683,
0.4829606,
0.3267238,
-0.3933205,
0.1649447,
0.1286500,
0.4339697,
0.2368351,
-0.2960981,
-0.0037276,
0.0409672,
-0.2972213,
-0.2067007,
-0.3611685,
0.5536018,
-0.2292965,
-0.3416087,
0.0664465,
-0.3249385,
-0.0511775,
0.5522905,
-0.1643379,
0.1627918,
-0.3198144,
-0.4366281,
-0.4094136,
0.4341905,
-0.1836165,
-0.2135789,
-0.0658356,
-0.2828630,
0.2364784,
-0.3785514,
0.5698757,
0.4541910,
0.2531487,
-0.3159656,
-0.1721252,
-0.0774012,
0.2007730,
-0.1980350,
-0.1844910,
-0.0720545,
0.2817054,
-0.0388182,
-0.1017122,
-0.4909984,
0.1336478,
0.5303773,
-0.2777467,
-0.3015983,
0.4153662,
-0.2826801,
-0.0600004,
-0.2583056,
0.0375151,
0.2380523,
0.4275527,
0.2287965,
0.4238895,
-0.1275290,
0.6301898,
0.1758436,
-0.4164174,
-0.2525443,
-0.3801621,
-0.6075344,
-0.4256856,
0.2347541,
0.1646935,
-0.2823483,
-0.2177265,
-0.4776493,
0.0955325,
-0.4357062,
0.0010851,
0.5301566,
-0.4059681,
-0.3717570,
0.2580764,
-0.5555007,
-0.5352995,
0.5063562,
0.2770078,
0.1737083,
0.3826958,
-0.4562519,
-0.0584412,
0.5632670,
0.6418647,
-0.1670642,
0.1906591,
-0.2758024,
0.0458089,
-0.4049208,
-0.3550086,
0.5065616,
-0.2303094,
-0.0268102,
0.3096580,
0.3946709,
0.1454652,
-0.3898261,
0.4314949,
-0.2225855,
-0.3249922,
-0.2112488,
-0.4233353,
-0.5407304,
-0.1671074,
-0.2396860,
0.1271900,
0.2951711,
-0.4678750,
-0.3639154,
-0.0544735,
-0.1581878,
0.1680223,
0.3147393,
0.1880833,
-0.5924644,
-0.5950754,
0.3530742,
0.1817689,
0.4218259,
-0.4006813,
0.3053912,
0.2580419,
-0.1967609,
-0.2621751,
0.0652910,
-0.2984186,
0.4008224,
0.1319447,
-0.4336754,
-0.4743125,
0.1197769,
-0.2249617,
-0.2753650,
-0.2714933,
-0.2083635,
0.2801660,
0.1740981,
0.2276621,
0.4054869,
0.5631414,
-0.4239952,
0.1159961,
-0.3991546,
0.3544186,
0.0791785,
-0.2094484,
-0.2796145,
0.0023909,
0.2111621,
0.3097849,
0.0130438,
0.0049560,
0.0659751,
0.3243530,
0.2613713,
-0.3533436,
-0.4244963,
0.1031461,
0.1596700,
-0.5903560,
0.0163640,
0.0304211,
0.2555347,
-0.2630435,
0.3430352,
0.3188918,
0.2513345,
-0.0894100,
-0.1137526,
-0.1268006,
-0.3177295,
0.0281170,
0.4734209,
-0.2136124,
0.2252291,
0.0890700,
-0.1810326,
0.1082752,
-0.5046317,
-0.4498678,
-0.0766034,
0.0282937,
0.0975692,
0.5252124,
-0.0848968,
-0.1250576,
-0.3973861,
-0.3437790,
0.2370667,
0.4185951,
0.0886395,
0.2812411,
0.1802901,
-0.3014100,
0.3100118,
-0.0859768,
0.2147431,
-0.1092290,
0.0945270,
-0.2236175,
0.2588133,
0.2956804,
0.4817605,
0.2311637,
0.4624414,
-0.0025389,
-0.2168369,
-0.1997255,
-0.3996711,
-0.1993067,
-0.1187392,
0.0526005,
0.3382886,
0.4897069,
0.0806922,
-0.3819069,
-0.2325072,
0.3528503,
0.1897202,
-0.2102940,
0.1800834,
-0.4661882,
0.4091218,
-0.2540023,
-0.4018750,
-0.0247707,
-0.1216765,
-0.3809270,
-0.4558306,
-0.4241307,
-0.1513229,
0.2630577,
0.3854012,
-0.1927552,
-0.0014283,
0.3404095,
0.2960596,
0.2811852,
-0.3348830,
0.3912832,
-0.4529665,
0.0820013,
0.1155550,
0.4748646,
0.0088562,
0.6870031,
-0.2633431,
0.3232580,
0.1534933,
0.1643894,
0.3983118,
-0.3141979,
-0.0839746,
-0.0730313,
-0.3189298,
0.3355051,
-0.3441562,
0.2493098,
0.2702988,
-0.3962240,
0.3045562,
-0.3148232,
0.4102669,
0.1895020,
-0.0057430,
-0.0977240,
0.0339159,
-0.2073228,
-0.3348676,
0.1979786,
-0.2043676,
-0.0938451,
-0.1816838,
0.2162666,
-0.2074414,
0.1327176,
0.1282304,
-0.2621645,
-0.2024791,
-0.3538606,
0.1557658,
0.3685091,
-0.2021084,
-0.1368428,
0.0278458,
0.0631722,
-0.4933757,
0.0212269,
-0.2074695,
0.3190129,
0.1565381,
-0.4024878,
-0.4978896,
0.0608001,
0.2872874,
0.0473449,
0.4825951,
-0.2185606,
0.3035630,
-0.3227347,
0.4942311,
0.4533029,
-0.1338348,
-0.4433221,
0.1073518,
0.1277518,
0.3628042,
-0.2560084,
0.2063205,
0.3726954,
-0.0060629,
0.0672154,
0.3058737,
0.1637180,
0.2489866,
-0.3208919,
-0.2476377,
0.2540888,
0.1699157,
0.0173406,
0.0651894,
-0.1755076,
0.1262748,
0.1433515,
0.5055072,
-0.0312047,
-0.4201504,
0.3347934,
0.1529818,
0.2981583,
-0.4844574,
0.1476395,
0.2911592,
-0.0312731,
0.5128033,
-0.0547814,
-0.5169785,
0.0633732,
0.2369238,
0.3194979,
-0.0426660,
-0.4467559,
-0.2592025,
-0.3074072,
0.2464707,
0.4518704,
-0.1788285,
0.4693078,
0.1996031,
0.4898859,
0.0007914,
-0.1943875,
-0.1059437,
-0.3016752,
0.3960372,
-0.3014614,
-0.1001429,
0.2724811,
-0.5009446,
-0.2498229,
0.3590438,
-0.1565239,
0.6266532,
0.2290331,
0.1451752,
0.2116823,
-0.4489382,
0.1134492,
-0.1313453,
0.2759824,
-0.1478960,
0.2813485,
0.3429839,
0.0640998,
0.4397914,
0.0760479,
0.0134909,
-0.2395374,
0.0507932,
-0.2702167,
-0.2579428,
-0.4885843,
-0.0157112,
0.0597317,
-0.4060292,
-0.2151592,
0.2305294,
0.1767221,
-0.2082319,
0.3712513,
0.4892893,
0.5895465,
0.5038183,
0.2324641,
-0.0131274,
-0.0252231,
0.0478191,
0.1784495,
-0.3413533,
0.4330688,
-0.0669037,
-0.0189209,
0.1883995,
-0.2236565,
-0.4552041,
0.1281909,
0.3523033,
0.0523402,
0.3473574,
-0.1565921,
0.2416694,
-0.3876948,
-0.1495403,
-0.3699828,
0.1106231,
0.0219006,
0.0321028,
-0.0752151,
-0.3308977,
0.2239393,
-0.2028844,
-0.4655229,
0.1659594,
-0.2327629,
0.3050452,
-0.2081582,
0.3668541,
-0.0812353,
0.4412995,
0.4964416,
-0.1634977,
-0.1255869,
-0.0226773,
-0.4750982,
0.1507566,
0.0221281,
0.1532642,
0.0029530,
-0.4217528,
0.0408485,
0.4028796,
0.3491454,
0.1679471,
-0.1856856,
-0.3868911,
-0.0999248,
0.3919156,
0.1630963,
0.3904781,
-0.3968209,
-0.0768542,
-0.2656511,
-0.3491189,
-0.3506819,
0.0614482,
-0.4995944,
-0.0623332,
-0.0762235,
-0.0808093,
-0.1210340,
-0.0797819,
0.2556930,
0.2533791,
0.3975409,
0.2805948,
-0.0958642,
-0.0803405,
-0.0663125,
0.4072839,
0.0000650,
0.4759340,
0.3080818,
-0.1483619,
0.1593873,
-0.3611743,
-0.0470951,
-0.4463527,
-0.4672649,
-0.3867927,
0.4391211,
-0.3731876,
0.0385679,
-0.3245039,
-0.2198125,
0.1877664,
0.2348308,
-0.2194069,
-0.3745668,
-0.3413927,
0.1997838,
0.0043993,
0.0788255,
-0.0445224,
-0.2413666,
-0.0224697,
-0.2646043,
0.1613079,
0.3929985,
0.1682410,
0.0680255,
-0.1068535,
0.1407304,
-0.1284008,
0.2485183,
-0.1946983,
0.0162238,
-0.2999109,
-0.1423864,
0.0485686,
-0.1859778,
-0.2021491,
0.1757505,
0.3526222,
-0.0266553,
0.4559380,
0.0403887,
-0.2918245,
-0.2634691,
0.1658197,
-0.1332166,
0.4363867,
-0.3309544,
0.4410443,
-0.1097242,
-0.0679123,
-0.0735330,
0.1356650,
-0.3956997,
-0.1860912,
-0.2152753,
0.0972139,
0.1593707,
0.4176421,
-0.4773689,
-0.0428852,
-0.2547314,
0.0486265,
0.1619952,
0.1079522,
-0.3978815,
0.4772283,
0.4049710,
0.2773802,
0.3295569,
-0.1216843,
0.2334784,
-0.1300286,
0.0863189,
0.4793111,
-0.4675195,
0.4422784,
0.4241712,
-0.2938211,
0.4413316,
-0.1137670,
0.2667917,
-0.0764766,
0.5147040,
0.2285142,
0.1124026,
-0.2898949,
-0.1775814,
-0.1973311,
-0.3232476,
-0.1094599,
0.2931184,
-0.0924252,
0.4777080,
-0.0115337,
-0.4752966,
-0.4261762,
-0.0452032,
0.4272444,
0.3519920,
-0.2109770,
-0.1737795,
0.1056346,
0.1716736,
0.4215191,
0.1401294,
0.2886122,
0.5174653,
0.1480922,
0.5936105,
0.3386678,
0.3007204,
0.1140591,
-0.3867348,
0.1500213,
-0.3463295,
0.0523726,
0.3433385,
0.1136605,
-0.4429682,
-0.4467056,
-0.4308393,
0.3911920,
-0.0056770,
-0.4711583,
-0.1502871,
0.0119288,
-0.3972915,
0.3079462,
-0.0356067,
0.4899792,
-0.3780964,
0.3625285,
0.1260746,
0.3590905,
0.3451093,
-0.0441912,
0.1765011,
0.0634367,
0.1460365,
-0.1527123,
-0.2081487,
-0.2479130,
0.3446002,
-0.3182905,
0.3816590,
-0.4988273,
0.4644739,
0.3948930,
0.2533325,
-0.4300288,
0.4812868,
0.3070044,
0.4240182,
-0.0321762,
0.3393302,
-0.2157864,
0.5248971,
0.4740721,
-0.3083513,
0.0238261,
0.4578815,
-0.1042545,
-0.0787070,
0.1785167,
0.4912950,
0.1431018,
-0.1588764,
-0.3390853,
-0.2663715,
-0.4172390,
0.1155629,
-0.0960620,
-0.3175348,
-0.1307190,
0.1891437,
-0.1513341,
0.1774326,
0.3112974,
-0.2153896,
-0.1041957,
0.3477046,
-0.2358764,
-0.3019115,
0.3066707,
0.3423732,
-0.3131621,
-0.2746156,
0.3166872,
0.6034346,
-0.2262934,
-0.1816329,
0.4321399,
-0.3877687,
-0.4912720,
-0.4618519,
-0.4877916,
-0.3314041,
0.3916131,
-0.0203674,
-0.2492763,
0.2189785,
-0.5155650,
0.2259250,
-0.2758925,
0.2632930,
0.2011677,
0.1646090,
-0.1050053,
-0.0176630,
0.4487772,
0.2806734,
-0.1533081,
-0.2238305,
0.5617829,
-0.3083416,
0.4504350,
-0.3905803,
-0.2755596,
0.1405535,
-0.6423554,
-0.4177402,
0.0164809,
0.2710308,
0.1787413,
-0.0904564,
-0.2923549,
0.0862616,
-0.4382531,
0.4016917,
-0.3437078,
0.0017422,
0.3371700,
0.0102054,
-0.0551263,
-0.3290944,
-0.2252686,
-0.3663078,
0.3262816,
0.1525677,
0.0902805,
0.2688760,
0.0358681,
0.4847316,
0.4440008,
-0.1329921,
-0.5943436,
0.2289632,
-0.1559977,
-0.3339666,
0.0933369,
0.0999500,
0.2380286,
0.1932301,
-0.1388248,
-0.6805602,
-0.1152693,
-0.0053930,
0.2270573,
0.1822552,
-0.0144817,
-0.4078563,
-0.2691303,
-0.0986154,
0.1242856,
0.1710503,
0.0644129,
0.3823692,
0.3116901,
-0.1240457,
0.1398620,
-0.0723011,
-0.4468759,
-0.5546863,
-0.1854411,
-0.3761387,
0.1382028,
0.1757717,
-0.1020452,
0.7942404,
0.2492181,
0.4684936,
-0.0695614,
-0.6302280,
-0.5224925,
0.2349764,
-0.4630948,
0.0386698,
-0.2090736,
0.3727255,
-0.2542927,
0.3580513,
0.4977686,
-0.0147444,
-0.2359110,
0.1077867,
-0.3111524,
0.3386403,
0.0337619,
0.4133211,
-0.3117917,
-0.3304613,
-0.0077361,
0.2481211,
0.1258450,
0.6839237,
0.2791459,
0.2605846,
-0.3878209,
0.1352242,
0.0208076,
0.1996146,
-0.1530482,
-0.5846308,
0.1500357,
-0.1391540,
0.2373442,
0.4062489,
-0.4008566,
-0.3385443,
0.3594182,
-0.1193380,
-0.4710745,
0.3471296,
0.3612781,
-0.1977154,
0.0255429,
-0.4393004,
-0.2472134,
0.6384287,
0.7050841,
0.2651219,
-0.0033743,
-0.0010775,
0.3164247,
-0.2050619,
-0.4239253,
-0.1147530,
0.2757181,
-0.2414509,
-0.4715081,
-0.2254997,
-0.5992118,
-0.2114864,
-0.1849926,
0.3926893,
0.4740169,
-0.3151925,
0.3682709,
-0.4133826,
-0.1472720,
0.2193023,
-0.0480811,
-0.1112882,
0.1188376,
-0.0587705,
0.3693070,
-0.2733000,
0.0115132,
0.4179042,
-0.3555164,
-0.0901843,
-0.2069596,
-0.3127746,
0.3038785,
0.5298178,
-0.1552114,
0.3601349,
-0.2232327,
-0.3873818,
-0.4705779,
-0.2318347,
-0.0180641,
-0.3514585,
0.2751890,
0.3772696,
-0.4463437,
0.2265490,
-0.4398256,
0.4141584,
0.3024594,
-0.0789096,
0.1530580,
-0.1697545,
0.3567761,
-0.2775982,
0.1321705,
-0.1165310,
-0.3495006,
0.4063279,
-0.3553840,
-0.0876045,
-0.0457334,
-0.0575118,
-0.0207852,
-0.5433637,
-0.0533535,
0.3342575,
0.3701461,
0.2269338,
-0.4339318,
0.4319785,
0.4961901,
0.0290074,
-0.4311787,
0.2514370,
-0.0986426,
-0.3778655,
-0.0300157,
-0.0066342,
-0.4330730,
-0.1334357,
0.3436980,
0.1517296,
-0.0097894,
0.1481502,
0.3990103,
-0.3869831,
-0.3979454,
-0.2132502,
-0.2752811,
0.0862158,
0.1981429,
0.0145324,
0.3934697,
-0.3433979,
0.0778927,
-0.0306483,
0.5765791,
-0.1524552,
0.4359833,
0.4915307,
-0.2768422,
0.4436033,
0.0226188,
-0.2049456,
0.2010943,
0.4331548,
-0.0763355,
-0.3151265,
-0.1039233,
-0.0187980,
-0.0644407,
-0.1102447,
-0.3177832,
-0.5714250,
0.3304973,
-0.3680170,
-0.3366371,
-0.3198535,
-0.1132770,
0.0353385,
0.0264709,
0.4199788,
0.4391145,
0.1412263,
-0.2743549,
-0.0973253,
0.1643136,
-0.4777637,
0.1130754,
0.1056370,
-0.4961256,
0.3347293,
0.0741305,
0.0076967,
-0.4203494,
-0.2800237,
-0.0330133,
0.1057038,
-0.1023782,
0.2860967,
-0.6139765,
0.2244294,
-0.4806011,
-0.3952632,
0.2752509,
-0.3166153,
0.0338596,
-0.2810567,
-0.3352987,
0.0889742,
0.0661319,
0.2450018,
0.2009006,
-0.1064004,
0.4526860,
0.0621813,
0.1678437,
0.1168454,
0.0710736,
-0.2286543,
-0.2682852,
0.0315892,
-0.3990764,
0.2851368,
-0.3704834,
-0.2725120,
-0.4987409,
0.1199161,
0.3608056,
-0.1035892,
-0.0915758,
0.1799304,
-0.2946414,
0.1224632,
0.5776199,
-0.2857162,
-0.0258594,
-0.3564385,
-0.1297672,
0.2494893,
0.4390934,
0.3849400,
-0.3327285,
-0.1623753,
-0.2575331,
-0.3630378,
0.3990969,
0.3815655,
0.2226305,
-0.1061659,
-0.3224015,
0.4079833,
-0.4743887,
-0.2024716,
0.3044641,
-0.1898159,
0.1137547,
0.3397265,
0.2119794,
-0.2064661,
-0.2618212,
-0.3680444,
-0.3949952,
-0.0538153,
-0.0620691,
0.3786297,
0.2474479,
-0.3636049,
-0.2463944,
-0.3996446,
0.1483093,
0.4887207,
0.4916595,
0.3307638,
-0.1779862,
-0.2824786,
0.4571611,
-0.3473548,
-0.4059252,
0.0616855,
0.0713895,
-0.1901800,
0.2647601,
0.2396878,
-0.0033340,
-0.0915072,
0.5520568,
-0.2113632,
-0.1471100,
0.1665105,
-0.1118963,
-0.1921737,
-0.0424273,
-0.2047632,
0.4669589,
-0.2331635,
-0.1807463,
0.1081985,
-0.2243190,
-0.0010607,
0.2446772,
0.4427361,
-0.0130791,
0.2377304,
0.2725990,
0.2495444,
0.3361714,
0.0637075,
-0.6231101,
-0.4877698,
-0.0987420,
0.0244128,
-0.2976195,
-0.2660896,
0.1481658,
0.6695631,
0.2984401,
-0.0905272,
-0.5010094,
0.1164950,
0.2732853,
-0.1854284,
-0.3229754,
0.0769686,
0.1317655,
-0.4688973,
0.2619530,
0.4916091,
0.2268992,
-0.4350260,
-0.0064873,
-0.0277313,
-0.4935675,
0.4619923,
-0.3777757,
0.2577850,
0.3311163,
-0.2914088,
-0.0615916,
0.1411612,
-0.3850854,
0.5016963,
0.2082517,
0.1720606,
-0.4572321,
0.2751030,
-0.0526466,
0.1126435,
-0.1909972,
0.1860487,
0.1071581,
-0.2535187,
0.3722164,
0.2045673,
0.2573122,
0.0673861,
0.3154002,
0.0495186,
0.0652556,
0.0431972,
0.1192217,
-0.4355275,
-0.4766496,
0.0785103,
-0.3997888,
-0.1600397,
-0.0641884,
0.3727443,
-0.0991283,
0.3188297,
0.1390173,
0.0162404,
0.2044052,
-0.3605810,
-0.1173105,
-0.3264945,
-0.1932142,
0.4616932,
0.3655651,
0.0082745,
-0.0583661,
-0.1810841,
0.1928763,
-0.1604291,
-0.4497456,
-0.0261955,
0.4140598,
0.3654366,
-0.4771011,
-0.0078684,
-0.0528749,
0.1925056,
0.1870032,
0.0392333,
-0.1828092,
0.0821159,
0.0923274,
0.0587405,
-0.1270277,
-0.3834976,
0.1165706,
-0.3291709,
0.3212793,
0.1071614,
-0.2002115,
0.4847724,
0.0523505,
-0.0907519,
0.3407498,
-0.1609226,
0.4026619,
-0.2223739,
0.1645115,
0.1046540,
0.1199653,
0.2147727,
-0.4224277,
0.0413945,
0.1129383,
-0.3624958,
-0.4504142,
0.5018078,
0.2094273,
0.1174791,
-0.0556900,
0.5226122,
-0.3616343,
-0.5000083,
0.1396043,
0.0922339,
-0.3585729,
-0.2243678,
0.1054300,
0.2687924,
0.2440718,
0.3040715,
0.2366861,
-0.2002759,
-0.2555772,
0.0803630,
0.1425210,
-0.3533589,
0.3579777,
-0.1929675,
0.2513137,
-0.0195027,
-0.4735729,
0.3346826,
-0.4817867,
0.1039142,
0.4425754,
-0.4528677,
0.0888412,
0.1909726,
0.1001526,
-0.4574806,
0.2058178,
0.2279150,
-0.4206816,
-0.1555274,
-0.2817027,
-0.3623966,
0.1057478,
0.3281670,
0.4169334,
-0.1617992,
0.1599010,
0.1633937,
0.1408002,
0.4043257,
-0.2562424,
-0.2166788,
-0.4490333,
-0.3982650,
0.0903458,
0.3036218,
0.0873795,
0.1182536,
0.1298866,
0.0922719,
-0.2817706,
0.0730253,
0.1226677,
0.3152366,
-0.2557636,
-0.3044488,
0.3068768,
0.4069810,
0.3810001,
0.3506762,
-0.2581160,
-0.3621656,
-0.4974062,
0.3255965,
0.4689385,
0.4218368,
-0.3362042,
0.1288396,
0.0852305,
0.3045960,
0.0331652,
0.3289881,
-0.4120828,
0.0841320,
0.4307234,
0.1782710,
-0.1136062,
0.0104018,
-0.2095770,
-0.4815945,
-0.3979329,
0.0048256,
0.0819608,
0.2190037,
-0.1902289,
0.3166455,
0.4126826,
-0.3844294,
0.2220973,
0.3117089,
0.4758075,
0.4614062,
0.4509302,
0.4796658,
0.2870027,
0.4198687,
0.4015026,
0.4507985,
0.0487082,
-0.0132670,
0.2553944,
-0.4181340,
-0.1842957,
0.3433822,
0.1660276,
-0.2538366,
0.0215487,
-0.4480743,
0.2564221,
0.3083328,
-0.4392442,
0.3593124,
-0.1839935,
0.1507772,
0.0750822,
0.1234871,
-0.0351399,
-0.0099007,
0.2421329,
-0.3084893,
-0.1977103,
0.2179507,
-0.3470830,
-0.2467801,
0.1976165,
0.4399197,
-0.3269400,
0.0990564,
0.3907158,
0.2217903,
-0.4142055,
0.1474359,
0.3178614,
-0.0647945,
0.0307125,
0.0111081,
0.1981051,
-0.4664019,
-0.0156102,
-0.1189004,
0.3104153,
0.0729636,
-0.2652758,
-0.3889394,
-0.2793303,
0.3257325,
0.2599383,
0.2129273,
-0.1677461,
0.0085300,
0.4065754,
0.1345278,
-0.2735193,
-0.4388286,
0.3881855,
0.4248474,
0.4918676,
-0.4431956,
0.0201979,
0.4017974,
0.3274030,
0.1920630,
0.1082924,
0.1673576,
-0.3856609,
-0.4323573,
-0.4725229,
0.1457302,
-0.4350310,
0.1233448,
-0.4121282,
0.3241366,
-0.3519469,
-0.1870283,
0.4826423,
-0.0899147,
-0.3168384,
0.2683494,
-0.3683467,
0.0011777,
-0.2255839,
-0.4560925,
-0.3658177,
-0.0123976,
-0.4261494,
-0.4837966,
-0.0678428,
-0.3724115,
-0.3353158,
0.5048804,
0.6017383,
0.4979993,
0.1768058,
0.1500017,
-0.0374389,
0.0546343,
0.0625710,
0.0563056,
-0.2790056,
0.0667934,
-0.4649690,
-0.2929212,
-0.0983197,
-0.2601578,
0.1264403,
-0.0549446,
0.1715609,
0.2863262,
-0.2890797,
0.3071075,
-0.2124270,
-0.0221166,
0.3214262,
-0.0876771,
0.4802743,
0.4879052,
0.0345541,
0.0996747,
-0.2016386,
0.2645917,
0.0057661,
-0.4062637,
-0.0525717,
0.4476372,
0.0528802,
0.2818440,
-0.0737864,
-0.4118192,
-0.1391925,
0.1461810,
0.0849600,
-0.1367291,
-0.5245512,
-0.3829541,
0.2009377,
0.1187122,
0.0758738,
-0.1250813,
-0.1063989,
0.2789633,
-0.2974616,
0.2003992,
-0.1885715,
-0.3839935,
-0.2875366,
-0.0279795,
0.6765332,
0.1866582,
0.2271790,
-0.3382523,
-0.2337107,
-0.2846691,
-0.4315633,
-0.0351807,
0.4456844,
0.0254783,
-0.2082262,
-0.1105711,
0.1373802,
0.1164781,
-0.4091071,
-0.1382920,
-0.3557163,
-0.3570548,
0.0050274,
0.3582906,
0.2731829,
-0.4080766,
-0.2606586,
-0.3257762,
0.4002155,
-0.0213385,
0.3950268,
-0.2302976,
0.1476144,
0.5472276,
0.0073849,
-0.0195782,
0.1202011,
-0.3481720,
-0.2229146,
-0.1033818,
-0.5859999,
-0.2295821,
-0.4982533,
-0.5095025,
-0.4692018,
-0.1086614,
-0.0927629,
0.2431346,
-0.3368531,
0.1162018,
-0.3591298,
-0.1723167,
0.2786984,
0.1574708,
-0.2982575,
-0.0069381,
0.2110887,
-0.1384081,
0.1552085,
0.2232785,
0.4426562,
0.0180043,
0.1817407,
-0.2446057,
-0.0283548,
-0.5598579,
0.0838206,
-0.6363066,
-0.5097717,
-0.4344173,
0.0813250,
-0.2010172,
0.1589438,
0.2832344,
-0.1772041,
0.2054820,
-0.2240630,
0.3221059,
-0.0179241,
-0.0589388,
-0.0569287,
0.1692251,
0.2920686,
-0.3479920,
-0.3257654,
0.2972305,
0.1215267,
0.5236623,
-0.1821981,
-0.1171309,
0.0201808,
-0.3281525,
0.3291170,
-0.2065513,
0.0093156,
-0.0265143,
-0.0611559,
-0.2902948,
0.0628817,
0.1892624,
-0.1615691,
-0.2891665,
0.4632135,
0.4834284,
-0.4662065,
-0.1779131,
0.2036573,
-0.1856693,
-0.3782494,
-0.3188379,
0.2539843,
0.0708372,
0.2990661,
-0.0905994,
0.1034490,
-0.5163678,
-0.1492323,
-0.0705036,
-0.4396323,
0.1700456,
0.2919180,
0.1058495,
0.5572974,
0.5680180,
0.7197356,
0.1157557,
-0.0081188,
-0.0225041,
0.0895485,
0.3435721,
-0.3952291,
0.4518455,
-0.4248960,
-0.4131777,
0.4380924,
-0.3879973,
-0.1059661,
0.1089918,
-0.1142397,
0.0867930,
0.3890376,
-0.4117323,
-0.4541235,
0.1276531,
0.2613950,
0.4518335,
0.1721904,
-0.5974086,
-0.2482456,
0.1755747,
0.4607034,
0.1140397,
0.2808385,
0.5732508,
-0.1930597,
-0.0409841,
-0.1779956,
-0.0142467,
0.3541426,
0.4091474,
-0.1610544,
0.4456645,
0.3623418,
-0.0800139,
-0.4518774,
0.2645005,
0.0080129,
-0.0036900,
-0.0002729,
0.4704860,
0.5343707,
-0.1404477,
-0.3665252,
-0.3366131,
0.3061743,
0.0308571,
-0.5598281,
0.0894917,
0.5599895,
0.2676220,
0.1523899,
0.4471853,
0.4056895,
0.3431555,
0.2040316,
0.4459810,
-0.3217635,
0.4841519,
-0.0831874,
0.4816381,
0.3860657,
0.2588227,
0.4347394,
0.2284230,
-0.3433836,
0.4947079,
0.0806936,
0.2748770,
0.0019791,
0.5698950,
0.2056416,
-0.1628172,
-0.4158087,
0.0488149,
-0.0119635,
-0.3264631,
0.1749482,
0.2820811,
0.3766270,
-0.0450794,
-0.2969594,
-0.2893749,
-0.2316236,
0.3637797,
0.3800678,
0.4025813,
0.2459123,
0.4889487,
0.3515759,
-0.3398431,
0.4742859,
0.2317059,
0.4122095,
0.4525695,
0.0829681,
-0.3514959,
0.3477344,
-0.3393613,
0.3914912,
-0.2938802,
-0.4838760,
-0.0357070,
0.1161518,
-0.2417639,
-0.2486334,
-0.1290507,
0.0573093,
0.1676276,
0.3706228,
-0.2502976,
-0.4430420,
0.3653147,
-0.2447568,
-0.2587564,
0.1481002,
-0.4198397,
-0.4084454,
-0.1120793,
-0.4039649,
0.4623453,
0.0948258,
-0.3612666,
0.3137508,
-0.0244609,
0.5071061,
-0.1898542,
0.1006968,
0.2384519,
-0.2207158,
-0.0276031,
-0.3400315,
-0.2761025,
0.2830316,
0.2297269,
0.0961669,
0.4109408,
0.5113919,
0.4864214,
-0.0587381,
0.2517929,
-0.3438927,
0.0127548,
0.0686770,
-0.1514312,
0.2082239,
-0.3011749,
-0.0424793,
0.3334120,
0.1384251,
0.1502980,
0.3530026,
-0.2756681,
0.1110244,
0.0542309,
0.1798380,
0.0340516,
0.1400673,
-0.1873372,
-0.1574311,
0.3852321,
0.0280101,
-0.2279711,
-0.3168480,
-0.1976326,
-0.3020306,
0.2210264,
-0.3723082,
-0.4417799,
0.1649146,
0.0949083,
0.2555709,
0.2030960,
-0.4455309,
-0.1823139,
-0.4461776,
0.3137489,
0.0869526,
0.1113340,
0.1401305,
-0.2096194,
0.6177644,
-0.0905926,
-0.0947049,
0.0647002,
0.3325557,
0.5169362,
0.4898538,
-0.1771549,
-0.4862264,
-0.2409186,
-0.2140944,
0.1198662,
0.1383470,
-0.0002680,
0.3730691,
0.2121408,
-0.3604980,
0.4653363,
0.2060801,
0.1760077,
0.0158061,
-0.0390808,
-0.1448539,
0.1032821,
0.3201595,
-0.0152360,
-0.0115115,
-0.0180987,
0.5038939,
0.5134827,
0.0970462,
0.5020261,
-0.0855976,
0.4182032,
-0.0601323,
-0.5490698,
0.0412065,
-0.1459548,
0.0029337,
0.2247030,
0.1491460,
0.4162516,
-0.0432794,
-0.1865011,
-0.1816564,
-0.2306544,
0.4601578,
-0.1334846,
-0.2867957,
0.1649898,
-0.4883352,
0.1993571,
-0.4322028,
-0.0940720,
-0.1174997,
0.4763780,
0.3449793,
0.1847327,
-0.1074846,
0.4370009,
0.3102813,
0.2342941,
0.0916689,
0.1978069,
-0.2321894,
-0.5661236,
0.3650312,
-0.4982541,
-0.0754678,
-0.0778137,
0.3345519,
-0.4058801,
-0.2249891,
-0.2258726,
-0.1081409,
0.0528969,
0.0276813,
-0.1462294,
0.3868882,
0.1648921,
-0.5646650,
0.3845719,
-0.0581414,
-0.4277097,
-0.2838822,
0.2214182,
-0.2506050,
0.0619366,
0.1698518,
-0.2170362,
0.5173512,
0.4583861,
0.2355695,
0.0338619,
0.2019830,
-0.2707445,
0.1517748,
0.1860751,
-0.1119913,
-0.3337400,
-0.3681359,
-0.2418529,
-0.2183626,
-0.1120217,
0.0254526,
0.1749889,
0.4059870,
-0.4831727,
-0.5207212,
0.2309264,
0.1291595,
-0.6653354,
0.1543657,
-0.2550485,
-0.1612951,
-0.0970822,
-0.2550790,
-0.1920829,
0.0070884,
-0.0001844,
-0.1245452,
-0.0077529,
-0.0974294,
-0.2467495,
-0.4219822,
-0.2138943,
0.1617974,
0.2992172,
0.4543668,
-0.4663719,
0.4615956,
-0.4333466,
-0.2104807,
-0.2568779,
-0.0675039,
0.3055417,
0.4067379,
-0.1702233,
0.2817507,
0.3198653,
-0.3294980,
0.1383489,
0.5587016,
-0.3125181,
0.5219907,
-0.2247774,
-0.1781940,
0.4846526,
-0.2173166,
0.2591397,
-0.1241304,
0.2127323,
-0.3831792,
0.4069070,
-0.3654095,
-0.2307162,
-0.3327736,
0.2575039,
-0.4475116,
-0.3906553,
0.2901245,
-0.4883726,
-0.3280385,
-0.3848999,
-0.2502819,
0.1467259,
0.3799989,
-0.4113650,
-0.5292279,
0.1613604,
-0.4560521,
-0.1355399,
-0.0978164,
-0.4545697,
-0.2145167,
-0.1407660,
-0.3241621,
0.1340725,
-0.1168577,
0.0398101,
-0.1178164,
0.3893590,
-0.1214703,
0.0344681,
0.2722981,
-0.0297553,
0.2849289,
0.4310236,
-0.2722890,
0.3352407,
-0.4674578,
-0.4752922,
0.3542198,
-0.3047438,
-0.4511879,
-0.4095813,
0.3181644,
0.4244091,
-0.2560535,
0.3693787,
0.2512450,
-0.2115383,
-0.3992039,
-0.4106826,
-0.0346664,
0.0667452,
0.1321485,
0.2271253,
-0.3132971,
0.4891580,
-0.2033690,
0.0321549,
0.3228436,
0.1449440,
-0.4427033,
0.0888048,
-0.3849761,
0.3418347,
0.0224898,
-0.1362542,
0.1859522,
0.0592520,
-0.1527164,
-0.0242217,
0.2119121,
-0.0695389,
0.1740245,
0.0842927,
-0.1013330,
0.3875448,
0.0149291,
-0.3194719,
-0.1399745,
0.1810860,
-0.1049562,
0.2980955,
-0.3272980,
0.4889794,
0.0180034,
-0.1740103,
0.4511320,
0.3072633,
0.3520319,
0.2713872,
-0.0481206,
0.4093286,
-0.1398248,
0.0636260,
0.2402261,
0.3646721,
0.4022411,
-0.0728692,
-0.0964998,
-0.2585679,
0.4408968,
-0.2835851,
0.2179428,
0.0739213,
0.3155557,
-0.3631021,
0.0107833,
-0.1671473,
-0.1084177,
0.3383943,
0.4816775,
0.2879814,
0.1446994,
-0.3434756,
0.2736025,
-0.3385175,
-0.0176159,
0.2245621,
0.4685494,
-0.1655841,
-0.0040507,
-0.0795602,
-0.2561589,
0.3553595,
0.4823676,
0.4909673,
0.2359800,
0.3973151,
-0.0757355,
-0.3284473,
-0.3295329,
-0.1147017,
-0.1094813,
0.3965132,
0.4959249,
-0.2634590,
-0.4215106,
0.0183469,
0.0705147,
-0.0400806,
-0.1410240,
0.0600233,
-0.2510080,
-0.4967180,
0.2165484,
-0.4774052,
-0.3352356,
-0.3010675,
0.2471569,
-0.3666862,
0.0333485,
-0.2568938,
0.0537426,
0.2770930,
-0.4007525,
0.0410746,
0.2723916,
0.3354988,
-0.0617065,
-0.3010540,
-0.4882094,
0.1052235,
0.0877250,
-0.0950444,
0.0006586,
0.0788768,
0.1385129,
0.0744076,
-0.4051522,
-0.2907222,
-0.4658172,
-0.0463270,
0.2693011,
-0.2168252,
-0.0430450,
-0.0141504,
-0.1942304,
0.1217195,
0.1847841,
-0.4467009,
0.2558248,
-0.2804305,
-0.2026326,
-0.1879986,
0.4967115,
-0.0908334,
0.3616745,
0.2714095,
-0.2643828,
-0.2078255,
0.4677552,
-0.2550233,
0.3973579,
0.0569374,
0.1503413,
-0.1035019,
-0.3666642,
-0.2140540,
0.4681849,
-0.2720478,
-0.0047762,
-0.4976323,
0.1816251,
-0.2354752,
-0.2142960,
-0.3612753,
0.2505003,
0.0922944,
0.2627440,
-0.0600711,
0.1512753,
0.0320061,
0.1660669,
0.4532299,
0.3379797,
0.1425241,
-0.1583795,
0.1859633,
-0.0790659,
0.0680881,
0.4711652,
-0.1135665,
0.3105993,
0.3586061,
0.4382670,
-0.0416447,
-0.2496146,
-0.4300399,
0.2420975,
-0.2830649,
-0.2020877,
-0.2625622,
-0.2801511,
0.4801313,
0.0057899,
0.0024212,
-0.3802485,
-0.2248609,
-0.3849193,
0.3826611,
0.2195108,
0.3116074,
-0.0537358,
-0.1640002,
0.1787001,
-0.2377161,
0.5482467,
-0.4692717,
0.4084987,
-0.0719204,
0.0788839,
0.3433486,
0.2720915,
-0.1103213,
0.2224008,
0.2276720,
0.3473296,
0.4573944,
0.2947456,
0.0898763,
-0.3229105,
-0.3982762,
0.3335841,
-0.1060409,
-0.4261461,
-0.1119359,
0.4569224,
-0.2320079,
0.1647001,
0.5354119,
-0.4380354,
-0.2835600,
0.1618520,
-0.1226988,
0.0875934,
-0.0382290,
0.1382887,
0.0858851,
-0.0436513,
0.0645945,
-0.4926628,
-0.4863681,
-0.0680122,
0.2888820,
-0.0979347,
-0.3655300,
0.0160455,
-0.2468439,
-0.4030004,
-0.1650903,
0.3982501,
-0.1918466,
-0.0278324,
0.2437654,
0.3192865,
0.1699404,
0.6183622,
0.0825435,
0.2122079,
0.1237853,
0.0920508,
0.1928506,
0.2487432,
-0.2603559,
-0.3020102,
-0.0799807,
0.1560767,
0.3785455,
-0.4414749,
-0.3686883,
-0.0680939,
-0.4532045,
-0.3545236,
0.3754779,
0.3481456,
0.0583182,
-0.4695509,
-0.1003643,
0.3197074,
-0.3741918,
0.2084606,
0.2561376,
0.1020904,
-0.2588527,
-0.0674206,
-0.3537354,
0.2214643,
-0.1892091,
0.0670124,
-0.2657243,
0.3922059,
-0.3724748,
0.4079888,
0.2694043,
-0.0649867,
-0.3609584,
-0.2820820,
-0.3158504,
-0.4479562,
-0.2404139,
-0.2327970,
-0.0209798,
-0.1897629,
-0.0873908,
-0.1213303,
-0.2989630,
0.4658000,
-0.1360833,
0.0539429,
0.3944475,
0.0810614,
-0.1936617,
-0.0636766,
0.3408242,
-0.2027815,
0.1193294,
0.2022689,
0.3908387,
-0.3849293,
-0.0143338,
-0.4306543,
0.4884132,
0.1139608,
-0.4914099,
0.2400606,
-0.4477135,
-0.3129285,
0.4069382,
-0.3563202,
-0.3152688,
-0.3458936,
-0.1021606,
0.1601279,
-0.0108363,
0.2956430,
-0.5777160,
0.0815038,
0.3426937,
-0.0628754,
-0.2897667,
0.0615866,
0.3763740,
-0.1416156,
-0.4612355,
0.1370447,
0.1708503,
0.3799330,
0.1706398,
0.0216426,
0.3160453,
0.4768867,
-0.0040142,
0.3273087,
0.1089194,
0.0069065,
-0.0080919,
0.0921149,
0.1470447,
-0.0958297,
0.2292216,
0.3020836,
0.0983982,
-0.3837933,
-0.1322468,
-0.5426679,
0.4765236,
0.0623241,
0.1069203,
0.2086218,
0.5436523,
0.5596085,
0.0350757,
0.3582009,
-0.2342349,
-0.0113051,
0.0359748,
0.2667780,
-0.4514791,
0.3927338,
-0.2997564,
0.5024281,
0.4879920,
0.1904354,
0.2618443,
0.0488453,
-0.3380260,
-0.2490558,
-0.3663826,
0.3151911,
0.1828064,
0.3282528,
0.0609315,
-0.3573165,
-0.3936119,
-0.2915281,
-0.2719151,
-0.5574854,
0.2814167,
0.6624523,
0.4814531,
0.1580118,
0.2743426,
-0.2558026,
-0.1836530,
0.3312054,
0.0051910,
0.1863482,
0.0886208,
0.2355656,
0.2445662,
0.2904002,
0.1136788,
0.1465408,
-0.1020884,
-0.1453538,
-0.2942367,
0.0895668,
0.1344351,
-0.2305641,
-0.2207158,
-0.2916313,
-0.1984839,
-0.4946785,
-0.1545841,
-0.4403285,
-0.4033066,
0.3350749,
-0.1072568,
0.3116343,
0.0439455,
-0.4610909,
-0.1331192,
-0.2815605,
-0.4415713,
0.0950054,
-0.3672912,
0.2683760,
-0.1188386,
0.1658623,
-0.1659336,
-0.4885089,
-0.1261055,
0.4343153,
0.1684883,
0.2772711,
-0.2084933,
0.2722960,
-0.2606092,
0.3892687,
-0.4114352,
0.0733152,
-0.5263906,
-0.3561425,
0.0371325,
0.0989407,
0.2488570,
0.4271215,
-0.2165597,
0.3352930,
0.1448261,
0.3350691,
0.2521529,
0.3494274,
-0.3431168,
-0.4068880,
0.0893647,
-0.1515138,
0.2720873,
0.4270571,
-0.4977262,
-0.4018825,
0.4469021,
-0.1333113,
-0.5111613,
-0.0038238,
-0.3918221,
-0.1679592,
-0.1041447,
-0.1523394,
-0.4831095,
-0.0615344,
-0.3736707,
-0.1695271,
-0.4200119,
0.4080620,
0.4760105,
0.0645995,
0.2090858,
-0.2311545,
-0.1274542,
-0.2403511,
-0.2855453,
-0.1194005,
-0.1287700,
0.0629328,
-0.0478310,
0.4588486,
0.4278018,
-0.2738242,
0.3955193,
0.4248581,
-0.2155901,
0.2106287,
-0.2655647,
-0.1698593,
-0.0955756,
-0.0673589,
0.2123423,
0.3254694,
0.3666298,
0.3488304,
-0.0412289,
-0.4030340,
-0.2995977,
-0.1115594,
0.5491345,
-0.2528083,
-0.4294717,
0.2648086,
0.0230651,
0.1080283,
-0.3227991,
0.3902013,
0.4741813,
-0.0171728,
-0.0408735,
-0.0645902,
-0.0519924,
-0.1309474,
0.1005324,
-0.2325164,
-0.1976990,
0.4778814,
-0.3357114,
0.1269562,
-0.0569633,
0.1559378,
-0.4393881,
0.5055478,
-0.0601910,
-0.4911709,
0.3105579,
0.3855336,
-0.2537114,
-0.3888797,
-0.0273938,
-0.2693362,
-0.1893050,
0.0150259,
0.3953883,
0.3870428,
-0.4198702,
0.4702365,
0.2825821,
-0.4385131,
-0.0367597,
-0.2788820,
-0.0678245,
0.3608060,
0.0864474,
-0.4285210,
-0.2751557,
0.5430809,
-0.1438410,
0.0941731,
0.0723746,
0.0478814,
0.3925859,
0.0981091,
-0.1791183,
-0.2019230,
0.2022179,
-0.2381602,
-0.0966853,
0.3997548,
-0.0728375,
0.2308274,
0.4230483,
0.1711954,
-0.3271025,
0.2329116,
0.0932396,
-0.2232619,
0.2038051,
-0.1210077,
-0.1982708,
-0.3389537,
0.0886585,
0.3273393,
-0.3737370,
-0.1468516,
0.7381486,
0.0065104,
-0.2914001,
-0.4436162,
0.1470118,
0.1286138,
-0.1627714,
0.0030840,
-0.1206411,
0.4826376,
0.5383378,
-0.2986106,
-0.1667861,
-0.0962871,
0.3718404,
0.1048276,
0.4708621,
0.2116526,
-0.1940168,
-0.3436750,
-0.0548988,
0.4146373,
-0.0562733,
-0.2960141,
-0.2301498,
0.3530331,
-0.0313753,
0.6010943,
0.2341924,
-0.0700437,
-0.3933879,
-0.0274466,
0.2532673,
-0.2038593,
0.0610345,
-0.2833912,
-0.4224168,
-0.2958351,
0.5279241,
0.1033587,
-0.2601632,
0.5340319,
0.0884376,
-0.1486266,
-0.3342795,
-0.1189012,
0.4456095,
-0.3629717,
-0.4009076,
-0.2187923,
-0.1194356,
0.1613319,
-0.2306908,
0.2746641,
0.2378808,
0.0397009,
0.0790955,
-0.5544494,
-0.2688047,
-0.4426181,
0.0338579,
0.0969403,
0.1704708,
-0.4951129,
0.2328845,
-0.1751605,
0.0117944,
0.4473599,
0.0311934,
-0.1564960,
-0.0913035,
0.0706285,
-0.3486977,
0.4315331,
0.3924209,
-0.1762499,
-0.1850553,
0.3680572,
0.0714031,
0.0065792,
-0.2721876,
0.3283456,
0.4735098,
-0.2572308,
-0.0405279,
0.0665712,
0.0531502,
0.4899863,
0.4106829,
0.6387619,
-0.4164002,
-0.3597694,
-0.1135292,
0.2555758,
-0.2541741,
-0.1693962,
0.5324560,
0.0381972,
-0.3729693,
-0.0654385,
0.2486679,
-0.0138493,
0.4699217,
0.4086020,
-0.0774630,
0.3852512,
-0.2360127,
0.2502596,
0.2926016,
0.2809492,
-0.4470212,
0.1497916,
-0.1438311,
-0.4210545,
-0.4552655,
0.4197878,
0.4520140,
0.3204084,
0.4583316,
-0.0526800,
0.1332486,
0.4845023,
0.1755558,
-0.3437089,
0.1045992,
0.1900601,
-0.1039081,
0.1185654,
-0.3401800,
-0.0352091,
-0.4995939,
0.4088550,
0.4510889,
0.4722905,
0.3351455,
-0.1277991,
0.3279963,
-0.4477313,
-0.4383217,
-0.0537710,
0.1306527,
-0.1919442,
-0.0823003,
-0.2141563,
0.0041034,
-0.1446853,
-0.3930668,
-0.3653574,
-0.3693488,
0.5829685,
0.2007493,
0.2996141,
0.4377602,
-0.3397402,
0.3743908,
0.0588425,
0.3171255,
-0.2884765,
-0.3808529,
0.4664017,
0.1766737,
-0.3676986,
0.3852075,
0.0959321,
-0.5184452,
0.1213197,
0.4007549,
0.3696107,
0.2125879,
-0.2379019,
0.0911543,
0.0537288,
-0.2056111,
0.3070613,
0.1742291,
0.2720377,
-0.2449658,
0.3336989,
0.4219818,
-0.2806609,
0.2522846,
-0.0599972,
0.4397776,
0.2155294,
0.0752343,
0.2718882,
-0.2691052,
-0.1206485,
0.4837961,
-0.1429689,
-0.1524810,
0.1394168,
-0.1027984,
-0.3388785,
-0.2090181,
0.0865943,
0.4106186,
-0.1667342,
0.0694240,
0.2565814,
0.0598040,
0.5144842,
-0.2373455,
0.3455346,
0.2135714,
0.2881015,
-0.0960893,
0.3558114,
0.0987525,
-0.2336180,
-0.4689561,
-0.1083737,
0.2042983,
0.4467482,
-0.4110489,
-0.2260718,
0.2187090,
-0.1810141,
0.1473645,
0.1867602,
0.1297961,
0.4779024,
-0.0733405,
-0.2000580,
-0.1878832,
0.1640332,
0.2509948,
-0.3466099,
0.4452827,
-0.3596643,
0.2863597,
-0.2207521,
-0.4193161,
0.4309334,
-0.4854225,
0.3452705,
0.2692166,
-0.0236417,
0.1873015,
-0.1165615,
0.2427708,
0.2154903,
0.2758629,
-0.0542069,
0.1622386,
0.3647817,
0.2175766,
-0.1236242,
-0.3175201,
-0.1326143,
-0.4178338,
0.3703291,
-0.1259448,
-0.0388415,
0.4978527,
0.1081566,
-0.3956250,
0.2021214,
0.2238219,
-0.4919507,
0.3702202,
0.0197825,
-0.1581726,
0.5105309,
-0.0318818,
-0.1234535,
0.3280039,
-0.2713557,
0.3471387,
0.0119923,
0.1121562,
0.0892603,
-0.2725174,
-0.1119808,
-0.4649274,
0.3897747,
-0.2465131,
0.2582267,
-0.2253751,
-0.0602617,
-0.3700681,
-0.1438425,
-0.2076393,
0.0001213,
0.3018006,
-0.2170997,
-0.4091357,
0.3905746,
0.4764975,
0.3165870,
0.4160410,
0.3603073,
-0.1574543,
-0.2465996,
0.3460101,
0.2967931,
0.1288917,
0.1740580,
-0.4745629,
-0.0239696,
-0.3139497,
0.1375933,
-0.4347093,
-0.0864670,
-0.4743875,
-0.3996559,
-0.1967458,
-0.2215543,
0.3551188,
0.0738505,
0.2150188,
0.4808228,
0.4273034,
-0.4920225,
-0.0172956,
0.2255649,
-0.2059433,
0.0745955,
0.1171719,
-0.2268493,
-0.1073633,
0.0336475,
-0.3736822,
0.2295171,
0.2868149,
0.4723279,
0.0263103,
-0.0842934,
0.1463859,
0.0517473,
0.3917364,
0.3324193,
-0.3143465,
0.4507209,
-0.2583907,
-0.2873729,
-0.4490436,
0.0404541,
-0.0369822,
0.3977331,
-0.3736089,
-0.2867378,
0.3922472,
-0.4526660,
-0.2856409,
-0.1246475,
0.2748862,
0.0113178,
0.4521625,
-0.1074592,
0.2845255,
-0.1546784,
0.4268250,
0.4108433,
-0.4251612,
0.2136400,
0.3831717,
0.1011141,
-0.3706849,
0.0295093,
-0.3486388,
-0.4867208,
-0.1514078,
-0.1751397,
0.4414827,
0.0386026,
-0.0518089,
-0.5377705,
-0.4029881,
-0.4751636,
0.4390160,
-0.2437494,
-0.2481840,
0.3508707,
-0.1646007,
-0.0179036,
-0.2743375,
-0.3937701,
0.4880922,
-0.3261392,
-0.0001160,
0.2731452,
0.0194543,
-0.0732909,
0.1838958,
0.0939441,
-0.3593910,
0.0601876,
-0.3330136,
-0.2667360,
-0.4723534,
-0.2624442,
-0.2933404,
-0.2024291,
-0.0416565,
-0.4280853,
-0.4879072,
-0.2622745,
-0.2046249,
-0.2799855,
-0.1829687,
-0.2102002,
0.0116299,
0.0768159,
-0.3928602,
0.3383049,
-0.4633462,
-0.1833017,
0.4415195,
-0.4758534,
-0.0087151,
-0.0585909,
0.2967179,
-0.4916885,
0.3515655,
-0.0583275,
0.0258029,
-0.5649294,
-0.5898329,
0.1617397,
-0.3145645,
-0.4740032,
-0.4339885,
0.0967294,
0.1529491,
0.2706632,
0.3527932,
0.2406758,
-0.3640628,
-0.2197855,
0.4820244,
-0.0691254,
-0.0662395,
-0.0442264,
0.4656199,
-0.0177455,
-0.2708003,
0.4781486,
0.3074092,
-0.3251358,
-0.4968319,
-0.2033935,
0.0879365,
0.2738321,
-0.2588416,
-0.0814031,
-0.2839512,
0.4207838,
0.0004017,
-0.1611020,
0.3741273,
0.1570562,
-0.1454368,
0.0742996,
-0.4514544,
-0.5161310,
0.2032679,
-0.2366011,
0.3555868,
0.4202227,
-0.0755600,
0.2225230,
-0.2997782,
0.1987621,
-0.4670728,
-0.3817852,
-0.2951799,
-0.2237096,
-0.4000125,
-0.4899335,
-0.0608775,
-0.3373550,
-0.2367390,
-0.4532371,
0.2916027,
-0.0531801,
-0.0188230,
-0.4779196,
-0.0793967,
-0.8432344,
-0.3201101,
-0.4465489,
0.1751704,
0.4518599,
-0.1257617,
-0.0264043,
-0.3040724,
0.4195247,
-0.0303929,
0.4313805,
0.1196346,
0.1486772,
-0.0314501,
0.2829083,
-0.1319275,
0.0080742,
0.4048571,
0.0760082,
0.2771589,
-0.4125928,
0.1111798,
-0.3140168,
-0.5764737,
0.3404036,
-0.3536602,
-0.8205527,
-0.2401047,
-0.1328551,
-0.2909846,
-0.0749517,
0.6369555,
0.3613405,
0.1083809,
0.4452344,
0.3012194,
0.0760382,
0.5300837,
0.4675902,
-0.1921337,
-0.2674081,
0.1088670,
0.3386723,
0.3580581,
-0.4424189,
0.1204121,
-0.2681440,
0.0313764,
0.1688785,
0.3727076,
-0.1231443,
-0.1517954,
-0.3163828,
-0.2870076,
-0.3538594,
-0.4693676,
0.2346206,
0.2307932,
0.6350124,
0.5281787,
0.5040502,
0.3869022,
0.1403346,
0.1323268,
-0.2739824,
-0.0518190,
-0.1134136,
0.1605899,
-0.2255247,
-0.4965032,
0.2971949,
-0.0675885,
0.0960541,
0.1327406,
-0.2078690,
0.1607799,
-0.0958350,
0.1180130,
-0.3284130,
0.0855113,
-0.5052591,
-0.2681816,
-0.3373688,
0.2136912,
-0.1370973,
0.4821062,
0.3548219,
-0.3412435,
-0.0150854,
0.2347548,
0.3379914,
-0.0453982,
0.1978786,
-0.0364065,
0.4452641,
0.2975663,
0.2879202,
-0.3356698,
-0.1647449,
-0.4991344,
-0.3370903,
-0.3523097,
-0.0568153,
0.3171364,
0.2745083,
0.2379831,
-0.1562996,
-0.5901054,
-0.2727253,
0.2543387,
0.4707603,
0.3082709,
-0.2424670,
-0.5940223,
-0.3452660,
-0.3076758,
-0.5354820,
-0.2766051,
0.0024027,
0.1840807,
-0.4304856,
-0.4107340,
0.4214390,
0.1202597,
0.0561262,
0.4081927,
-0.0918318,
-0.1817624,
-0.4339844,
0.2605653,
-0.1644720,
-0.2910552,
0.3445404,
0.1997856,
0.3760474,
0.2555943,
0.2437062,
0.1244171,
0.5178516,
0.3287695,
0.2618395,
-0.1600312,
-0.4688267,
-0.6620926,
-0.4002528,
-0.0174459,
0.0565850,
0.0404617,
0.3488373,
0.2518073,
-0.4189058,
0.2727790,
0.4966983,
-0.3577036,
-0.0926049,
0.0234742,
-0.4754918,
0.3206269,
0.3632842,
-0.4928715,
0.0365270,
-0.3126302,
-0.2034160,
0.1013284,
0.5932418,
0.0111806,
-0.3730410,
-0.0261243,
0.1616739,
0.2043977,
-0.3890962,
0.0525278,
-0.3731484,
0.0146457,
0.3327831,
0.2033520,
0.4590504,
-0.2677725,
-0.4206176,
0.1125876,
-0.3459338,
-0.0905836,
-0.0626546,
-0.3561182,
0.0176927,
0.3559717,
0.1729460,
-0.0858118,
0.1385691,
0.1073946,
0.0325615,
-0.2524483,
0.2508190,
0.3718715,
0.0928854,
0.1347177,
-0.1981536,
0.2090319,
0.5763148,
0.4311577,
0.0608565,
-0.1407964,
0.0020094,
0.0580677,
-0.1234499,
-0.2614643,
-0.3760863,
-0.1869566,
0.1528968,
0.0606614,
-0.4845239,
0.3260789,
0.4400875,
-0.0299759,
0.4664436,
-0.1465045,
-0.1433301,
0.1429957,
-0.4329902,
0.5138161,
-0.2897321,
0.0304821,
-0.2757523,
0.3414744,
0.1679894,
0.5590001,
0.0499839,
0.5696188,
0.2469292,
0.0065263,
0.1399519,
0.3846720,
-0.1635185,
-0.5733927,
-0.0782385,
0.3477773,
-0.0334915,
0.3494124,
-0.2671846,
-0.3311650,
-0.1007000,
-0.2466595,
0.5166841,
-0.2468897,
0.1959148,
0.3729271,
0.3534341,
-0.4650277,
0.2172153,
0.2315048,
0.2351660,
0.1788368,
-0.0960944,
-0.2839631,
0.1947443,
-0.1757300,
0.6966265,
0.3802333,
0.1620632,
-0.1618528,
-0.4425494,
-0.1767073,
-0.0148666,
0.2070523,
0.0553615,
-0.4344959,
0.1206778,
-0.3671118,
0.4266045,
0.3458905,
-0.2139793,
-0.2758902,
-0.4433258,
-0.2514272,
0.2538602,
0.4387152,
-0.1950829,
-0.0457884,
0.2266811,
0.4363646,
-0.1620871,
0.1366261,
0.0316474,
0.4646109,
0.5835389,
-0.3159402,
0.1771519,
0.1602246,
-0.6360903,
-0.0088974,
-0.1358443,
-0.1323201,
-0.5150168,
0.4203950,
-0.3320743,
0.2084416,
-0.4882598,
0.2832538,
0.2916693,
0.3774098,
0.1962107,
-0.3193386,
-0.1832742,
0.2227153,
-0.0212494,
0.4091556,
0.0945725,
0.3058268,
-0.0825572,
-0.1937231,
0.0695056,
0.5027656,
-0.1357738,
-0.1406344,
0.0824986,
-0.6062563,
-0.3767091,
-0.2062208,
-0.4699632,
-0.1052557,
0.3814822,
-0.0425378,
0.3839379,
-0.4219294,
-0.0870354,
-0.4519545,
0.2398294,
-0.0903133,
0.4000337,
0.1268458,
-0.0859270,
0.1310720,
0.4132499,
0.3095948,
-0.0592833,
-0.2216687,
0.2113389,
0.2720450,
0.5350311,
-0.3066531,
-0.3339872,
0.0693180,
0.2464196,
-0.2997050,
0.0405125,
-0.1864785,
0.0092224,
0.4507795,
0.1669802,
0.0215835,
-0.0538419,
0.2289984,
0.4930864,
-0.1783994,
0.2646988,
-0.1123926,
-0.1170578,
0.0511806,
0.3030815,
-0.2176738,
-0.2738322,
-0.2176168,
0.2796885,
0.4788170,
0.5746056,
-0.5520782,
-0.4713630,
-0.1417449,
0.2835687,
-0.3476260,
-0.0153214,
-0.4659571,
0.0953792,
-0.1573987,
-0.0928485,
-0.2745169,
0.1329668,
0.4048578,
-0.2647520,
-0.1059239,
-0.0615627,
0.1887188,
-0.4099949,
-0.0785708,
-0.5702881,
0.3368566,
0.2144335,
-0.1895077,
-0.0210979,
0.1635516,
0.1698340,
0.2884950,
0.4553889,
-0.3045884,
0.1255446,
0.0409520,
-0.2280339,
0.3699857,
-0.3853644,
-0.2860390,
-0.4223758,
0.2195376,
-0.2304764,
0.1183957,
0.3776808,
0.1874450,
0.4104695,
0.0824044,
0.1058573,
-0.3538211,
0.4674296,
-0.4742421,
0.2355678,
-0.5767029,
-0.1768907,
0.2935613,
-0.3756505,
-0.2088148,
-0.3170163,
-0.0641035,
0.4477223,
0.1964880,
-0.3587311,
0.0480871,
-0.2647778,
-0.4808888,
0.0502063,
0.2895162,
-0.2854838,
0.3510917,
0.4796184,
-0.4273364,
-0.1376086,
-0.2463654,
0.2381555,
-0.2136266,
0.4443365,
0.1461462,
0.3576833,
0.0391374,
0.2465655,
0.2091527,
-0.0549404,
0.0412285,
0.4776581,
-0.3729514,
-0.0728666,
0.3349984,
-0.1713716,
0.0332538,
-0.0495082,
-0.2502928,
0.1084052,
0.3544543,
-0.0652527,
-0.2557820,
0.5734628,
0.3607374,
0.2435540,
0.4023335,
0.0816723,
0.2355199,
0.4637983,
0.4308576,
0.4851322,
0.1998258,
-0.3033611,
0.4567679,
-0.1506744,
-0.3531272,
-0.0197752,
-0.4223375,
0.4378213,
-0.5437555,
0.0082717,
0.1498626,
-0.5107160,
-0.5226965,
0.3002814,
-0.1449560,
0.4035762,
-0.0713420,
0.6003656,
0.2411535,
-0.2362628,
-0.3505884,
0.1471782,
-0.4047826,
-0.4879904,
-0.0740773,
-0.4993837,
0.0686183,
-0.3440640,
0.4659192,
-0.0153221,
-0.3568462,
0.1694321,
0.2498461,
-0.4361538,
-0.4775520,
0.3445056,
-0.0971265,
-0.5567012,
0.0594674,
-0.0294641,
0.1819405,
0.0100198,
0.0625378,
-0.2763829,
0.0685697,
-0.0380436,
-0.2918261,
0.3843543,
-0.2410439,
0.2826293,
-0.4443458,
-0.1122856,
0.0125854,
-0.3253921,
-0.1126834,
0.4353143,
-0.3251348,
0.4588110,
-0.4014294,
-0.3840405,
-0.0582232,
-0.2722119,
0.3362850,
-0.1939602,
-0.1606985,
0.3752289,
0.3768539,
0.1364289,
0.3629075,
0.2504360,
-0.0403897,
0.3763525,
-0.0899268,
-0.1989634,
-0.4186650,
0.2595555,
0.0830450,
-0.2246203,
0.1282815,
0.2644573,
-0.3870462,
0.1897204,
-0.3504087,
0.1233440,
0.3643283,
0.0368422,
0.0568095,
-0.4748517,
-0.0162412,
0.1596836,
-0.3126963,
0.4372123,
0.3552834,
0.4896677,
-0.3794295,
-0.2635440,
0.3495346,
-0.3228972,
-0.5092352,
0.2418761,
0.3569209,
0.0482081,
0.1422671,
-0.4674007,
0.2557888,
0.3097836,
0.4029539,
-0.1979098,
-0.4176111,
0.0276530,
-0.4343782,
-0.3058085,
-0.2826266,
-0.2847870,
0.3175882,
-0.4181297,
0.2518630,
-0.1259490,
-0.3800608,
-0.2503765,
-0.4587980,
-0.1903490,
-0.2900371,
0.4409728,
-0.2037719,
-0.1905369,
-0.4033438,
-0.4013492,
-0.0996076,
-0.3697037,
0.3833486,
-0.3034096,
0.1439129,
0.1001464,
-0.1643652,
-0.0979707,
-0.0922122,
-0.2613038,
0.2041191,
-0.0098233,
0.2663492,
0.2697409,
0.1843682,
0.4837226,
0.4849539,
0.0019036,
-0.4345756,
0.2370748,
0.3780974,
-0.3133214,
0.4818057,
0.4036962,
-0.0128685,
-0.3247439,
0.3125292,
0.2727699,
-0.0111564,
0.4059411,
0.3665600,
0.3976308,
-0.4628150,
0.2535520,
-0.3895807,
0.1821290,
-0.1484373,
-0.0539459,
-0.4158417,
0.2593505,
0.1847503,
0.2882775,
-0.2504728,
-0.0489014,
0.0577729,
0.4334114,
-0.0654833,
0.0427995,
-0.0644915,
-0.0000843,
-0.2204708,
-0.1866884,
0.1866670,
-0.2380476,
-0.2821813,
-0.3259070,
-0.0626693,
-0.4699563,
0.4458442,
0.4260728,
0.4365347,
0.3133822,
0.3238158,
0.4737515,
0.0669315,
0.4342350,
0.1558805,
0.4184943,
-0.1197109,
0.2400322,
0.1778332,
-0.4349638,
0.0277050,
0.4252225,
0.0147282,
-0.4196478,
0.3524367,
0.4453308,
0.1223603,
-0.2098709,
-0.0551790,
0.4038449,
0.1058536,
-0.3621344,
-0.3253857,
0.3300834,
-0.1890608,
0.1074059,
0.3589307,
-0.2411217,
0.0348235,
0.2962189,
-0.4276185,
-0.1412183,
0.2700025,
0.1393131,
-0.2069541,
-0.0741776,
0.0577468,
0.1735266,
-0.3354986,
-0.2611660,
0.2490476,
0.1738827,
-0.3764126,
-0.2872365,
0.2479204,
-0.5211180,
-0.3415540,
-0.1477125,
-0.2286521,
0.1436140,
-0.1813502,
0.4342727,
0.3114934,
-0.0044070,
0.2474644,
-0.4028217,
-0.4035213,
0.1222146,
-0.1337615,
0.1344204,
-0.0826839,
-0.0616461,
0.4933825,
-0.3075090,
-0.4013058,
-0.1932807,
0.1417154,
0.1817752,
0.4611716,
0.2009849,
0.3017386,
0.1516420,
-0.1477500,
-0.6947773,
0.1946716,
-0.3411608,
-0.4662587,
-0.3672744,
0.2199981,
-0.0107140,
0.3929926,
0.4871413,
-0.2510706,
0.1018292,
-0.0284500,
-0.4275063,
0.2126296,
0.0723324,
0.1945653,
-0.4178219,
-0.2922923,
-0.3859674,
0.0444700,
-0.2451596,
-0.1623541,
0.1243302,
-0.0662014,
0.3350744,
-0.3203636,
-0.0311760,
0.1979869,
-0.4013468,
-0.5109834,
-0.5579072,
-0.4318412,
-0.4622448,
-0.0159308,
-0.1780868,
-0.1810150,
-0.5103636,
0.0490050,
-0.3670956,
-0.3974556,
0.3988637,
0.1719868,
0.0402278,
0.4628004,
-0.1055296,
-0.3893296,
0.1641838,
0.0428638,
-0.1412485,
0.2503950,
0.3856902,
-0.0389477,
-0.3690779,
0.1307231,
-0.4438181,
0.3799613,
0.3097882,
-0.1107227,
-0.0564834,
0.2879253,
0.1041766,
0.4008348,
-0.4539630,
0.1095096,
-0.3188426,
-0.2968603,
0.4360115,
-0.0976852,
0.3789714,
-0.4662732,
-0.0909442,
0.2366335,
0.1969482,
0.4323552,
0.2251434,
-0.3166267,
-0.4016993,
-0.1737689,
-0.0015835,
-0.1162124,
-0.3319157,
0.1634531,
0.3475924,
-0.1065857,
-0.0014040,
0.5548810,
-0.3682222,
0.5156839,
-0.0057042,
0.3470639,
0.5249161,
0.4473679,
0.1832647,
0.4582917,
0.1160140,
0.4660023,
-0.2116264,
0.1076583,
-0.2201227,
-0.3856625,
0.1192322,
0.1714837,
0.3506595,
-0.1543016,
0.0963126,
-0.0871514,
-0.2078006,
0.2712331,
0.4731677,
0.4914912,
-0.1482422,
-0.1001504,
0.0488894,
0.4341908,
-0.1577392,
0.3953347,
0.5386505,
-0.0565397,
0.2882336,
-0.2270055,
-0.1918153,
0.0971064,
-0.3468088,
0.4296538,
0.1349378,
0.3374265,
0.3754701,
0.3878287,
-0.0597886,
-0.3630465,
-0.5170219,
-0.4338459,
0.3209515,
0.1852393,
-0.1628831,
0.1126172,
-0.0488720,
0.3853611,
-0.0048105,
-0.0198744,
-0.0015792,
-0.5158061,
-0.0734013,
-0.1907140,
-0.5450708,
-0.2335295,
-0.4545023,
-0.4268405,
0.4993079,
0.2492009,
-0.2759555,
-0.2732376,
-0.1071957,
-0.0356415,
-0.3207153,
0.4885866,
-0.2202538,
-0.4724808,
0.4042465,
0.1935467,
-0.3037313,
0.3224084,
0.2775130,
-0.2706200,
0.3451216,
-0.1730168,
0.1189751,
-0.4085420,
0.3107766,
0.1148530,
-0.1904689,
-0.0042217,
0.0009564,
-0.1480665,
-0.4865304,
-0.4122713,
-0.1721158,
-0.4240304,
-0.4405051,
-0.1576413,
0.4244340,
-0.1406126,
0.0712687,
-0.2401954,
0.2835197,
0.2187676,
-0.2258676,
-0.4283190,
0.2659614,
-0.4006939,
0.3170550,
0.5763825,
-0.4575040,
0.1413304,
0.3791535,
0.2334603,
0.2713025,
-0.0800474,
0.2646037,
0.1378171,
-0.3741910,
-0.3244855,
0.0666767,
-0.3402232,
-0.3958599,
0.1170806,
-0.4375014,
-0.0809626,
0.2532125,
-0.3456580,
0.3074765,
0.1657868,
-0.0047240,
-0.1312565,
0.3850773,
-0.2015175,
-0.3730072,
-0.2723349,
-0.0734169,
0.3100734,
-0.2172333,
-0.2163132,
0.3912912,
-0.1318339,
0.2556356,
0.2156311,
-0.5309039,
-0.0777397,
-0.2710223,
0.4501740,
-0.1546798,
0.0908873,
-0.2768703,
0.2696769,
0.0086195,
-0.2110525,
-0.1392456,
0.0611598,
0.3044474,
-0.3340589,
0.2192831,
0.1089256,
0.2834368,
-0.2743096,
0.4641819,
0.2476147,
0.1035492,
-0.3135628,
0.5031517,
0.5457552,
0.6080948,
-0.0247281,
0.5155924,
0.2604676,
0.1476262,
0.2731009,
-0.0404957,
0.0276427,
-0.2837264,
0.3087316,
0.0322525,
-0.0372715,
-0.1868330,
0.1944004,
-0.3147545,
0.3157062,
-0.4598939,
0.1175873,
-0.1071234,
0.3422345,
0.2589561,
-0.4165530,
-0.1150208,
0.0832029,
-0.1065985,
0.0188605,
-0.0296780,
0.4115815,
0.0453971,
0.0552193,
0.1579098,
-0.0195797,
0.2876426,
0.2335229,
-0.3205629,
-0.6517767,
-0.3613221,
0.1336101,
0.1923856,
0.1876970,
0.1710673,
-0.3734472,
-0.4840369,
0.4681104,
0.3242007,
-0.2227601,
0.3110772,
0.3666672,
0.3724925,
-0.3434980,
0.0824152,
0.0647671,
-0.3028658,
-0.3858139,
-0.3051783,
0.2365259,
0.2398739,
0.2297418,
-0.0121873,
-0.2830628,
0.5626605,
-0.3170735,
0.1889787,
-0.1122923,
0.0617448,
0.2551667,
0.2377778,
-0.1613699,
0.1565201,
-0.2767200,
0.2223457,
-0.2592695,
-0.1761788,
0.3219028,
-0.2687166,
-0.3464077,
-0.4208118,
-0.5423520,
-0.6353001,
0.2795797,
-0.4226070,
-0.0201601,
-0.0753208,
-0.1050199,
0.4141689,
0.2967488,
-0.4052726,
-0.0514274,
0.0228691,
0.1907803,
0.1684485,
-0.0172047,
0.1600708,
-0.2388430,
-0.2400018,
0.2665253,
-0.2923783,
0.1723553,
0.2199812,
0.1949277,
0.3802353,
0.0464091,
0.4574608,
-0.2878548,
-0.1313334,
-0.3757393,
-0.3056689,
-0.2885346,
-0.4413403,
-0.4700297,
-0.5543278,
-0.5106748,
-0.8330749,
-0.8090883,
-0.7653995,
-0.7063264,
-0.4796636,
-0.2635924,
0.0761015,
0.2464192,
0.4253150,
-0.2705968,
-0.0253251,
0.2865379,
0.0581188,
-0.1357654,
-0.2273911,
0.1259546,
-0.3877780,
-0.4175337,
-0.1598815,
0.5074450,
0.1511267,
-0.2093716,
-0.4118632,
0.3244477,
-0.1974301,
-0.3151429,
-0.4682659,
-0.2083297,
-0.0391838,
-0.0661040,
-0.7666483,
-0.8044548,
-0.6107992,
-0.3697124,
-0.5250625,
-0.2986378,
0.0486997,
0.1923641,
0.5013829,
-0.1452959,
0.2582514,
-0.3883096,
-0.4445560,
-0.1363347,
0.1620217,
-0.1144739,
0.4984986,
0.3049893,
0.0006326,
-0.1737121,
0.1821187,
-0.5682421,
-0.1010498,
0.1989507,
-0.5598036,
-0.6061956,
-0.1631302,
-0.1104626,
0.0573367,
-0.3030107,
-0.0775099,
-0.5131162,
0.0182546,
0.1492828,
-0.1207283,
0.2062968,
0.2352705,
0.1106329,
-0.3968483,
0.0378185,
-0.4119680,
-0.4667811,
0.3251865,
-0.3217265,
-0.0962596,
-0.0060259,
0.1167140,
-0.0803896,
-0.2517008,
-0.5576460,
0.0687096,
-0.6297905,
-0.3563268,
-0.0866564,
-0.4241672,
-0.1329547,
0.0064174,
-0.0277027,
0.2042665,
-0.0754390,
-0.3108562,
-0.0606685,
0.0296465,
0.0685163,
0.2747462,
0.0548307,
-0.4668603,
-0.0009812,
-0.1501758,
-0.2065222,
-0.3758931,
-0.0468572,
-0.1697942,
0.4528118,
0.1738839,
0.2999492,
-0.0338629,
-0.2383297,
-0.3562230,
0.1499476,
-0.2702571,
0.5379592,
0.4594280,
0.2210098,
-0.1886016,
0.0554495,
0.0234570,
0.3327228,
-0.1481839,
-0.1063624,
-0.3856174,
-0.2517589,
-0.0439392,
-0.1709903,
0.3149187,
-0.0705786,
-0.4268643,
0.4715662,
0.4778415,
-0.0636770,
-0.2333915,
-0.3944229,
0.4113758,
0.1833022,
-0.3777553,
0.1318958,
-0.0426796,
0.1808245,
0.2884150,
0.2060271,
0.0483536,
0.6736837,
-0.1896055,
0.3092428,
-0.3641704,
0.0947592,
0.2127628,
0.3992147,
-0.2281638,
-0.6321381,
-0.3688687,
-0.1126575,
-0.1691525,
0.3553264,
0.3848756,
-0.2787781,
-0.1649126,
0.4753848,
-0.3064748,
-0.1857004,
-0.0749081,
0.0168081,
-0.0020076,
-0.1457875,
-0.3709517,
0.0780262,
0.4369831,
0.1437181,
0.6911332,
0.0376316,
0.2808187,
-0.3061114,
-0.0149511,
-0.2432258,
-0.3301522,
0.3012196,
0.1283009,
0.1486585,
0.0933048,
-0.4159766,
0.2922999,
0.4029278,
0.0741819,
-0.3249206,
0.2909237,
-0.0239254,
-0.1041170,
-0.3733372,
-0.0458121,
0.1060876,
-0.0225501,
0.4093270,
-0.3365699,
0.4775558,
-0.1850866,
-0.2191804,
-0.1522592,
0.3993644,
-0.0246830,
-0.0011752,
0.1259334,
0.0028298,
-0.0338273,
-0.6082584,
-0.1545042,
-0.0654636,
0.2294853,
-0.1916494,
-0.1856065,
-0.0549815,
-0.0132286,
-0.3565106,
-0.1402160,
-0.4285719,
-0.1817025,
-0.3491625,
0.0474097,
0.2211322,
-0.1936236,
0.4899963,
-0.1900745,
0.2603051,
0.3918199,
-0.0552172,
0.1452443,
-0.3363869,
-0.0097763,
0.3172998,
-0.6001322,
0.3934603,
-0.3911901,
-0.0517622,
-0.2813677,
0.0360586,
0.0047464,
0.3163798,
-0.3957011,
-0.1728228,
-0.3080830,
-0.0606457,
0.2827207,
0.1804503,
0.0829919,
-0.3574953,
0.2520258,
0.4059605,
-0.1892453,
-0.1844108,
0.1290367,
0.0796572,
-0.1518993,
0.4978076,
-0.1712066,
-0.3072298,
-0.2303591,
0.3719543,
-0.3144841,
0.2694430,
0.2898007,
-0.3011280,
0.1523931,
0.3950561,
0.2454142,
0.4853373,
0.0011854,
-0.2183088,
0.3361836,
0.1193079,
0.1134609,
-0.4717743,
-0.4412428,
-0.1038184,
0.2086759,
0.1417483,
0.0386329,
-0.0392312,
0.0445626,
0.3331101,
0.2586356,
-0.3477714,
-0.1001426,
-0.4424720,
-0.4330487,
0.1877142,
-0.2783533,
-0.1526143,
0.0363907,
-0.0993096,
-0.4300338,
-0.2195981,
0.1045317,
0.2653312,
-0.3035966,
-0.1567293,
0.2537888,
0.1997729,
0.1247951,
0.0899725,
-0.1809192,
-0.2617440,
0.1181982,
-0.1221619,
0.1344376,
-0.1731259,
-0.4804129,
-0.3268761,
0.2874284,
0.0626256,
-0.4949775,
0.0478285,
0.2222950,
-0.0929883,
0.1056491,
0.2987014,
-0.4057293,
0.3244000,
-0.3515507,
0.1367500,
-0.2698614,
-0.2701090,
0.4236587,
0.3358215,
0.4965078,
-0.3796824,
-0.3209078,
0.2502966,
0.3200905,
0.3038872,
-0.1597309,
-0.3608281,
-0.4578451,
0.4592567,
0.0186984,
0.1788287,
-0.2133933,
0.0392270,
0.3549190,
-0.4146176,
-0.3924410,
0.3550890,
0.1189913,
0.3088815,
-0.2436718,
-0.2699682,
0.1279201,
-0.1381721,
-0.4422540,
0.2729172,
0.4930540,
-0.2196853,
0.4973979,
0.4162584,
-0.3838637,
0.4939057,
-0.4634239,
-0.2047701,
0.2443642,
0.3568261,
-0.4007989,
-0.4141663,
0.4994073,
-0.3498797,
-0.4460763,
0.0327950,
0.3604790,
-0.1196518,
-0.4151617,
0.1957529,
-0.0646338,
-0.3214573,
0.0599987,
-0.4592969,
0.4904261,
0.3012905,
-0.2397818,
0.1025038,
-0.3520394,
-0.2010706,
-0.1439905,
-0.3676998,
0.0774509,
-0.1470152,
-0.4514414,
0.1936131,
-0.1525381,
-0.4140651,
0.4966824,
-0.3911449,
0.4531136,
-0.4087473,
-0.3256307,
0.4336729,
-0.2231349,
-0.2245191,
-0.0416028,
-0.5182858,
-0.0368973,
-0.0673657,
0.2106531,
0.4980893,
0.2246191,
-0.2273891,
0.4984266,
0.1430293,
-0.4580212,
-0.2819016,
-0.2933894,
-0.3372381,
0.0131132,
0.0612856,
-0.2073030,
-0.4093456,
0.4164367,
-0.1444562,
0.3221726,
-0.2032319,
-0.0625543,
0.2746885,
-0.1749925,
-0.1056084,
0.4254362,
0.0070956,
-0.3041446,
-0.4909518,
0.1829695,
0.3123615,
-0.2563118,
-0.0817126,
-0.1376005,
0.4489473,
-0.1927375,
0.3800931,
-0.4495307,
-0.2756009,
0.0380056,
-0.3887185,
-0.0733829,
0.2281614,
-0.2303689,
0.4392253,
-0.2093694,
0.0899755,
-0.4009620,
-0.2571796,
0.4350334,
0.3455774,
0.0036755,
-0.0844209,
0.1766806,
0.3815230,
0.2628319,
-0.0659005,
-0.1515501,
-0.3707272,
0.0866688,
-0.2246819,
0.4432051,
0.3310743,
-0.0960376,
-0.5306775,
-0.0230165,
0.1201995,
0.4349413,
0.1189402,
0.3369544,
-0.0561325,
0.2242967,
-0.2378189,
-0.3178665,
0.5498109,
-0.2507822,
0.0017313,
0.0831319,
-0.2342679,
0.3057521,
0.0870041,
-0.3081024,
-0.3171412,
0.3302032,
0.2051452,
0.4031565,
0.0938717,
-0.2244133,
0.0127366,
0.1297499,
0.2194027,
-0.1201926,
-0.3843165,
-0.3414611,
0.2650965,
-0.2023395,
0.3178294,
-0.1047270,
-0.3097502,
-0.0681956,
-0.2743004,
0.1460818,
-0.2864587,
0.0345945,
0.3883828,
-0.3034840,
0.1555909,
-0.3247173,
0.1031179,
0.3017037,
0.4079071,
-0.2338181,
0.5760116,
-0.3765770,
0.4426863,
0.1229165,
-0.3553348,
0.0400954,
0.1542225,
-0.2593163,
0.3457074,
-0.3578023,
0.1493118,
-0.3103412,
0.0501469,
-0.0469317,
-0.0457081,
-0.1070748,
0.3365043,
0.1458087,
0.3678115,
-0.3925863,
-0.1444702,
0.4962347,
-0.0414043,
-0.6738178,
-0.5383849,
-0.1853374,
-0.0481884,
0.5720762,
-0.0935870,
-0.1755296,
-0.6508217,
-0.4292281,
-0.1458000,
0.5475662,
0.1640621,
-0.0891800,
-0.0233214,
-0.1444207,
0.1173490,
-0.1932464,
0.1832473,
-0.1532405,
0.0318066,
-0.2338836,
0.2978583,
0.4794460,
0.1581698,
0.2098143,
0.1969413,
0.0639761,
0.1484747,
0.2607060,
-0.0152919,
-0.0395961,
-0.3689020,
0.2815125,
0.1657845,
-0.1916050,
-0.1976867,
0.1426410,
0.0497766,
-0.2239233,
0.2225264,
-0.4033664,
0.0268395,
0.0463630,
-0.1705831,
0.3214696,
0.4950808,
-0.4689460,
-0.3333182,
0.1767943,
-0.1357554,
0.1782795,
0.3995071,
-0.2892957,
0.2803188,
0.1116143,
0.2032467,
-0.3108065,
-0.3280237,
0.1415594,
-0.2276194,
0.1115784,
0.4511561,
-0.4168163,
-0.5020607,
-0.2009562,
-0.0714214,
-0.1722597,
-0.4821341,
-0.2408238,
-0.4611991,
0.4822919,
-0.2193161,
0.0055112,
0.0461895,
0.1247388,
-0.1837283,
0.0256950,
0.1427171,
-0.0221520,
-0.2648320,
-0.4374838,
-0.3258015,
-0.2978847,
-0.4395669,
0.3166283,
0.3370330,
-0.4674361,
-0.3334491,
0.3919745,
0.2156649,
-0.1256198,
-0.0418073,
0.0721228,
0.1730979,
0.0035205,
0.3660960,
-0.2019667,
-0.2549743,
0.4515220,
0.0701784,
-0.1972278,
0.3582935,
0.3149391,
0.3006010,
-0.1034395,
-0.0676597,
-0.3738783,
0.4764577,
-0.3672378,
0.0470863,
-0.3674048,
-0.5116988,
0.3717434,
-0.1675319,
-0.2163293,
-0.0273814,
-0.4861208,
0.1673324,
0.4538193,
0.4456980,
0.5056064,
-0.2441666,
-0.1874456,
-0.0269675,
0.5176402,
0.4652597,
-0.3205872,
-0.2691737,
-0.3352412,
-0.4529160,
0.3148361,
-0.0207441,
0.4026925,
0.1306370,
-0.2173713,
-0.1750674,
-0.4400322,
-0.1456772,
-0.3095460,
-0.4325671,
-0.5848885,
-0.2898760,
-0.3954910,
0.2641868,
0.3989290,
0.4068987,
0.0813389,
0.2170137,
0.3875346,
-0.2367413,
0.2025670,
0.4611737,
0.1126706,
0.4558343,
-0.2758961,
0.0009485,
0.3527973,
-0.1859266,
0.2896007,
-0.4553112,
-0.1276257,
0.1023734,
0.0229292,
-0.2745382,
-0.3974984,
0.3297668,
0.0841574,
-0.3520998,
-0.5388033,
0.0031213,
-0.4084859,
-0.3435373,
-0.1920031,
0.3882178,
0.4714426,
0.1730511,
-0.2820382,
-0.0747960,
-0.0152657,
-0.3131950,
0.1604148,
-0.4399070,
-0.4350173,
-0.2932919,
-0.4688802,
-0.2553303,
0.3027474,
0.4086600,
0.0714408,
0.0867623,
0.4355433,
0.3516013,
-0.4330956,
0.0980375,
-0.2343910,
-0.2116368,
-0.5404124,
-0.0625323,
-0.0663268,
-0.1233278,
0.2510596,
-0.1894167,
0.1545375,
0.2042752,
0.4321801,
0.1779311,
-0.0149268,
-0.2990214,
-0.4401698,
-0.5093192,
-0.1657529,
0.3024321,
-0.3100987,
-0.0182214,
-0.4165743,
-0.2743511,
0.2326906,
0.3889569,
-0.3798266,
-0.2886974,
-0.1424824,
-0.3776095,
-0.2074857,
0.0404927,
-0.0851103,
-0.1264982,
-0.4139203,
0.3952528,
0.0090303,
0.4415386,
-0.1271534,
0.6034523,
-0.3541367,
-0.4248569,
0.1765963,
0.4362732,
0.2205311,
-0.2575966,
-0.3336222,
0.3567309,
-0.1744341,
0.0724397,
0.1092212,
-0.0053725,
-0.4507986,
0.1910177,
0.2413477,
0.1882883,
-0.0428096,
0.3558053,
-0.3323747,
-0.3963757,
0.3146008,
-0.1525639,
0.2656689,
0.0807744,
0.5200161,
0.4230604,
-0.0571244,
-0.2847975,
0.4219707,
0.3424756,
0.5255897,
0.2540674,
0.2929783,
0.0949033,
0.2202215,
-0.0247292,
0.3209552,
0.2863167,
-0.3073972,
-0.4094054,
-0.1650918,
0.3146746,
0.1351627,
-0.1599059,
-0.0382760,
-0.1361866,
-0.1307935,
-0.3000241,
-0.2766085,
-0.0764517,
-0.2647617,
-0.3756266,
0.2297115,
0.5494346,
0.2508225,
-0.0521622,
0.5388739,
0.5339358,
0.0054722,
0.0073518,
0.2189291,
-0.1167232,
-0.3462114,
-0.1015677,
0.4778537,
0.2500987,
0.2606421,
0.2350726,
0.0187573,
0.4677065,
0.3371236,
0.3242739,
0.2543644,
-0.0701849,
-0.0577952,
-0.0556043,
0.4426029,
0.1563161,
-0.0154510,
0.3537377,
0.1252159,
0.0604768,
0.6113398,
-0.1454306,
0.0802649,
-0.0057269,
0.1340336,
-0.3165133,
0.0061970,
-0.5035268,
0.0586600,
-0.2627181,
-0.0235481,
0.1240771,
0.0500067,
-0.0945386,
-0.1362273,
-0.1925732,
-0.3229098,
0.3440575,
-0.2834538,
0.4590548,
0.3685948,
-0.3492818,
0.0126762,
0.5295135,
-0.2009159,
-0.4790410,
-0.0761021,
0.2909022,
0.4783036,
-0.4022668,
-0.1209211,
0.3950729,
-0.2346657,
0.1501104,
-0.0233970,
0.3617825,
0.2575373,
-0.3878197,
0.4980057,
-0.2590095,
-0.2377861,
-0.0676482,
0.3619655,
0.3158097,
0.3621180,
-0.2411987,
-0.4705926,
0.3962993,
-0.3642528,
-0.0166913,
0.4603281,
0.3638340,
-0.1104782,
-0.1560934,
0.2990033,
0.1832775,
-0.2035870,
-0.1887684,
0.1580451,
-0.0868708,
-0.1491242,
0.2584568,
-0.2387619,
0.0094156,
-0.1470914,
0.3587582,
-0.0556258,
-0.4349222,
0.3979310,
-0.0859501,
-0.1897756,
-0.3376351,
0.3469707,
-0.2684730,
0.4628939,
0.0924989,
-0.1435273,
-0.3766846,
0.2155329,
0.0961508,
0.0512492,
0.1268381,
-0.2347426,
0.2517506,
0.1993015,
-0.1771263,
0.3704737,
-0.0690588,
0.0165241,
-0.2201363,
0.1777816,
0.1730372,
0.4632454,
-0.4683347,
-0.2702197,
-0.1936566,
0.3433037,
0.1611442,
-0.1230519,
0.2413140,
-0.4179059,
0.2289556,
0.4241223,
0.3694986,
0.3244637,
0.2901276,
0.0852629,
-0.1972044,
0.4735178,
-0.3083545,
0.1404580,
-0.2193213,
0.3795195,
-0.2213676,
0.0239368,
0.3940511,
-0.0386409,
-0.2312359,
-0.2988218,
0.3306537,
-0.1046562,
0.3589897,
-0.0077630,
-0.1653132,
0.3506633,
0.2101483,
0.1414188,
0.1939079,
-0.1280030,
-0.4625169,
-0.0494362,
-0.0146518,
0.2436126,
-0.1565166,
-0.1681608,
0.0158709,
-0.4121553,
0.2496292,
0.1163855,
-0.4451282,
-0.3433273,
0.1505178,
0.2098144,
-0.3339866,
0.3651325,
-0.3355264,
0.4872568,
-0.3401596,
-0.3068342,
-0.4412990,
0.4264706,
0.0438388,
0.3880795,
-0.0876033,
0.3787674,
0.2388458,
-0.3788439,
0.0374810,
-0.0241391,
0.0300081,
0.0979681,
0.4579455,
0.5654346,
-0.1147686,
-0.2242282,
-0.1430629,
0.2636335,
-0.0482100,
-0.2819064,
0.1902050,
0.2069205,
0.1092076,
-0.1824792,
-0.1971485,
0.1712196,
-0.5013034,
-0.2341681,
0.0590212,
-0.3711155,
-0.0588694,
0.1091168,
-0.4450023,
0.4856794,
-0.0028037,
-0.0325789,
0.3637040,
-0.2507582,
0.1116543,
-0.0874509,
0.2028601,
-0.3282899,
0.5350022,
0.1010899,
-0.4380579,
-0.2901050,
0.3588280,
-0.0644877,
0.5682022,
-0.2297899,
0.1691946,
0.1269840,
0.2744387,
-0.3452779,
0.3547022,
0.4785506,
0.2809648,
0.3534360,
-0.2532003,
-0.1603769,
0.4825763,
0.1882961,
0.4487399,
-0.4624260,
0.1739742,
-0.0540901,
0.0059923,
0.0444046,
0.1885086,
-0.4007399,
0.4341695,
-0.1366872,
-0.3008716,
0.3507884,
0.4057928,
-0.2880356,
-0.4843141,
0.1310023,
0.0450064,
0.4912745,
0.2839299,
-0.3467898,
0.1049052,
0.0326764,
-0.2105513,
-0.0468163,
0.0111187,
-0.4295975,
-0.1933795,
0.2579184,
-0.0899743,
-0.2108032,
-0.0537854,
-0.1412344,
-0.1732292,
-0.3798099,
0.3047018,
0.3317392,
0.1586125,
-0.0134229,
0.4253349,
0.0788211,
0.3371331,
-0.3946671,
-0.0720910,
0.2242030,
-0.1918830,
-0.0585718,
-0.1476065,
0.3434080,
-0.0687840,
-0.3636038,
0.4935000,
-0.4676398,
0.1690043,
-0.2170512,
-0.0144560,
-0.3198769,
-0.1466487,
0.2921645,
0.4380414,
0.2633783,
-0.4187238,
-0.1160571,
-0.3795332,
-0.0931665,
0.0010299,
0.4206645,
-0.2773074,
-0.3477964,
-0.0862563,
-0.3404906,
0.2381373,
-0.2525373,
-0.2301959,
-0.3350130,
0.4689642,
0.0780923,
0.1125044,
-0.1732543,
-0.0766251,
-0.4547204,
-0.0364819,
-0.0831251,
-0.4223602,
-0.3674776,
0.1998234,
0.0625123,
-0.1876288,
-0.4468953,
-0.1457835,
-0.2537437,
0.3091895,
-0.0708223,
0.1233776,
0.4235224,
0.3563785,
-0.3255446,
0.3833370,
-0.4101041,
-0.2095684,
-0.2358185,
-0.2596361,
-0.4648082,
0.0237494,
0.0157726,
-0.2869228,
-0.0000084,
-0.3931758,
0.3370670,
0.3313362,
0.0264226,
0.3791527,
-0.2051457,
0.4469207,
0.4556484,
-0.0742903,
0.1532087,
0.0222655,
0.2429896,
0.2204076,
0.4036157,
0.5293661,
0.0597365,
-0.0808920,
0.2391389,
0.0535930,
-0.3064734,
0.3312537,
-0.0872386,
-0.1876812,
-0.3939188,
0.1474527,
-0.0122046,
-0.4209616,
-0.3847106,
-0.4623787,
-0.1506861,
0.1308731,
-0.3810517,
-0.3316539,
-0.0389210,
0.1583875,
-0.4478920,
0.2595972,
0.1195824,
-0.4380068,
-0.2367517,
-0.1058361,
0.1720908,
0.5842647,
0.5737062,
0.0352405,
0.4797368,
0.0528351,
0.3421360,
0.2070556,
0.4856134,
0.4942851,
-0.1028036,
-0.1569648,
-0.3656828,
-0.1794629,
0.2427813,
0.1298571,
0.0118617,
0.4326353,
0.1188436,
0.3213604,
0.0608720,
0.2400578,
0.4977093,
-0.4572698,
-0.0538238,
-0.3493011,
0.4870734,
0.6621248,
-0.3114800,
0.6352031,
-0.1269418,
0.1998299,
0.4357517,
-0.2639926,
0.4658358,
0.3597615,
-0.0403240,
0.2126233,
-0.1388078,
-0.0382686,
0.0570727,
0.1184222,
0.1662860,
0.1548139,
-0.4731687,
-0.0207133,
-0.2415026,
0.0021071,
-0.0886127,
0.3810140,
-0.1603208,
0.5031474,
0.1668380,
-0.0440503,
0.7044190,
0.6998519,
0.0791853,
0.3730726,
0.5193443,
-0.0034655,
0.2669486,
-0.3452124,
0.3273840,
0.1318089,
-0.1073407,
0.4751187,
-0.1331538,
0.3047602,
0.1043048,
0.1298893,
-0.2763735,
-0.3617706,
-0.1158833,
-0.4883143,
0.3002352,
-0.0871573,
-0.0003006,
-0.4379511,
0.4295494,
0.4433831,
0.4817961,
-0.1289543,
0.6040445,
0.2606350,
0.0857180,
0.2793607,
0.0517528,
0.4727734,
0.1186122,
0.0164172,
-0.2190139,
-0.0467169,
0.2152119,
-0.2979614,
0.3936960,
0.3469326,
-0.3750705,
-0.1852215,
0.2885444,
0.2286541,
-0.3488945,
-0.2894513,
0.4189444,
0.0668917,
-0.2626292,
0.2204228,
0.4932546,
0.2802905,
0.3352619,
0.5085030,
0.4020032,
0.4869989,
-0.2241544,
0.1647476,
-0.1423106,
0.1341809,
-0.2925325,
0.4347427,
0.2783914,
-0.3271093,
-0.2243832,
0.2451812,
-0.1423341,
-0.4996868,
-0.3633641,
-0.1017326,
-0.5606677,
-0.3477034,
0.2799011,
0.3970404,
-0.4187633,
-0.4856095,
-0.3706367,
-0.4950929,
0.1086480,
-0.0534592,
0.3752203,
0.2397490,
-0.0794541,
0.2997683,
0.1913962,
0.3892391,
-0.2179924,
0.0167036,
-0.4320742,
-0.0085873,
-0.1047330,
0.2834122,
-0.2540221,
0.1834567,
0.1572687,
0.1038118,
0.1381995,
-0.4337438,
0.0075330,
0.1878156,
0.0103162,
0.2033200,
-0.3172598,
-0.0740607,
0.1241713,
-0.2337263,
-0.0127045,
0.3420621,
-0.0565369,
-0.3005566,
-0.2165534,
0.6982316,
0.2345166,
-0.2027745,
-0.0418443,
-0.6378028,
0.2547814,
0.1380309,
0.1021518,
-0.0921309,
-0.2354714,
0.2295243,
0.3038712,
-0.1216817,
0.1069182,
0.0595858,
-0.4861118,
-0.1437069,
0.2415860,
0.3362549,
-0.1083461,
-0.1383714,
0.0586158,
0.0874628,
0.3439139,
-0.2029657,
0.4649640,
-0.2048533,
0.4717975,
-0.1612025,
-0.1182776,
-0.4058802,
-0.4825582,
0.0335198,
-0.5249959,
0.0782090,
0.5277520,
-0.2220784,
-0.0822260,
0.0239285,
-0.1128207,
-0.0374967,
-0.1680935,
-0.0991521,
-0.5360709,
-0.4341077,
0.4723634,
-0.3325006,
0.1964560,
0.2694106,
-0.4805254,
-0.4030671,
-0.3368923,
0.1624876,
0.2339695,
0.4145572,
0.2672470,
0.0329983,
-0.3823853,
0.1370063,
-0.1928925,
-0.4388958,
-0.1555548,
0.1592508,
-0.1920694,
0.4574700,
-0.1383824,
-0.2729558,
-0.3352147,
0.0304069,
0.0497424,
0.1423695,
-0.4344239,
-0.5360284,
-0.4863472,
-0.3691041,
-0.3058533,
-0.4997769,
-0.1926474,
0.3965938,
0.2915820,
-0.1183724,
0.5238348,
0.4134912,
0.3641686,
0.1116156,
0.2070236,
0.0670033,
-0.4812923,
0.1499385,
-0.5193025,
0.1796209,
-0.0481014,
-0.4324208,
0.1394494,
0.2593063,
-0.4590000,
0.2861387,
0.2247720,
-0.3011712,
-0.1356012,
-0.2509672,
0.3579569,
0.0160993,
-0.2061944,
0.3562151,
0.1407324,
-0.0088834,
0.3729255,
0.4790241,
-0.1062203,
0.1588607,
-0.2809139,
-0.1925797,
-0.0030804,
-0.3711235,
-0.5564591,
-0.3740496,
-0.0244762,
-0.3760938,
-0.0969889,
-0.4135894,
0.4934061,
0.2041370,
-0.1796828,
-0.1056686,
-0.1811031,
-0.2984959,
-0.3076183,
0.3813317,
-0.1623250,
0.0973621,
-0.2866761,
-0.3164834,
-0.4006685,
0.0116482,
-0.4418628,
0.2720596,
0.5079946,
0.4262666,
0.1218909,
-0.0715018,
-0.0031019,
0.2882200,
-0.0033692,
-0.7883787,
-0.5016550,
0.3260038,
0.1212511,
0.4125461,
0.3029783,
0.2761923,
-0.2372084,
0.3984966,
-0.0050843,
-0.1636209,
-0.2274765,
0.0939969,
-0.1854244,
-0.0533593,
0.0559087,
0.1664900,
-0.4848582,
0.2776926,
0.3588711,
-0.3958249,
-0.2457047,
0.4404282,
0.4350745,
-0.1317665,
0.4086864,
-0.0836242,
-0.0910134,
-0.3687408,
-0.0652084,
-0.0084279,
0.1035373,
0.2858519,
-0.3574249,
0.3294950,
0.1571707,
-0.3496018,
0.1696036,
0.2502754,
0.4796105,
0.3509460,
0.2709149,
-0.4047864,
-0.0476599,
-0.4055977,
0.0068220,
0.5190250,
0.2923422,
-0.0039501,
0.2380230,
0.0800096,
0.1834928,
-0.2680494,
0.1349938,
-0.1095370,
-0.3503532,
-0.4266722,
-0.4749658,
0.5555009,
0.2875486,
0.2765284,
0.0176371,
0.3944968,
-0.3299800,
0.0217826,
0.3934589,
0.3884844,
0.1781834,
-0.2465049,
-0.1937917,
-0.1262121,
0.4847931,
-0.4783902,
-0.0654615,
-0.0379687,
-0.3288691,
0.3947421,
-0.1417011,
0.2487100,
-0.0822324,
-0.1273377,
0.1318497,
-0.3439207,
-0.3650163,
0.2357734,
0.0870569,
0.2252668,
-0.1280444,
0.1852777,
-0.0143273,
0.1716882,
-0.3607231,
0.4184114,
0.4686414,
-0.0254477,
-0.0155452,
0.1104999,
0.4590450,
0.3444706,
0.1828887,
-0.3139874,
-0.3109127,
0.1943988,
-0.2920551,
0.0415222,
-0.5061193,
-0.2478722,
0.0757376,
0.1724975,
-0.0852847,
-0.3047822,
0.0651885,
-0.0528913,
-0.3607537,
0.5150119,
0.1807526,
0.2962344,
0.0411847,
0.2580897,
-0.1468242,
-0.3335382,
0.4206961,
0.0447531,
0.4573546,
0.1645134,
0.2103883,
-0.2772788,
-0.3412304,
0.1296654,
-0.4495279,
0.3359943,
0.3710195,
-0.2734693,
-0.0666200,
-0.5566771,
0.3267416,
0.2029482,
0.0217745,
0.0847074,
-0.5226221,
-0.0233099,
0.0094467,
0.3980391,
-0.2068018,
0.3799984,
0.4129648,
0.3667652,
-0.0658211,
0.0233045,
0.4749398,
0.1900611,
-0.0691827,
0.1636331,
-0.4599775,
-0.2363996,
-0.2054874,
0.2460745,
-0.0164177,
-0.0491365,
-0.0900384,
0.0321100,
-0.2178990,
-0.3583613,
0.2393885,
0.2932879,
-0.3680216,
0.1859546,
-0.1533726,
0.0752517,
-0.3928040,
0.1555203,
-0.2055317,
0.3179329,
-0.0864093,
-0.1330631,
-0.1359973,
-0.0941668,
-0.2107342,
-0.0127187,
0.1426751,
-0.4278816,
-0.4614780,
0.4869541,
0.2360073,
-0.4080050,
-0.2473929,
-0.4647452,
0.3389588,
0.2585250,
0.0487366,
-0.2291692,
-0.1127735,
0.4081505,
-0.2370217,
-0.5285089,
0.0698871,
0.0020722,
0.1776761,
0.5895265,
-0.2428997,
0.3052067,
-0.0578591,
-0.1496628,
-0.0059573,
0.5620228,
0.1969995,
0.0412396,
-0.2469335,
0.3415258,
0.4369743,
0.3423608,
0.4150923,
0.4869812,
0.3315313,
0.1516299,
-0.4070480,
-0.3993811,
0.2122593,
0.3671932,
0.4174848,
-0.3721312,
-0.4630102,
-0.5023792,
0.3693444,
-0.0552073,
-0.3632423,
-0.0190533,
-0.2786054,
0.3402696,
-0.0342148,
-0.0742127,
0.2590765,
-0.3422739,
0.1924077,
-0.4202213,
-0.4504199,
-0.2778154,
0.0582891,
-0.2284891,
-0.4387664,
0.0040169,
-0.3859224,
0.4764389,
0.0018796,
0.4819700,
0.1758513,
0.1266474,
-0.4752867,
-0.2238505,
-0.0196810,
0.3738361,
0.0263758,
0.0299758,
0.3127656,
-0.1578624,
-0.4409462,
-0.4494139,
0.4616338,
-0.1184354,
0.5584169,
0.0167352,
0.1651045,
0.1758188,
0.0281918,
-0.2465778,
0.2270725,
0.0669343,
-0.0228641,
-0.2124182,
0.3383986,
0.0383422,
0.2907785,
0.4701124,
0.0561275,
-0.1748393,
0.4257615,
-0.3182835,
0.3608613,
0.4608995,
-0.0419622,
-0.0758482,
0.3267292,
0.4990712,
0.5244355,
0.3067896,
-0.1162120,
-0.3039938,
0.3739399,
-0.2002390,
-0.0752866,
0.3051390,
0.2387030,
-0.4402467,
-0.0135243,
-0.2293143,
-0.1821026,
-0.2870137,
0.3376154,
0.2950333,
0.0005858,
0.1761419,
-0.1698177,
-0.2090941,
0.1348262,
0.3553664,
0.1022852,
0.0636243,
0.5007208,
-0.0594611,
0.0189124,
0.0536424,
0.3549427,
-0.2033576,
-0.0683661,
0.2827728,
0.4652785,
0.2036295,
0.3347193,
0.2852654,
0.4921034,
-0.2437997,
0.1012843,
0.2359043,
-0.1810352,
-0.4121903,
-0.4934086,
0.1368622,
-0.1992040,
0.3442094,
-0.0680889,
0.3012546,
0.0195248,
0.2663776,
-0.4027069,
-0.3477561,
0.1108012,
0.1711160,
0.1867286,
0.1272565,
-0.3871434,
-0.3626529,
-0.4466199,
0.3707798,
-0.1340616,
-0.0872563,
0.0912365,
-0.1791970,
-0.3792225,
-0.0774594,
-0.3939623,
-0.3867517,
0.1786951,
0.2073220,
0.3491526,
0.4976599,
0.2951317,
0.3557440,
0.1345221,
-0.4040723,
0.1999507,
-0.4335823,
0.3972917,
-0.2798284,
0.3317162,
0.4907954,
-0.1312332,
-0.0549483,
0.1591141,
-0.4558307,
-0.4512586,
0.2547434,
-0.3261376,
-0.4062205,
0.1172803,
0.0358543,
0.0055443,
-0.2958461,
0.3547037,
0.1263113,
0.1266944,
0.4607413,
0.2395596,
-0.1946104,
0.1680634,
0.0887122,
-0.1969507,
-0.0372945,
-0.0561760,
0.4377242,
0.0594102,
-0.3540404,
-0.4965506,
-0.0438789,
-0.1344584,
0.3357263,
-0.0518792,
0.2380053,
-0.2154288,
-0.3910051,
0.2749409,
-0.1734463,
0.3598668,
0.4524785,
-0.0765812,
-0.0216228,
-0.0126530,
0.4288856,
0.1825311,
-0.1579493,
0.0551969,
-0.1907745,
-0.1977264,
-0.2053854,
0.1144469,
0.4698107,
0.3818606,
0.4164117,
-0.0677278,
-0.1690740,
0.3545934,
0.4853759,
-0.0421812,
0.3455102,
-0.0581393,
0.3381570,
0.1940993,
0.4076150,
0.0913595,
0.4867054,
-0.4902727,
-0.1457856,
-0.1931286,
0.3639049,
-0.2008911,
0.2286545,
-0.1573477,
0.2868414,
0.1575401,
-0.4746153,
-0.3725017,
-0.2873951,
-0.1668670,
-0.0796814,
-0.0037062,
0.4347677,
-0.1381387,
-0.1344764,
0.3708527,
0.3370319,
0.2228129,
0.2738962,
0.4561555,
-0.1976792,
0.1589370,
-0.1664516,
-0.4466406,
-0.1679893,
-0.3054441,
0.1073095,
-0.2329962,
-0.3089578,
0.4503460,
0.0576137,
-0.4563714,
-0.2540043,
-0.2141995,
-0.1127077,
-0.4636134,
0.4531199,
-0.0797277,
-0.3254890,
-0.3549800,
0.2251329,
0.0317224,
0.1837307,
0.1831265,
0.4619577,
-0.4812894,
0.1097406,
0.5485534,
0.4215855,
-0.2336151,
0.1284869,
0.5000460,
0.4042877,
0.4686347,
0.5066115,
-0.3644259,
-0.3742572,
0.0905678,
-0.1078295,
-0.2010911,
0.0377678,
0.4497195,
-0.1587151,
0.2889980,
-0.2536913,
0.2484113,
0.3535620,
-0.2492653,
-0.2975198,
0.5618340,
-0.1402069,
0.2861025,
0.0805372,
0.5881023,
0.3757516,
0.4186876,
-0.1545505,
-0.1470832,
-0.0159117,
0.3893587,
-0.0915371,
-0.4974094,
0.2472235,
-0.2112856,
-0.4966629,
0.2805940,
-0.0733579,
-0.3754846,
-0.1248689,
0.3224072,
-0.0741486,
0.4398372,
0.2968218,
0.2714701,
0.2128417,
-0.4648658,
0.0541358,
0.0865538,
-0.4375108,
-0.0382446,
-0.0533062,
-0.0042539,
0.0194523,
-0.3447351,
0.1889053,
-0.2853481,
0.0647531,
0.0787931,
-0.2383396,
-0.4168563,
-0.1276053,
0.0634892,
-0.4971349,
-0.3496841,
0.4266376,
-0.4048207,
0.4744088,
-0.1247413,
-0.2698646,
-0.1199203,
-0.2570546,
0.1534938,
-0.2062916,
0.4291932,
-0.1696998,
0.3491143,
0.2981776,
0.3342960,
0.0219341,
-0.3885919,
-0.0077436,
0.4883827,
0.2226514,
-0.4166741,
-0.6680447,
-0.3484427,
-0.4276984,
0.1568265,
0.2117302,
-0.2152495,
0.1147616,
-0.3629825,
0.4720852,
0.2806307,
-0.1328983,
0.4430282,
0.3885991,
-0.1515994,
-0.1359014,
-0.3365810,
0.2346333,
0.0150560,
0.2191941,
0.3675582,
-0.1142493,
-0.2612960,
0.5591974,
-0.0936207,
-0.3854310,
0.1119879,
0.2612633,
-0.1045575,
-0.2690641,
-0.3086785,
-0.0112224,
-0.0875857,
-0.0001427,
0.0768080,
-0.6003302,
-0.2860164,
-0.5072552,
0.2204374,
-0.0424311,
-0.4845670,
0.0164370,
0.3315826,
0.5057305,
-0.0251489,
-0.2642632,
-0.1699594,
-0.0779919,
0.2657413,
0.3159269,
-0.1115975,
0.4855545,
-0.3363175,
-0.0248906,
0.4063265,
0.2265724,
-0.2363473,
-0.4966818,
-0.1223157,
0.4534680,
-0.0385446,
0.1435226,
-0.1540281,
0.1657312,
-0.4726286,
-0.3590419,
0.3704103,
-0.0854632,
-0.3108728,
0.1109747,
0.4055437,
-0.2394251,
-0.3215442,
0.3195479,
-0.2678675,
-0.0620961,
0.3104762,
-0.0653871,
0.4779995,
0.2196456,
-0.2809963,
-0.2353171,
0.0817518,
-0.0045673,
0.0624264,
-0.2468992,
-0.2331589,
0.4245798,
-0.2107908,
0.0415195,
0.2922574,
0.1624918,
-0.4713153,
-0.1184129,
0.1379515,
-0.2519729,
0.0791116,
0.0288140,
0.2363625,
0.3364389,
-0.3867583,
0.0613549,
0.5001597,
-0.2190606,
-0.2068270,
-0.3089220,
0.0622386,
-0.5699389,
-0.0322844,
0.0818700,
0.4144212,
0.2768855,
0.4646950,
-0.1028039,
-0.2154076,
0.0139147,
0.0747637,
-0.1376849,
-0.1507698,
0.3343673,
0.2324286,
-0.2198717,
0.2444611,
0.4157798,
0.2128384,
-0.1044775,
-0.2777679,
-0.1450206,
0.4073155,
0.3204058,
-0.5490289,
0.4771862,
-0.1447383,
0.5414311,
-0.4992598,
-0.0379828,
-0.4965317,
0.2388612,
0.3969941,
0.2066471,
-0.0980380,
0.0844749,
-0.0257783,
-0.0141168,
0.4093559,
0.0787874,
0.2624004,
-0.1113728,
0.2620826,
-0.3676812,
-0.1499102,
0.0991668,
-0.0434458,
-0.3998015,
0.0593495,
-0.2765014,
-0.0170674,
0.1338609,
-0.1931976,
-0.2001135,
0.0189572,
-0.0181108,
-0.3370141,
0.2488017,
-0.0875773,
0.1028190,
0.1375102,
0.1480789,
-0.1601996,
-0.3626783,
-0.2481605,
0.4809672,
0.2492848,
0.0635616,
-0.3805300,
-0.0770529,
-0.5023952,
0.3858579,
0.3707681,
0.3280952,
-0.4353031,
-0.2747584,
-0.0398029,
0.0419774,
-0.1702734,
0.3526687,
0.0597020,
0.1917390,
0.0050578,
-0.5326432,
-0.4987673,
-0.3251871,
0.2287731,
0.0993287,
0.5513868,
-0.4271634,
-0.4493480,
-0.1393245,
0.2047020,
-0.0513391,
0.1928208,
0.5242309,
-0.2997809,
-0.3249318,
-0.0110177,
-0.1414021,
0.1745804,
0.0356381,
-0.2122641,
0.0521519,
-0.1118084,
-0.1417233,
0.2387712,
0.2105339,
0.2351173,
-0.6044659,
0.0601651,
-0.0516879,
0.4170169,
-0.0494815,
0.2254067,
-0.3682335,
0.1416575,
-0.2264513,
0.1423910,
-0.0285562,
-0.0612186,
0.2180384,
0.5637857,
-0.1236432,
0.4982601,
-0.0301641,
-0.3558394,
-0.3079807,
0.2173696,
0.1750881,
0.0708432,
-0.1033218,
-0.2996634,
0.3446571,
0.3924616,
-0.0059071,
-0.3660826,
0.0829079,
-0.3395794,
-0.5578162,
0.3232940,
-0.2398157,
0.1874689,
0.2138907,
0.1227955,
-0.2260363,
0.2561103,
0.5035494,
0.2150621,
-0.1440370,
-0.0790360,
-0.3326314,
0.4130466,
-0.2089928,
-0.2340761,
0.3560766,
0.3213487,
-0.0103273,
-0.4095893,
0.0430575,
-0.3639274,
0.0968466,
0.3247488,
-0.3261037,
-0.0475989,
0.2372982,
0.2797440,
0.0835836,
0.0237702,
-0.0911611,
0.3596401,
-0.0522704,
-0.0281689,
-0.1824854,
-0.3331748,
0.4501342,
0.3404888,
0.2476082,
0.3028215,
-0.1790577,
-0.4477998,
-0.3370124,
-0.1123490,
0.4783505,
0.0259898,
0.2643603,
0.3825619,
-0.1416372,
-0.2628190,
0.3910630,
0.2612814,
-0.3089760,
0.0177343,
0.2946797,
0.2640929,
-0.2831681,
0.2554782,
0.3554808,
0.4070202,
-0.1918636,
-0.4384314,
0.2130529,
0.2723832,
0.0359965,
-0.4609950,
0.1200563,
-0.1897899,
0.1363373,
-0.1362974,
-0.4463887,
-0.5008413,
0.0588763,
-0.1633129,
-0.0179336,
0.0610211,
0.3921875,
-0.2338313,
-0.0915192,
-0.3159411,
-0.1564500,
-0.1831056,
-0.3517663,
0.4201184,
-0.4348912,
0.4461026,
0.2705210,
-0.3446945,
0.1053164,
-0.0631874,
-0.3639987,
0.4668907,
0.0756620,
0.2227044,
0.0562344,
0.4429652,
0.0699288,
-0.3424810,
-0.2332999,
-0.1577613,
0.2526329,
-0.0302919,
-0.0892202,
-0.1636789,
0.3135741,
0.4172747,
0.4290289,
0.2180292,
-0.4163361,
-0.1908099,
0.4669368,
0.1846742,
0.2374783,
-0.4706141,
0.0924716,
0.3444783,
0.4683833,
-0.3036361,
0.5328092,
0.1130608,
0.1351471,
-0.4456689,
-0.0104397,
-0.3234183,
0.0190099,
-0.5057436,
-0.3174457,
-0.1819577,
-0.1353178,
0.0590067,
0.2122999,
-0.3685003,
-0.4813604,
-0.3751162,
-0.0187791,
0.4163067,
-0.3923010,
-0.0844684,
0.1880724,
-0.2317589,
0.2308826,
-0.0857619,
0.4805969,
0.0355045,
0.0044248,
-0.1690245,
-0.0999584,
-0.1457111,
-0.0419662,
-0.3530192,
-0.5301860,
-0.2486606,
-0.3868308,
-0.0374362,
0.0744154,
0.3759061,
0.1203374,
0.3196532,
-0.2725688,
0.4869416,
-0.1208500,
0.4348401,
-0.3429464,
-0.0075526,
-0.3225650,
0.2512688,
-0.0040044,
-0.1998219,
0.6171196,
0.2342277,
-0.3155052,
0.0047944,
-0.3395658,
-0.5138610,
-0.3176425,
0.1585073,
-0.2757883,
-0.2941922,
-0.4816453,
-0.5468900,
-0.0736225,
-0.4376626,
-0.1648560,
0.1953800,
0.1406178,
0.4395619,
0.0903855,
-0.2416451,
0.2588444,
0.3363483,
-0.1937888,
-0.2853016,
0.3355092,
-0.0708026,
0.0211223,
0.2658915,
0.4407965,
0.1307562,
0.1020461,
0.0519971,
-0.0969703,
-0.4061335,
0.0013915,
0.2798850,
-0.4010321,
-0.0486721,
-0.0596792,
0.0009383,
0.2739373,
0.0528549,
0.0306803,
-0.1698076,
0.2041585,
0.3917353,
-0.4641031,
-0.1562894,
0.3313217,
0.1485230,
0.1702983,
0.2250571,
0.0769730,
0.4270432,
0.2012276,
-0.4307516,
-0.2843483,
-0.3029755,
-0.6999732,
-0.6311524,
-0.5992881,
0.3602010,
-0.4852875,
0.1736139,
-0.5429368,
-0.0369765,
-0.0080381,
-0.2708391,
-0.3945320,
0.4411850,
0.2419200,
0.4508012,
0.0504149,
-0.2031428,
-0.2138800,
-0.2453894,
-0.3114196,
-0.1756042,
0.1480758,
-0.4020216,
0.5116995,
-0.2640228,
0.0388182,
-0.1474777,
-0.3988851,
-0.1315915,
0.0699166,
-0.3235126,
0.0481773,
0.1449520,
-0.1522478,
0.0962319,
-0.0092147,
-0.0644116,
-0.1580578,
0.1171659,
0.4936507,
0.2964503,
0.2985667,
-0.3976086,
0.2675327,
0.0607155,
-0.4443550,
-0.1813037,
0.3575727,
-0.1582303,
0.0716577,
-0.4500566,
0.1699858,
-0.3124539,
-0.4151488,
0.1672923,
-0.0904733,
0.2142770,
-0.4495424,
-0.0367558,
-0.4193439,
0.1273176,
0.2384637,
0.2016283,
-0.2310531,
-0.4126576,
-0.1910228,
0.2744458,
0.0561399,
0.1556743,
-0.1571132,
0.0433787,
-0.0332143,
-0.3513356,
0.1461056,
-0.2652845,
0.2093799,
0.2017505,
0.0534013,
0.0669653,
-0.4565653,
-0.3737773,
0.1148876,
0.2133607,
-0.1917792,
0.1811876,
-0.1796572,
0.1766418,
-0.1278853,
-0.1642598,
-0.4019588,
-0.1190700,
0.4326808,
0.2666572,
0.5047676,
-0.3462567,
0.3799215,
-0.1851577,
0.3887498,
-0.0907594,
0.4707923,
-0.2683491,
0.4526188,
-0.0624221,
-0.1196848,
0.0987244,
0.1722935,
-0.4103049,
-0.1995251,
-0.2742947,
0.1566476,
-0.1560096,
-0.1475758,
-0.2302346,
-0.4487729,
0.1504467,
0.4487239,
-0.1293425,
-0.1788672,
-0.1954387,
0.1945253,
-0.0887572,
0.1754196,
0.1169136,
-0.3201405,
0.1744865,
0.2538934,
-0.4578255,
0.4878076,
0.1426433,
-0.0485849,
0.4585999,
0.3742942,
-0.0959661,
-0.1038223,
-0.2453939,
-0.4987635,
-0.4337101,
-0.1553940,
-0.1971423,
-0.2054269,
-0.4989308,
0.1514872,
0.1502434,
-0.2227661,
0.2120426,
-0.2088454,
-0.2793129,
-0.4250186,
0.1237161,
0.0292009,
0.2705204,
-0.4655821,
-0.3001427,
-0.1193833,
-0.2903930,
0.3741220,
-0.3654899,
-0.2482186,
0.3619296,
0.2771534,
0.2030698,
0.3204967,
0.1513888,
-0.3929190,
-0.2850179,
0.4038405,
-0.3994181,
-0.2183136,
-0.2572144,
-0.0920749,
0.0984934,
-0.2477636,
-0.4159647,
